{"ft": {"w0": [[-0.31358465552330017, 0.27671104669570923, -0.06215200945734978, -0.6546527147293091, 0.5586273670196533, 0.5476977229118347, 0.019454583525657654], [-0.8122152090072632, 0.33736997842788696, -0.23579910397529602, 0.44048821926116943, 0.024813838303089142, -0.5361524224281311, 0.7302861213684082], [-0.10275197774171829, -0.37060147523880005, 0.30959028005599976, 0.6579886078834534, 0.42290636897087097, -0.13498347997665405, -0.6405086517333984], [-0.14150992035865784, 0.5262076258659363, 0.5133501291275024, -0.2513553202152252, 0.85572749376297, -0.7301304340362549, -0.006722381338477135], [0.4860036373138428, -0.12348566204309464, -0.0783449336886406, 0.31637439131736755, 0.4627588987350464, 0.3723219335079193, -0.5975600481033325], [0.5938764214515686, 0.11873966455459595, -0.6437724232673645, 0.2424805611371994, 0.051260288804769516, 0.5818355083465576, -0.25711876153945923]], "b0": [0.06085192784667015, -0.38606008887290955, 0.011733719147741795, -0.4951770007610321, -0.21862675249576569, 0.01390654593706131], "w1": [[-0.11320251226425171, 0.017675746232271194, -0.5212252736091614, 0.05491330847144127, -0.28937211632728577, -0.18630585074424744, 0.3133482038974762, 0.010611709207296371, -0.5594138503074646, 0.17366932332515717, 0.45145320892333984, 0.42592331767082214], [0.31728750467300415, 0.5334097146987915, -0.5743676424026489, 0.6041297316551208, -0.10598050802946091, 0.5164894461631775, 0.2364160567522049, 0.02818884328007698, 0.2375790923833847, -0.23957796394824982, -0.036694079637527466, 0.5455663800239563], [0.5408672094345093, -0.29956960678100586, -0.15753936767578125, 0.19204597175121307, -0.11692576110363007, 0.5035713315010071, -0.5304920673370361, -0.07754182070493698, 0.2580433189868927, -0.24025577306747437, -0.34958356618881226, 0.17044955492019653], [-0.18540166318416595, 0.42323487997055054, -0.46949389576911926, 0.20401746034622192, 0.5704271793365479, 0.34436044096946716, 0.24476374685764313, -0.1626988649368286, 0.14062094688415527, -0.004927143454551697, -0.15800143778324127, 0.0008244392229244113], [-0.5490834712982178, 0.5453770160675049, -0.2219587117433548, 0.5307291150093079, 0.10256744921207428, 0.28452858328819275, -0.045299042016267776, 0.06227418780326843, 0.020595356822013855, -0.04921576753258705, 0.37037795782089233, -0.3858512341976166], [0.10530886054039001, 0.2757622301578522, 0.02147640287876129, 0.04943328723311424, -0.5738843083381653, -0.2624918520450592, -0.3145204186439514, 0.32500046491622925, -0.08538942039012909, -0.3751811683177948, 0.09454119205474854, 0.45430463552474976]], "b1": [-0.11537409573793411, -0.897689700126648, 0.0780905932188034, -0.049389030784368515, 0.09340613335371017, -0.3490059971809387]}, "it": {"w0": [[-0.10174290090799332, 0.14230573177337646, -0.6787436008453369, 0.5595850944519043, 0.4460796117782593, 0.05245953053236008, -0.2638515532016754], [0.36135268211364746, 0.5657747983932495, -0.3382472097873688, 0.4402587413787842, 0.06604254245758057, -0.6684115529060364, 0.304377019405365], [-0.6777845025062561, 0.670117199420929, -0.3489193022251129, -0.10545572638511658, 0.25273337960243225, 0.6421850919723511, -0.45257630944252014], [0.7383512854576111, 0.5383940935134888, -0.6110959649085999, 0.3516061305999756, -0.5716248750686646, -0.6185246706008911, -0.4570674002170563], [-0.3644653558731079, 0.21924737095832825, -0.06112821400165558, 0.07951615005731583, 0.18697617948055267, -0.26019230484962463, 0.4244397282600403], [-0.05568050965666771, -0.262627512216568, -0.01259317435324192, 0.23629331588745117, -0.5440145134925842, -0.4031337797641754, -0.25432366132736206]], "b0": [0.08540423959493637, 0.5301612019538879, 0.016488634049892426, 0.6833495497703552, 0.33172836899757385, 0.1945505291223526], "w1": [[0.24615226686000824, 0.25514888763427734, -0.18652896583080292, -0.33203408122062683, -0.5024885535240173, -0.061599403619766235, -0.04464080184698105, -0.4655648469924927, 0.29502469301223755, 0.5625847578048706, -0.5277330875396729, 0.15327250957489014], [-0.5809372663497925, 0.3513008952140808, -0.006786994636058807, 0.14743727445602417, 0.6450072526931763, 0.48503583669662476, -0.3141193687915802, 0.5065458416938782, 0.11840271949768066, -0.2576284408569336, 0.2918347418308258, 0.018194051459431648], [0.5042173862457275, -0.030457567423582077, 0.2204221487045288, 0.2638515532016754, -0.08581875264644623, -0.19148856401443481, 0.09307307749986649, -0.10780749469995499, -0.43615591526031494, -0.3707146942615509, -0.4889400601387024, -0.16389665007591248], [0.53622967004776, 0.6038877367973328, -0.047390539199113846, -0.6169538497924805, -0.1279245913028717, 0.591960608959198, 0.39733806252479553, 0.4003327190876007, -0.16720907390117645, -0.5109052658081055, -0.1157308891415596, -0.5289021730422974], [0.034330349415540695, -0.5184345245361328, -0.19271081686019897, 0.01696706749498844, -0.17890024185180664, -0.348798543214798, -0.3116682469844818, -0.12371920794248581, 0.4821227490901947, 0.5421820878982544, 0.10606146603822708, 0.4256976544857025], [-0.2483569234609604, -0.4260869026184082, -0.4195791482925415, -0.12555254995822906, 0.35915032029151917, 0.35195788741111755, 0.4268842041492462, 0.2517315447330475, 0.2226206213235855, 0.0046233381144702435, 0.45977869629859924, -0.5052403211593628]], "b1": [0.014191270805895329, 0.49280625581741333, -0.060758426785469055, -0.07749020308256149, 0.06728097796440125, 0.2862603962421417]}, "Ctild_t": {"w0": [[-0.41525769233703613, -0.00838613323867321, 0.6765350699424744, -0.6411766409873962, -0.5226779580116272, 0.15812861919403076, -0.01921301707625389], [-1.4018008708953857, -0.012537662871181965, 0.10914693027734756, 0.21009059250354767, 0.9130926728248596, 0.0378335677087307, -0.17769362032413483], [0.07130023837089539, -0.4968057870864868, -0.42332521080970764, -0.2633246183395386, 0.7017855048179626, 0.5257529616355896, 0.23488566279411316], [1.7346552610397339, 0.3568030893802643, 0.6325039267539978, 0.04165907949209213, -0.1799386441707611, 0.37929072976112366, 0.5066022276878357], [-1.031957983970642, -0.1403486579656601, -0.7121078372001648, -0.2100890874862671, 0.8715015649795532, 0.17330656945705414, -0.22968021035194397], [-0.8346527218818665, -0.5132743120193481, 0.2827129065990448, 0.6527907848358154, 0.2541559338569641, 0.4716338813304901, -0.5876590609550476]], "b0": [-0.024458272382616997, 0.9193538427352905, 0.22665159404277802, -1.2396513223648071, 0.7334627509117126, 0.41869571805000305], "w1": [[0.17456823587417603, 0.07469300180673599, 0.4642595052719116, -0.3033628463745117, -0.2680899202823639, 0.03339705243706703, -0.08801358193159103, 0.6353610754013062, -0.38178619742393494, 0.39227232336997986, -0.40919190645217896, 0.5305221080780029], [0.022267702966928482, -1.0561083555221558, -0.18506528437137604, 1.3032134771347046, -1.031882882118225, -0.6089049577713013, -0.0537911057472229, 0.11016044020652771, 0.702107310295105, 0.3044457733631134, -0.11736464500427246, 0.2273084968328476], [-0.1738404631614685, 0.6872681975364685, -0.13031484186649323, -0.4174642562866211, -0.340873122215271, -0.279361754655838, -0.14487360417842865, 0.46030908823013306, 0.06247761473059654, 0.45704421401023865, -0.07255186140537262, 0.2331068366765976], [-0.28852295875549316, -0.02568412944674492, 0.10224133729934692, -0.317195862531662, -0.3560754656791687, 0.09431897848844528, 0.5321915149688721, -0.2949148118495941, -0.2674711048603058, 0.11293211579322815, -0.042235665023326874, 0.2882845997810364], [-0.28557732701301575, -0.053242769092321396, 0.21035687625408173, 0.1944475769996643, 0.40958142280578613, -0.45493975281715393, -0.4744727909564972, 0.6165320873260498, -0.4514373540878296, 0.09020771086215973, -0.062351834028959274, 0.36270079016685486], [-0.40765151381492615, -0.6642765998840332, 0.0037976540625095367, 1.1016960144042969, -0.5816577076911926, -0.0043892208486795425, -0.09215184301137924, -0.1772826910018921, 0.3484318256378174, 0.1709185540676117, 0.13694272935390472, -0.5162197351455688]], "b1": [-0.30017367005348206, 0.031849924474954605, -0.025988901033997536, -0.006817921996116638, 0.24021093547344208, -0.01634795591235161]}, "ot": {"w0": [[-0.1560859978199005, -0.5439902544021606, -0.5649863481521606, -0.6812911629676819, -0.2900071144104004, 0.4078131914138794, 0.24571557343006134], [0.3971386253833771, -0.010081140324473381, -0.4099636673927307, 0.6680905222892761, -0.5893782377243042, -0.29398050904273987, -0.3559337854385376], [-0.39554715156555176, -0.300686776638031, 0.2535552978515625, -0.4853699505329132, 0.035248592495918274, 0.1941535919904709, 0.4416176378726959], [0.14209888875484467, -0.39433610439300537, -0.5788955092430115, 0.6867941617965698, 0.4108646810054779, -0.017403384670615196, -0.35340261459350586], [0.7276590466499329, -0.05018697306513786, -0.10546805709600449, -0.3701137602329254, 0.23439396917819977, 0.02388799749314785, 0.17652420699596405], [0.31283536553382874, -0.023744657635688782, 0.6126834750175476, 0.2227448970079422, -0.45992511510849, 0.17577098309993744, -0.12565641105175018]], "b0": [0.10268963128328323, 0.4662356674671173, 0.01819925755262375, 0.815994143486023, 0.2260228544473648, 0.20209398865699768], "w1": [[-0.052273914217948914, -0.08814070373773575, 0.4224628210067749, 0.0710907056927681, -0.20697933435440063, 0.3392184376716614, -0.10506336390972137, -0.12992119789123535, 0.09036318212747574, 0.18398821353912354, 0.5366500020027161, 0.11317240446805954], [-0.029900088906288147, 0.24389711022377014, 0.4770747721195221, 0.3290311098098755, 0.3843052089214325, -0.3381308317184448, 0.40167614817619324, -0.37135830521583557, -0.3779362738132477, -0.21975409984588623, -0.1673925817012787, -0.21176093816757202], [0.5126705765724182, 0.4996592104434967, 0.12939754128456116, 0.2270199954509735, 0.3155003786087036, -0.1320429891347885, -0.1110980361700058, 0.4669646918773651, -0.15099306404590607, -0.5189947485923767, -0.4029449224472046, 0.0904192179441452], [0.04382479563355446, 0.4826437830924988, -0.43059855699539185, 0.2886218726634979, 0.5438457131385803, 0.19866108894348145, -0.08683651685714722, -0.39686697721481323, -0.18016120791435242, 0.3268791437149048, -0.07058441638946533, -0.019482480362057686], [-0.287720650434494, -0.1797965168952942, 0.3779897689819336, 0.14613282680511475, 0.0845407247543335, 0.04054687172174454, -0.4582899212837219, -0.2580704092979431, 0.37735867500305176, -0.1680195927619934, -0.2508445382118225, 0.02040720172226429], [-0.5177838206291199, -0.5275959372520447, 0.5077288150787354, 0.22810369729995728, 0.19412942230701447, 0.2340696156024933, -0.45156413316726685, 0.30023232102394104, 0.3896540701389313, -0.12193022668361664, -0.35457831621170044, 0.3650611340999603]], "b1": [0.008639486506581306, 0.5142525434494019, -0.04023616015911102, -0.05298778787255287, 0.07423655688762665, 0.32511457800865173]}, "mlp": {"w0": [[0.013505659066140652, -0.2205037623643875, -0.1333015114068985, -0.2474166303873062, 0.06340480595827103, -0.019620712846517563], [0.035756610333919525, -0.22915491461753845, 0.25008532404899597, -0.10341037809848785, -0.11475558578968048, -0.20052272081375122], [0.09197946637868881, 0.07835683971643448, 0.015327957458794117, 0.037921082228422165, -0.13042941689491272, 0.054519910365343094], [-0.08861275017261505, -0.048061199486255646, -0.12434688210487366, 0.00639059254899621, -0.18804360926151276, 0.03022921457886696], [-0.21241381764411926, 0.023866938427090645, -0.05724308267235756, 0.07348664104938507, -0.232854425907135, 0.14226596057415009], [-0.07050495594739914, 0.018500182777643204, -0.19752752780914307, -0.16348831355571747, 0.20816819369792938, -0.024021852761507034], [-0.11329026520252228, 0.1484551727771759, -0.1290235072374344, -0.014300845563411713, -0.13187812268733978, 0.14913442730903625], [-0.021903272718191147, -0.1726987361907959, -0.19579476118087769, -0.17012366652488708, 0.1599292904138565, -0.03451881185173988], [0.11428423225879669, -0.014240347780287266, -0.17216278612613678, -0.2000994086265564, 0.22487950325012207, -0.18221984803676605], [0.11761251091957092, 0.026597226038575172, 0.032220423221588135, -0.06548290699720383, 0.08870149403810501, -0.11615883558988571], [-0.11169812828302383, -0.9463843107223511, 0.08845559507608414, 0.03463124483823776, 0.04223774001002312, -0.48064181208610535], [-0.04668043553829193, -0.18740497529506683, 0.0848446786403656, 0.16497041285037994, 0.1997164785861969, 0.10647083073854446], [-0.07295118272304535, -0.24509914219379425, 0.07481059432029724, 0.19453096389770508, -0.1931324005126953, 0.09138690680265427], [0.04733209311962128, 0.24583621323108673, -0.09016820788383484, 0.0014175268588587642, -0.23677968978881836, 0.18431109189987183], [-0.126350536942482, -0.06942906975746155, -0.19944337010383606, -0.20617812871932983, -0.04485991597175598, 0.1624428778886795], [0.3001953363418579, -0.5182933807373047, -0.1317426860332489, -0.14294274151325226, -0.39984413981437683, -0.49477288126945496], [-0.1436263769865036, 0.12245011329650879, 0.06554434448480606, 0.0008202284807339311, -0.1873376965522766, -0.03999951854348183], [-0.048602864146232605, 0.009499444626271725, 0.1610509604215622, 0.14862461388111115, 0.11564069986343384, 0.04230305179953575], [-0.019672853872179985, 0.060623619705438614, -0.06282239407300949, -0.07675575464963913, 0.05136146396398544, -0.18744081258773804], [0.030467497184872627, 0.132256880402565, 0.06205500662326813, -0.07454028725624084, 0.08249516040086746, -0.009732582606375217], [0.12349168956279755, -0.09646964073181152, 0.16265563666820526, -0.04307955875992775, -0.13633936643600464, -0.0011043385602533817], [0.21915853023529053, -0.16066788136959076, -0.16536451876163483, -0.21107982099056244, -0.21986611187458038, 0.2229623645544052], [-0.16274021565914154, -0.17706456780433655, -0.18250598013401031, 0.20255868136882782, 0.2079407274723053, -0.2494274079799652], [0.04484720900654793, 0.11879514157772064, -0.0020836275070905685, -0.005740471184253693, -0.23093724250793457, -0.002197118243202567], [-0.014889483340084553, 0.1505042314529419, 0.08719498664140701, -0.21720770001411438, -0.23796440660953522, 0.07939767092466354], [0.18032033741474152, -0.13360631465911865, 0.2631147503852844, -0.07050702720880508, 0.15705165266990662, -0.0009930748492479324], [0.22461237013339996, 0.009130788967013359, 0.07592353224754333, 0.1001148596405983, 0.12324228137731552, -0.21947291493415833], [-0.1626301258802414, -0.18284882605075836, -0.2154342532157898, -0.08920352160930634, -0.12057230621576309, 0.20605993270874023], [0.1196720227599144, 0.26027989387512207, 0.017984678968787193, 0.12166237831115723, -0.22231554985046387, -0.04276232048869133], [0.11055633425712585, 0.05085814371705055, 0.032939162105321884, 0.01816484145820141, -0.1460239142179489, 0.02321062982082367], [-0.18880198895931244, -0.0038748616352677345, -0.1487281769514084, 0.20814070105552673, 0.1941438764333725, -0.1385408192873001], [-0.03252970799803734, 0.14250104129314423, -0.05256729573011398, 0.020430177450180054, 0.21879003942012787, -0.05042524263262749], [-0.016504336148500443, -0.5974022150039673, -0.04569688066840172, -0.038695529103279114, 0.36079901456832886, -0.29907867312431335], [-0.24025686085224152, 0.10443999618291855, 0.026411494240164757, -0.19074252247810364, -0.003596724011003971, 0.07868333905935287], [0.21149203181266785, -0.10552999377250671, 0.1790006160736084, -0.24435769021511078, -0.17316193878650665, -0.11929803341627121], [0.1942964345216751, 0.06722504645586014, -0.14709454774856567, 0.15278300642967224, 0.17459510266780853, 0.051817651838064194], [0.09516458958387375, -0.13129231333732605, 0.005076677538454533, 0.006428335327655077, -0.02701871283352375, 0.1477763056755066], [0.14229816198349, -0.0046831583604216576, -0.14666496217250824, -0.22535797953605652, -0.00013308347843121737, -0.06895729899406433], [0.22588002681732178, -0.2037229686975479, -0.18007197976112366, -0.1435137242078781, -0.18400579690933228, -0.24945823848247528], [-0.03507489338517189, -0.06067997217178345, -0.1489190012216568, -0.1343173086643219, -0.029972018674016, -0.18211917579174042], [-0.20158091187477112, -0.1368204802274704, 0.16964158415794373, 0.1529006063938141, -0.18318480253219604, 0.15103976428508759], [-0.14555492997169495, 0.15202206373214722, -0.15256540477275848, -0.12772245705127716, 0.23278659582138062, -0.1163468286395073], [-0.010949552990496159, -0.10179847478866577, 0.22083188593387604, 0.16922275722026825, -0.06983301043510437, -0.14860457181930542], [0.1305752545595169, -0.1687852293252945, 0.054790083318948746, -0.17106539011001587, 0.14703434705734253, 0.11778963357210159], [-0.20200152695178986, 0.17484687268733978, 0.16731838881969452, 0.07627469301223755, -0.08644600957632065, -0.035114917904138565], [-0.2197725921869278, -0.20897845923900604, -0.11203637719154358, -0.031477637588977814, -0.19594129920005798, 0.18748827278614044], [0.21575477719306946, 0.03144127503037453, 0.15914182364940643, -0.04336283728480339, -0.17039746046066284, 0.16154828667640686], [-0.24142861366271973, -0.2232770472764969, -0.12451339513063431, -0.18088488280773163, 0.16416209936141968, -0.07387538254261017], [0.1799858808517456, 0.1286088079214096, 0.168462872505188, -0.043476711958646774, -0.14424994587898254, -0.0816490426659584], [0.17006970942020416, 0.1926122009754181, 0.06907978653907776, 0.09034599363803864, -0.07562438398599625, 0.036291636526584625], [-0.1035631000995636, 0.11692442744970322, -0.023313945159316063, 0.1113571748137474, -0.07058551162481308, -0.20137232542037964], [-0.033756837248802185, 0.20815816521644592, 0.11320073902606964, -0.12791022658348083, -0.17095208168029785, -0.2214159518480301], [-0.19190610945224762, 0.04419133812189102, -0.14386288821697235, -0.19994708895683289, -0.10662809759378433, 0.00557385990396142], [-0.13493317365646362, 0.00990417879074812, 0.1913985162973404, 0.11287585645914078, 0.1678788661956787, -0.1667322814464569], [-0.0837354063987732, 0.3602408766746521, -0.18828266859054565, 0.19984297454357147, 0.37374579906463623, 0.13445724546909332], [-0.04494354501366615, 0.20444481074810028, 0.16645942628383636, -0.15751886367797852, -0.10923794656991959, 0.029853982850909233], [0.05949871242046356, 0.12604717910289764, -0.024650273844599724, -0.07396621257066727, -0.2152966558933258, 0.037334784865379333], [0.18362680077552795, -0.022137083113193512, -0.12498259544372559, -0.0788143202662468, 0.11080457270145416, -0.05489899218082428], [-0.131963849067688, -0.121127188205719, -0.08478008955717087, -0.22790278494358063, 0.01766751892864704, -0.12364006042480469], [0.03298194333910942, 0.11062212288379669, -0.1088186725974083, 0.12091442197561264, 0.2159506231546402, -0.23867250978946686], [0.22284367680549622, -0.7159103155136108, -0.17580145597457886, 0.13668543100357056, 0.24686071276664734, -0.4464399218559265], [0.17017486691474915, 0.2320205569267273, -0.06637466698884964, 0.21623510122299194, -0.15746143460273743, 0.04046403244137764], [0.038989994674921036, -0.04273061454296112, 0.13269935548305511, -0.00615602545440197, 0.004135884344577789, -0.22768954932689667], [0.05615917220711708, 0.17643065750598907, -0.061103083193302155, -0.09097819030284882, -0.19934557378292084, 0.031025076285004616], [0.1871505081653595, -0.3875370919704437, 0.11673745512962341, 0.2139841765165329, -0.33154481649398804, -0.24792394042015076], [0.1717814952135086, 0.016720252111554146, 0.07611694931983948, -0.2529752254486084, 0.13970014452934265, -0.13492321968078613], [-0.3494313061237335, 0.3729180693626404, -0.2692115008831024, 0.04719025269150734, -0.005773852579295635, 0.16704115271568298], [0.09374784678220749, 0.16014383733272552, 0.03353887051343918, -0.010709943249821663, 0.05895597115159035, -0.007389049977064133], [0.2089131474494934, 0.18120653927326202, 0.2741634249687195, -0.28035470843315125, 0.023386932909488678, -0.05522625148296356], [-0.14559394121170044, 0.20320066809654236, -0.08537635952234268, -0.028562752529978752, -0.11567497253417969, 0.18095998466014862], [-0.15909437835216522, -0.17317993938922882, 0.20442776381969452, 0.013070229440927505, 0.18545092642307281, -0.11772094666957855], [-0.17657598853111267, -0.20839053392410278, 0.04225277155637741, 0.19166289269924164, 0.19982479512691498, 0.19829285144805908], [0.11653031408786774, 0.18056344985961914, 0.10723037272691727, 0.11335185170173645, 0.16480761766433716, -0.1839672476053238], [0.17560821771621704, 0.06284406036138535, -0.022811753675341606, 0.1764913648366928, -0.01877010613679886, 0.04398585483431816], [0.04170120880007744, -0.18262328207492828, 0.049658529460430145, 0.08792460709810257, 0.1374519318342209, 0.13618768751621246], [-0.07003786414861679, 0.11529310047626495, 0.05882558971643448, -0.14080055058002472, 0.1364363431930542, -0.13689038157463074], [0.08587781339883804, 0.002025744179263711, -0.11979899555444717, 0.188026562333107, -0.08934898674488068, 0.20614749193191528], [-0.09476273506879807, -0.003945407923310995, 0.12894810736179352, 0.0064224181696772575, 0.05262137949466705, 0.010169330053031445], [0.1207910031080246, -0.20047689974308014, 0.09678690135478973, -0.20584087073802948, -0.028787801042199135, -0.12055601924657822], [0.07945524156093597, 0.11873062700033188, 0.0839584618806839, -0.21929959952831268, 0.038714196532964706, 0.12577837705612183], [-0.09413181245326996, 0.15769267082214355, -0.008085298351943493, -0.15235158801078796, 0.1681704819202423, 0.07067631930112839], [0.07840069383382797, 0.13080647587776184, 0.22103649377822876, -0.21441102027893066, -0.009480017237365246, 0.1731148660182953], [-0.1533525437116623, 0.14147378504276276, 0.20501023530960083, -0.07990594208240509, -0.19366604089736938, -0.16900649666786194], [-0.11052809655666351, -0.08727602660655975, 0.046323638409376144, 0.09778028726577759, 0.08902718871831894, 0.13738755881786346], [0.1949932724237442, -0.08706153184175491, 0.11968719959259033, -0.1334993690252304, 0.10583242028951645, -0.03325223922729492], [0.24537433683872223, -0.5877739787101746, -0.29557034373283386, 0.04919266328215599, -0.007906991057097912, -0.3625577390193939], [0.2824626564979553, -0.628031849861145, -0.11361592262983322, 0.18373613059520721, -0.04600662738084793, -0.25827640295028687], [0.13600735366344452, 0.28276845812797546, 0.012528378516435623, 0.05634913593530655, 0.11916709691286087, 0.023325391113758087], [0.1495223492383957, 0.20777511596679688, -0.21446502208709717, 0.0041106995195150375, -0.0028300690464675426, -0.19994305074214935], [0.15737950801849365, 0.2004798799753189, -0.05339770391583443, -0.15940600633621216, -0.009298071265220642, 0.15299881994724274], [-0.16937868297100067, -0.04177631437778473, 0.10862383991479874, -0.04996895417571068, -0.17309603095054626, 0.09359314292669296], [0.0074558136984705925, -0.20036004483699799, -0.07410068809986115, 0.1488344818353653, 0.09629721939563751, -0.009702416136860847], [0.14927197992801666, -0.16162757575511932, 0.24403659999370575, -0.21295444667339325, -0.08765982836484909, -0.1618950515985489], [0.05552737042307854, 0.05822201445698738, -0.11352196335792542, -0.20873865485191345, -0.10079425573348999, 0.02607257105410099], [0.16164392232894897, 0.16018891334533691, 0.11001332849264145, 0.15924763679504395, 0.03540691360831261, 0.16936148703098297], [0.19932718575000763, -0.07932379841804504, 0.07605227082967758, 0.13363230228424072, -0.024523718282580376, 0.11922188103199005], [-0.09784724563360214, 0.064438596367836, 0.010846367105841637, -0.12585237622261047, -0.08146574348211288, -0.07441341131925583], [0.1083853468298912, -0.24323029816150665, -0.08903529495000839, 0.1497681736946106, 0.14347398281097412, -0.08705154061317444], [0.048361483961343765, 0.04698934778571129, 0.09938795119524002, -0.029469287022948265, 0.14604714512825012, -0.08982037007808685], [0.1585485339164734, -0.1363901048898697, -0.1537674069404602, 0.001163496752269566, 0.18223167955875397, 0.15711891651153564], [0.1668221801519394, 0.12227131426334381, -0.1351626217365265, -0.1667630672454834, 0.002766987308859825, -0.07433538883924484], [-0.04094043746590614, 0.07358628511428833, 0.05189352482557297, -0.01835556887090206, 0.17852866649627686, 0.03820447996258736], [-0.11360685527324677, 0.06266196072101593, 0.2290438711643219, -0.2807566225528717, -0.051192570477724075, 0.008725508116185665]], "b0": [-0.31908074021339417, -0.7243041396141052, -0.04594909027218819, -0.31400999426841736, -0.0908428356051445, -0.2591971457004547, -0.4128181040287018, -0.4510437846183777, -0.008284246549010277, -0.12720628082752228, 0.16983596980571747, -0.3923422396183014, -0.26274439692497253, -0.12513534724712372, -0.09666433930397034, -0.07143516838550568, -0.5145273804664612, -0.4467010200023651, -0.5114662647247314, -0.34767985343933105, -0.37868064641952515, -0.20946073532104492, -0.3582765758037567, -0.37303975224494934, -0.1068623960018158, -0.20331206917762756, -0.17209134995937347, -0.40796154737472534, -0.07754075527191162, -0.04881966486573219, -0.10728947818279266, -0.6453341245651245, 0.01045999862253666, -0.2431681603193283, -0.17270345985889435, -0.1824387013912201, -0.2491718828678131, -0.1334872543811798, -0.4035918116569519, -0.5116310119628906, -0.3277789354324341, -0.16068895161151886, -0.2690659165382385, -0.3412516415119171, -0.4936653673648834, -0.3455841839313507, -0.1023239865899086, -0.07861459255218506, -0.11098682135343552, -0.10127884149551392, -0.1610313355922699, -0.45590895414352417, -0.04330285266041756, -0.23955018818378448, -0.0825599804520607, -0.006435375660657883, -0.50602126121521, -0.2091025412082672, -0.09401867538690567, -0.1000182256102562, -0.019572904333472252, -0.10215478390455246, -0.1949814260005951, -0.06359533965587616, -0.09116404503583908, -0.4543348252773285, 0.028480688109993935, -0.22476181387901306, -0.27210381627082825, -0.128167524933815, -0.19821593165397644, -0.11166239529848099, -0.13850371539592743, -0.6166622042655945, -0.2291710376739502, -0.5014520287513733, -0.10284899175167084, -0.31423959136009216, -0.19963766634464264, -0.49212881922721863, -0.10014324635267258, -0.4564211070537567, -0.43746519088745117, -0.23094435036182404, -0.4844686686992645, 0.14282141625881195, -0.024689216166734695, -0.06273823976516724, -0.0727607011795044, -0.12237725406885147, -0.3738001585006714, -0.18245774507522583, 0.0334903784096241, -0.14700071513652802, -0.16506774723529816, -0.0615110769867897, -0.19517017900943756, -0.24278007447719574, -0.2927808463573456, -0.3552880883216858, -0.5321489572525024, -0.11045274883508682, -0.3820263743400574], "w1": [[0.13077928125858307, 0.051268938928842545, 0.017319267615675926, -0.12937860190868378, -0.12346623837947845, -0.14473512768745422, -0.06852062046527863, -0.010414845310151577, 0.01957118697464466, -0.011553066782653332, -0.3408298194408417, -0.17125223577022552, -0.07266338169574738, -0.2668551206588745, -0.0367533378303051, -0.5774840712547302, -0.19002483785152435, -0.06122424080967903, -0.20387892425060272, -0.06295420974493027, -0.1142013892531395, -0.05219446122646332, -0.1029193326830864, -0.07765709608793259, -0.010470867156982422, -0.27770015597343445, -0.3060130178928375, -0.2504078149795532, -0.2741037607192993, -0.1566435694694519, -0.2157609760761261, -0.17490381002426147, -0.3413679599761963, -0.20829202234745026, 0.059021662920713425, -0.1470520943403244, -0.20023536682128906, -0.08157006651163101, 0.07783997058868408, 0.047241341322660446, -0.061170827597379684, -0.09438910335302353, -0.06761262565851212, -0.11761445552110672, -0.1355624943971634, -0.15930895507335663, -0.2278205305337906, -0.17026591300964355, 0.034355729818344116, -0.007758256979286671, -0.022988108918070793, -0.15461327135562897, -0.03432897850871086, -0.04112152382731438, 0.29551172256469727, -0.10977553576231003, -0.1708792746067047, -0.04525960609316826, -0.0659722313284874, -0.20094706118106842, -0.47847631573677063, -0.15067575871944427, -0.02688290923833847, -0.22357586026191711, -0.4191129803657532, -0.11035115271806717, 0.16478435695171356, 0.017878007143735886, -0.30862942337989807, -0.3100721538066864, -0.14020901918411255, -0.0007803170010447502, -0.15512895584106445, -0.1291397362947464, -0.11432676017284393, -0.19328071177005768, -0.2975076138973236, -0.08178754895925522, -0.22504177689552307, -0.1283479630947113, -0.20717574656009674, -0.0787956491112709, -0.17223775386810303, -0.10998788475990295, -0.17159941792488098, -0.2621982991695404, -0.4246940612792969, -0.17538797855377197, -0.1552744209766388, 0.04569155350327492, -0.15101903676986694, -0.28199344873428345, 0.113006591796875, -0.034378740936517715, -0.16071687638759613, 0.0286957286298275, -0.0851828008890152, -0.1240723505616188, -0.05311555042862892, -0.061338286846876144, -0.17248056828975677, -0.12841646373271942, -0.2621004283428192]], "b1": [0.8118875026702881]}, "mlp_config": {"0": {"w0": [[0.0873989462852478, -0.09632360935211182, -0.17407800257205963, 0.04157693311572075, 0.027177223935723305, 0.01143442653119564, 0.29829153418540955, -0.006452623289078474], [0.13471120595932007, 0.15634968876838684, -0.20735932886600494, 0.150290384888649, 0.021704306825995445, 0.008309543132781982, 0.12002795189619064, 0.11399512737989426], [-0.08240406215190887, 0.10607597231864929, -0.12862984836101532, 0.024579007178544998, -0.08967065066099167, 0.05224521458148956, 0.13217706978321075, -0.10623253881931305], [-0.16091389954090118, -0.21647000312805176, 0.02700122445821762, -0.1820022016763687, 0.022118283435702324, -0.14937499165534973, 0.09616894274950027, 0.04450755938887596], [-0.11368378251791, -0.18646836280822754, 0.06523124873638153, 0.06776012480258942, -0.007678768131881952, -0.09823645651340485, -0.07302012294530869, 0.07598210871219635], [0.14382249116897583, -0.11280523985624313, -0.021751539781689644, -0.04334428161382675, -0.18839247524738312, 0.07891230285167694, 0.14314524829387665, -0.0660858005285263], [0.1810968518257141, 0.13683149218559265, 0.215073823928833, 0.1466161161661148, 0.08431816101074219, -0.002951088361442089, 0.1605806052684784, -0.15882229804992676], [-0.12250468879938126, 0.02691660262644291, -0.04070621356368065, 0.06815280765295029, 0.21340177953243256, 0.15272527933120728, 0.11204998940229416, 0.17173995077610016], [-0.09639281034469604, 0.028042834252119064, 0.16844330728054047, 0.1980123370885849, -0.022789519280195236, 0.12988495826721191, 0.1700456291437149, -0.09965598583221436], [0.16006840765476227, -0.21126754581928253, 0.14124006032943726, -0.13294707238674164, 0.06278854608535767, 0.12836907804012299, 0.15472416579723358, -0.0024150004610419273], [0.09373513609170914, -0.14531965553760529, 0.06335459649562836, 0.107844777405262, -0.176946222782135, 0.07528325915336609, -0.07445677369832993, -0.12371519953012466], [0.06535740196704865, 0.11446419358253479, 0.020645851269364357, -0.20579823851585388, -0.056985463947057724, 0.16824398934841156, 0.054890211671590805, -0.10825037211179733], [0.1426013708114624, 0.060953687876462936, -0.1716783046722412, 0.1679312288761139, 0.16916710138320923, -0.11765989661216736, 0.10406094044446945, -0.203838512301445], [0.19507883489131927, 0.20119285583496094, -0.11308998614549637, -0.15558093786239624, 0.20559044182300568, 0.17722123861312866, -0.18026037514209747, 0.16688579320907593], [-0.17172940075397491, 0.04606710374355316, 0.1707828789949417, -0.046182986348867416, 0.10720489919185638, 0.15873554348945618, 0.18268662691116333, 0.19897496700286865], [0.14914964139461517, -0.048557691276073456, 0.045214902609586716, -0.08112092316150665, -0.1178465336561203, -0.24471081793308258, 0.05063580349087715, 0.13851125538349152], [-0.10442813485860825, 0.13303080201148987, -0.02099180594086647, 0.0756300538778305, -0.07839033752679825, -0.090685173869133, 0.06225593760609627, -7.075491157593206e-05], [-0.10566175729036331, 0.12207160890102386, 0.0976334735751152, -0.017971104010939598, -0.061698850244283676, 0.10740260779857635, 0.10742773860692978, -0.15527068078517914], [-0.18138964474201202, 0.09023543447256088, 0.011745579540729523, 0.0980922281742096, 0.21805568039417267, 0.14699946343898773, -0.0020510717295110226, -0.02340029366314411], [0.1444951444864273, -0.14482228457927704, 0.059007663279771805, 0.10110131651163101, 0.13965372741222382, 0.0012219633208587766, 0.024277767166495323, -0.09338117390871048], [-0.022900143638253212, -0.09709975123405457, -0.08135978877544403, -0.19213666021823883, -0.05580613762140274, 0.09460843354463577, -0.0391482338309288, -0.16304507851600647], [0.1450170874595642, -0.1149534359574318, 0.08420358598232269, 0.1821160763502121, -0.08744750916957855, 0.19369721412658691, 0.13821296393871307, 0.14947472512722015], [0.1561518907546997, 0.16599561274051666, -0.20692309737205505, 0.17490337789058685, -0.10856016725301743, 0.10560831427574158, -0.018326276913285255, -0.06331893056631088], [-0.023422271013259888, -0.2056971788406372, 0.021399259567260742, -0.0704207718372345, -0.17274384200572968, -0.17618463933467865, 0.0026624661404639482, 0.18895059823989868], [-0.024046842008829117, 0.03525669127702713, 0.1473488062620163, 0.11498838663101196, 0.1382228285074234, 0.14185722172260284, 0.05970114842057228, -0.12512843310832977], [-0.035538867115974426, -0.01681189239025116, 0.03471437469124794, 0.1446426957845688, -0.13143391907215118, -0.10544993728399277, -0.1845833957195282, -0.06762565672397614], [0.17324185371398926, 0.15089941024780273, 0.07633671164512634, -0.2103104591369629, -0.184431791305542, 0.11883597820997238, 0.2211460918188095, -0.07845178991556168], [0.009281996637582779, 0.09229554235935211, 0.06940184533596039, 0.011128843761980534, -0.11304841935634613, 0.08890290558338165, 0.09642591327428818, 0.04833892360329628], [-0.1375570297241211, 0.04254883900284767, 0.16080982983112335, 0.056098904460668564, -0.09045039862394333, 0.0983329489827156, -0.07429726421833038, -0.034959420561790466], [-0.1331917643547058, 0.2123645395040512, -0.13872893154621124, -0.01190709974616766, 0.0487167127430439, 0.03670502454042435, 0.08462119847536087, -0.02537905052304268], [0.13418005406856537, 0.14712242782115936, 0.0029629443306475878, 0.1267692595720291, -0.15860053896903992, 0.16147640347480774, -0.08215856552124023, 0.17491161823272705], [-0.07544708997011185, -0.02870025299489498, 0.1822129189968109, -0.11275071650743484, 0.11386973410844803, -0.028180008754134178, -0.06438929587602615, -0.1527400016784668], [0.13035622239112854, -0.08742722868919373, -0.08164817094802856, 0.12664812803268433, -0.03715478256344795, -0.15247716009616852, -0.1751524806022644, 0.052994709461927414], [-0.11578890681266785, -0.04399193823337555, 0.039049550890922546, 0.019257940351963043, -0.26430609822273254, -0.07403790950775146, -0.13242390751838684, 0.1491735428571701], [-0.11740323901176453, 0.1116819679737091, 0.1595316231250763, -0.20808812975883484, 0.022090017795562744, 0.045315735042095184, -0.10482458770275116, -0.10950585454702377], [-0.2050112783908844, -0.12892796099185944, 0.22609171271324158, -0.006171551067382097, -0.1623823344707489, -0.1469762921333313, -0.0920356810092926, 0.1174420416355133], [-0.05128363519906998, 0.1833033710718155, 0.05898060277104378, -0.011136611923575401, -0.014271111227571964, -0.09823139011859894, 0.10225147008895874, 0.12997369468212128], [-0.15886227786540985, 0.13305076956748962, 0.1620442271232605, -0.19839288294315338, -0.05919325351715088, -0.16841213405132294, 0.11664894223213196, 0.06737715005874634], [-0.026904195547103882, -0.15739533305168152, 0.12002809345722198, -0.016899950802326202, 0.12968210875988007, -0.211734801530838, 0.11348382383584976, -0.1460186243057251], [-0.07797883450984955, 0.06835751235485077, 0.18877273797988892, -0.05941751226782799, -0.10496480762958527, -0.16853442788124084, -0.1225246861577034, 0.009043117985129356], [0.03803524002432823, -0.1560785472393036, 0.19487524032592773, -0.0738368034362793, -0.11995558440685272, -0.2234402894973755, -0.08256345242261887, 0.05392635241150856], [0.05810200423002243, 0.1236819475889206, 0.030165133997797966, -0.08961020410060883, -0.11668765544891357, 0.0016857507871463895, 0.20081135630607605, 0.2202349156141281], [-0.041289255023002625, -0.10604248940944672, 0.1711636781692505, 0.17533555626869202, 0.1802588552236557, 0.07518821209669113, 0.053341109305620193, -0.15491698682308197], [-0.17474690079689026, -0.19485095143318176, -0.11384081095457077, -0.06670907139778137, -0.18378980457782745, 0.01129862666130066, -0.1372392773628235, 0.1130930557847023], [0.1633845418691635, 0.19622905552387238, -0.037116263061761856, -0.15459443628787994, -0.08645286411046982, 0.13336601853370667, -0.08114072680473328, 0.1059180423617363], [0.021948250010609627, 0.015098418109118938, 0.004441485740244389, -0.03359510377049446, 0.16290616989135742, -0.012546181678771973, 0.014536929316818714, -0.10412426292896271], [0.15597745776176453, 0.04476037248969078, 0.13518793880939484, 0.16668535768985748, 0.14315149188041687, 0.10435698926448822, -0.18556810915470123, 0.004274205770343542], [0.18024121224880219, -0.19778065383434296, -0.13575135171413422, 0.05532311275601387, -0.020374901592731476, 0.006515428423881531, 0.08183994889259338, 0.09156190603971481], [-0.24051044881343842, 0.004150188062340021, -0.03065355494618416, -0.10073881596326828, -0.0611221119761467, 0.13764263689517975, 0.03452851250767708, -0.025325316935777664], [-0.028887588530778885, 0.17127546668052673, 0.21033316850662231, 0.035613007843494415, 0.1486852616071701, -0.03794990852475166, -0.11116976290941238, -0.05305701866745949], [0.09066986292600632, -0.03530624136328697, -0.08615057915449142, -0.03908288851380348, 0.13617835938930511, -0.2292945832014084, -0.1329769790172577, 0.033503711223602295], [0.1590205281972885, -0.14105363190174103, -0.02843102253973484, 0.17813871800899506, 0.2011280357837677, -0.07338964939117432, -0.18618574738502502, -0.01646491140127182], [-0.15493695437908173, -0.20378901064395905, 4.4174194044899195e-05, -0.1282760500907898, -0.08131151646375656, -0.06638447940349579, 0.10225813835859299, -0.02265262044966221], [0.028757503256201744, 0.11337142437696457, 0.059061359614133835, -0.10811757296323776, -0.04994583874940872, -0.07037314027547836, -0.11609405279159546, -0.0336613729596138], [0.12254504859447479, 0.23408043384552002, 0.13109931349754333, 0.03608209639787674, 0.059287261217832565, 0.15068857371807098, -0.1093117892742157, 0.004069310147315264], [0.00551439868286252, 0.08258548378944397, 0.0618584118783474, 0.16286294162273407, -0.17719626426696777, 0.1673044115304947, -0.07855842262506485, 0.1449761539697647], [-0.05537288635969162, 0.0206332728266716, 0.16862688958644867, 0.042787548154592514, -0.14450784027576447, -0.30427154898643494, -0.018556194379925728, 0.17847132682800293], [-0.17182348668575287, -0.023737823590636253, -0.15394212305545807, 0.1409011334180832, 0.16302138566970825, 0.1183883547782898, 0.0231355968862772, 0.06916050612926483], [0.15140122175216675, 0.08032216876745224, 0.007747513707727194, -0.20799706876277924, 0.10968135297298431, 0.09273457527160645, 0.0312894843518734, -0.18226873874664307], [0.2073536068201065, 0.10941047221422195, 0.12934473156929016, -0.135088711977005, -0.17531907558441162, 0.12266381829977036, -0.08086219429969788, 0.027448898181319237], [-0.1124214231967926, 0.07166484743356705, -0.06688690185546875, 0.06186136603355408, -0.22627829015254974, -0.12122975289821625, -0.00848397333174944, 0.04617449641227722], [0.13193830847740173, -0.1488134264945984, 0.06106482073664665, -0.14401127398014069, -0.02612268179655075, -0.06471595913171768, 0.023864908143877983, 0.014601428061723709], [-0.08179514855146408, 0.1331666260957718, -0.094650998711586, 0.17490112781524658, -0.05200687423348427, 0.01844467967748642, 0.05025557056069374, -0.0010475943563506007], [-0.18047131597995758, 0.03723779320716858, -0.1960986852645874, 0.10639269649982452, 0.03742227330803871, 0.04059670493006706, 0.07699064910411835, -0.042549293488264084], [-0.08994438499212265, -0.08163361251354218, 0.09611458331346512, 0.16397053003311157, 0.12758351862430573, 0.15981794893741608, 0.047708068042993546, -0.12234967947006226], [-0.15757562220096588, 0.06549471616744995, 0.02828335203230381, -0.1627415418624878, -0.08949761092662811, -0.05381568521261215, -0.09747998416423798, 0.2160411775112152], [-0.030568692833185196, 0.08517851680517197, 0.06672137975692749, -0.19001354277133942, -0.016573404893279076, 0.07572919875383377, 0.18973590433597565, -0.014314739964902401], [0.17163459956645966, 0.13845030963420868, 0.016820941120386124, -0.08226069808006287, 0.0505402646958828, -0.008968020789325237, 0.08390242606401443, -0.1937890350818634], [-0.05766689404845238, -0.1220184713602066, -0.17762534320354462, -0.09036102890968323, -0.08204849809408188, 0.18370983004570007, -0.13172216713428497, -0.0518355518579483], [0.015439712442457676, 0.23110274970531464, 0.07614252716302872, 0.043312765657901764, 0.1542814075946808, 0.11087361723184586, -0.12113124877214432, 0.21428805589675903], [-0.30894991755485535, -0.1132480576634407, -0.08069706708192825, -0.09187576919794083, -0.020864121615886688, 0.07540800422430038, 0.08824180066585541, 0.046525049954652786], [0.12797069549560547, 0.12020962685346603, -0.08184647560119629, 0.1401752084493637, 0.06602318584918976, -0.1656924933195114, -0.14603616297245026, -0.015230726450681686], [0.19930316507816315, -0.14158694446086884, 0.09411679953336716, -0.037596408277750015, -0.07844670861959457, -0.08041834831237793, 0.19512677192687988, -0.04745562747120857], [0.03127869591116905, 0.13736164569854736, 0.24955932796001434, -0.059121064841747284, -0.0940074473619461, 0.10088575631380081, -0.1052696481347084, -0.21258221566677094], [-0.027204500511288643, 0.033566270023584366, -0.09329354763031006, 0.16594251990318298, 0.027957607060670853, 0.08338363468647003, -0.05734507367014885, -0.053071603178977966], [0.11572345346212387, 0.09798001497983932, 0.09802679717540741, -0.006840504705905914, -0.09113089740276337, 0.003321272088214755, 0.1802188754081726, 0.13637037575244904], [-0.1950823962688446, 0.1629694700241089, -0.2979066073894501, 0.03396784886717796, 0.095115527510643, 0.13292981684207916, -0.22850126028060913, -0.09668399393558502], [-0.0614580400288105, 0.09335056692361832, 0.06417614221572876, 0.10166042298078537, 0.1686255931854248, -0.09326843172311783, -0.12883740663528442, -0.12721486389636993], [0.11866720020771027, 0.125051811337471, -0.04563140124082565, -0.02571709081530571, -0.1365067958831787, -0.24918919801712036, -0.20171314477920532, -0.19209742546081543], [0.046997155994176865, 0.20865821838378906, -0.007574916817247868, -0.11094646155834198, 0.12034394592046738, 0.02361195534467697, -0.12235824018716812, -0.09806854277849197], [0.23332048952579498, 0.2022593468427658, -0.22046615183353424, -0.0126270093023777, 0.07864594459533691, 0.16582675278186798, 0.11415804922580719, 0.045498076826334], [0.019836662337183952, 0.17558321356773376, 0.12308284640312195, 0.02481536567211151, 0.07159139215946198, -0.20812201499938965, -0.10189063102006912, -0.13788817822933197], [-0.15660648047924042, -0.03302542492747307, 0.020030083134770393, -0.014867818914353848, 0.029014144092798233, -0.1777389794588089, 0.11364585906267166, 0.20476751029491425], [0.143365278840065, 0.18220849335193634, 0.1758338212966919, 0.1508638560771942, 0.19311101734638214, -0.03857863321900368, 0.058836791664361954, -0.04456351324915886], [-0.06231134384870529, -0.10441938787698746, -0.26916274428367615, -0.15312854945659637, -0.14202140271663666, -0.1751495897769928, -0.029896622523665428, 0.1816505491733551], [0.013415532186627388, 0.08384375274181366, 0.17122462391853333, -0.11658108979463577, -0.15734486281871796, -0.16904576122760773, 0.05852298438549042, -0.1689693182706833], [0.08321729302406311, -0.11452091485261917, 0.007752724923193455, 0.1459772139787674, 0.14641770720481873, 0.13550648093223572, -0.03152269870042801, -0.1555948108434677], [-0.11271024495363235, -0.06680598855018616, -0.1364891678094864, 0.0688098594546318, -0.022505560889840126, -0.0941518098115921, -0.07783505320549011, -0.20160891115665436], [-0.23366191983222961, 0.12118927389383316, 0.09137216955423355, -0.08814355731010437, 0.12529097497463226, 0.029997162520885468, 0.04419197142124176, 0.05554886534810066], [-0.15209701657295227, 0.062024522572755814, 0.1777765452861786, -0.11780299991369247, -0.08706825226545334, -0.10935026407241821, 0.14809994399547577, -0.029447093605995178], [-0.04260849952697754, -0.04737295210361481, -0.10910084843635559, -0.06428183615207672, 0.02091527171432972, 0.18204136192798615, -0.1301840841770172, -0.12795794010162354], [-0.18254099786281586, 0.2553353011608124, -0.1325930505990982, 0.037886232137680054, -0.1656820923089981, -0.10049267113208771, -0.1664382964372635, -0.009428855031728745], [0.12831959128379822, 0.022978048771619797, 0.08475344628095627, 0.14933279156684875, 0.024206291884183884, 0.12190984934568405, -0.08482863754034042, 0.11325377970933914], [0.004067509435117245, 0.06227448955178261, 0.00673607736825943, 0.0485922247171402, 0.11564595997333527, 0.07334791868925095, 0.08157158643007278, -0.15684391558170319], [0.19174142181873322, -0.010591610334813595, -0.0011345911771059036, -0.2150554358959198, -0.13677792251110077, 0.15467534959316254, 0.220110222697258, -0.12843866646289825], [0.006633138284087181, -0.06922723352909088, 0.00846377108246088, -0.19388823211193085, 0.18318794667720795, -0.2417191118001938, -0.09758193045854568, -0.15114840865135193], [-0.11976069957017899, -0.1673344224691391, 0.10704441368579865, -0.14142931997776031, -0.10761398077011108, 0.12704920768737793, -0.007977744564414024, -0.15543320775032043], [0.13441632688045502, 0.05188790336251259, -0.0328160785138607, 0.20482966303825378, -0.024916259571909904, 0.08217687159776688, -0.10425584018230438, 0.09127699583768845], [0.16254857182502747, -0.005124842282384634, 0.09716513007879257, 0.06282228976488113, -0.15676109492778778, 0.01634957082569599, -0.13911761343479156, 0.11103032529354095], [0.16299593448638916, -0.04129235818982124, 0.280825138092041, -0.15638911724090576, 0.04990098997950554, 0.003896052949130535, 0.056500811129808426, -0.047004327178001404], [0.06551972776651382, -0.13138796389102936, -0.2855737507343292, 0.036450691521167755, 0.015888433903455734, 0.010850198566913605, 0.0814676433801651, 0.15516091883182526], [0.10505199432373047, -0.11829502135515213, 0.12053700536489487, 0.08049015700817108, 0.05269845202565193, 0.16110485792160034, -0.22434014081954956, 0.060737598687410355], [0.10285952687263489, -0.1699329912662506, -0.22490882873535156, 0.00808562058955431, -0.04335470125079155, 0.07180283963680267, -0.12447155267000198, 0.09132133424282074], [-0.12268999218940735, 0.18087643384933472, -0.11724739521741867, 0.026849733665585518, 0.05419048294425011, 0.044021569192409515, -0.05130607634782791, -0.033534515649080276], [-0.013164260424673557, 0.14916855096817017, 0.051876362413167953, -0.10334065556526184, -0.166237473487854, -0.06342638283967972, -0.14632730185985565, -0.0478782020509243], [-0.16172398626804352, -0.0009083509212359786, 0.20296399295330048, 0.0502554215490818, 0.13398419320583344, 0.14862310886383057, 0.012848774902522564, -0.070290207862854], [-0.17448042333126068, 0.2436506748199463, -0.12673965096473694, -0.14278103411197662, -0.03955835476517677, 0.17288073897361755, 0.018349401652812958, 0.018984228372573853], [-0.10113412141799927, -0.04625863581895828, 0.05548885837197304, 0.009562229737639427, 0.08299516141414642, -0.020496154204010963, 0.10502178966999054, -0.17349371314048767], [0.060550522059202194, 0.12081403285264969, 0.11656767129898071, -0.15874280035495758, 0.05952810123562813, 0.1065465658903122, 0.08573893457651138, -0.14188259840011597], [-0.18493884801864624, 0.006010265555232763, -0.2046811431646347, 0.1675780713558197, -0.20334026217460632, -0.18238021433353424, -0.15727673470973969, 0.1321175992488861], [-0.12177480757236481, -0.14827272295951843, -0.04241127520799637, 5.51633165741805e-05, 0.05318983271718025, -0.059905000030994415, 0.03179250657558441, -0.1780356615781784], [0.019570372998714447, -0.0649598240852356, 0.1802152842283249, -0.0719812661409378, -0.09287054091691971, -0.10177496820688248, 0.13320372998714447, -0.2446466088294983], [0.22738441824913025, 0.1370343565940857, -0.09030427038669586, -0.1465490609407425, -0.0011137520195916295, 0.19730398058891296, 0.09543406218290329, 0.2104441225528717], [0.03848067671060562, 0.035492606461048126, -0.0988955944776535, 0.22435688972473145, 0.06060641631484032, -0.10236291587352753, 0.08590464293956757, -0.04697655141353607], [-0.0927656814455986, -0.07708980143070221, 0.14615297317504883, 0.075375497341156, 0.10481321811676025, 0.2248852699995041, -0.01302946824580431, -0.06815369427204132]], "b0": [-0.060523197054862976, -0.003517423290759325, 0.08194401860237122, 0.04172603040933609, -9.357136150356382e-05, -0.0610462985932827, 0.005773389246314764, -0.03325989097356796, -0.015416298992931843, -0.02029835805296898, 0.04908435046672821, 0.07437517493963242, -0.08485159277915955, 0.026800453662872314, 0.04183413088321686, -0.056522320955991745, -0.04144188389182091, -0.017486268654465675, 0.011844067834317684, -0.0023403195664286613, -0.013593431562185287, 0.025570567697286606, -0.06238716468214989, 0.04589920490980148, -0.018458683043718338, 0.018131274729967117, -0.018092874437570572, 0.012957848608493805, 0.009298506192862988, 0.004314396530389786, 0.025730598717927933, -0.04742269590497017, -0.04614439234137535, 0.1202763170003891, 0.0026285990606993437, 0.06748894602060318, 0.022879263386130333, -0.00041250951471738517, 0.02607126347720623, -0.060294557362794876, 0.020021986216306686, 0.043189384043216705, 0.0174623541533947, -0.009355134330689907, -0.061013560742139816, 0.0691901445388794, 0.013099029660224915, 0.02422819472849369, 0.04213695600628853, 0.00953100435435772, -0.0219072587788105, 0.08732573688030243, -0.016475699841976166, -0.010468040592968464, -0.04458078369498253, 0.012600098736584187, 0.052832234650850296, 0.018986469134688377, 0.04678026959300041, 0.012810297310352325, -0.03952733427286148, -0.02728019282221794, 0.00742618553340435, -0.016956616193056107, -0.013364860787987709, -0.034114304929971695, 0.04721919447183609, 0.01487915962934494, 0.07092127203941345, -0.0771288126707077, -0.02363177202641964, -0.04555216059088707, 0.004340568091720343, 0.05393555387854576, -0.031173456460237503, 0.021958863362669945, -0.0422937273979187, 0.007941479794681072, -0.05435441434383392, 0.03512534499168396, -0.023325646296143532, 0.03294125944375992, 0.06463584303855896, 0.017009463161230087, -0.018140040338039398, 0.08368229866027832, -0.01306511927396059, -0.07847003638744354, 0.0060140211135149, -0.09215059876441956, -0.02690909430384636, 0.0246551763266325, -0.0071848491206765175, 0.010914718732237816, -0.025902483612298965, -0.013527230359613895, -0.05434518679976463, -0.03697803616523743, 0.03485989198088646, -0.0381152518093586, 0.01763000339269638, 0.0182816069573164, -0.02087794616818428, -0.013960479758679867, 0.0006574415019713342, -0.049870289862155914, -0.0871821865439415, -0.017737992107868195, -0.03465387597680092, -0.040813278406858444, -0.03192039206624031, 0.05500030517578125, -0.04426289722323418, -0.04444126412272453, -0.016475891694426537], "w1": [[0.04393090680241585, -0.170293390750885, -0.20250828564167023, 0.14980921149253845, 0.08806722611188889, -0.054626815021038055, 0.1408165991306305, -0.0036317314952611923, 0.12179204821586609, -0.11717483401298523, 0.1743309646844864, -0.03472573310136795, 0.1492987722158432, -0.08476480096578598, 0.09457514435052872, -0.2087257355451584, 0.13848870992660522, -0.04462169110774994, 0.13100571930408478, -0.16987498104572296, -0.1743178814649582, -0.03819478303194046, -0.16602446138858795, -0.1612880378961563, -0.1058325320482254, 0.0048024291172623634, 0.02641560696065426, 0.21103313565254211, -0.1427706927061081, -0.09349267929792404, 0.1574765145778656, 0.1951109766960144, -0.046848949044942856, 0.08957763761281967, 0.09538727253675461, 0.21931135654449463, 0.22174885869026184, 0.16095833480358124, -0.19449011981487274, -0.16592608392238617, 0.05556270480155945, -0.09720229357481003, 0.1342705935239792, 0.04144791141152382, -0.13720585405826569, -0.10083740204572678, 0.1731843203306198, 0.029165932908654213, 0.08606015890836716, 0.15417352318763733, -0.13398295640945435, 0.05820058658719063, 0.15575113892555237, 0.05045521259307861, -0.10856088995933533, 0.04881247505545616, -0.037982042878866196, 0.07101123034954071, -0.056163590401411057, 0.23927609622478485, 0.20392416417598724, 0.13191905617713928, -0.03479534015059471, -0.09763017296791077, -0.18570111691951752, 0.001995803788304329, -0.1707514524459839, -0.004931698087602854, -0.028889967128634453, -0.07320920377969742, -0.15157152712345123, 0.04521554335951805, 0.18582850694656372, -0.11426908522844315, -0.02806673012673855, 0.08975936472415924, -0.19763629138469696, -0.09071075916290283, -0.012879416346549988, 0.16309581696987152, -0.15435606241226196, 0.00076942058512941, -0.08665556460618973, -0.07087269425392151, -0.15980248153209686, 0.13071021437644958, -0.06033068522810936, -0.1747526377439499, 0.0017511342884972692, -0.1254693865776062, 0.16217513382434845, 0.042576488107442856, -0.008968133479356766, 0.03578081354498863, 0.050657108426094055, 0.03326283395290375, -0.09149575978517532, -0.08207952976226807, -0.13695937395095825, -0.14330793917179108, 0.06740261614322662, -0.015345755964517593, -0.12775923311710358, -0.06776176393032074, 0.16451403498649597, 0.2636755704879761, 0.02664344012737274, 0.1139676496386528, 0.01801368221640587, -0.13070806860923767, -0.1287916749715805, -0.03902628272771835, 0.208751380443573, -0.0008760816999711096, 0.14328211545944214], [0.1411675214767456, -0.05087532475590706, -0.0629115030169487, -0.04150828346610069, 0.10319823771715164, -0.1381053775548935, -0.021529298275709152, -0.029138099402189255, 0.0309294480830431, 0.13018940389156342, -0.1513696163892746, 0.09399720281362534, -0.08906286209821701, -0.15123146772384644, -0.04799170047044754, -0.05143435671925545, 0.10599042475223541, 0.027883250266313553, 0.07844164222478867, -0.0656006708741188, -0.101702980697155, -0.1637728065252304, -0.18771810829639435, -0.05099368095397949, 0.12003478407859802, -0.07936111092567444, -0.12452278286218643, 0.024855786934494972, -0.13639599084854126, -0.04062837362289429, 0.20684434473514557, -0.003911689855158329, -0.1793060153722763, 0.006711010355502367, 0.08134391158819199, 0.1726028472185135, -0.04403263330459595, -0.08079759776592255, -0.09783223271369934, 0.14147412776947021, 0.000826552277430892, 0.13028553128242493, 0.15579037368297577, 0.007014259696006775, 0.1091664507985115, -0.07776689529418945, -0.0874662771821022, 0.15960876643657684, 0.024374404922127724, -0.23908288776874542, 0.20339429378509521, 0.10368482023477554, -0.07998548448085785, 0.057880088686943054, 0.13186559081077576, -0.040804848074913025, -0.09159151464700699, -0.1362510770559311, -0.08461218327283859, -0.08619529753923416, -0.2225089818239212, -0.12355738133192062, 0.13721418380737305, 0.07476303726434708, -0.2294079065322876, -0.030024567618966103, -0.10747675597667694, 0.013064091093838215, -0.08496097475290298, 0.08701130002737045, 0.1364043802022934, -0.04652592912316322, 0.1434667408466339, -0.056642770767211914, 0.07249400019645691, -0.16238611936569214, -0.011117493733763695, 0.1224115714430809, 0.10393574833869934, 0.1610896736383438, -0.01234416849911213, -0.21072103083133698, -0.07480601221323013, 0.03666849061846733, -0.20011526346206665, 0.07853595912456512, 0.03203803673386574, -0.022989843040704727, 0.040609799325466156, 0.12602499127388, -0.1412513703107834, -0.16348978877067566, 0.15906816720962524, -0.11378387361764908, 0.05988572537899017, -0.015871886163949966, 0.09666366875171661, -0.16384358704090118, 0.08017299324274063, -0.1881909817457199, -0.17349644005298615, 0.17951823770999908, 0.03960033878684044, 0.18099159002304077, 0.06526532769203186, -0.03168536722660065, -0.09804458916187286, -0.19302965700626373, 0.03812149167060852, 0.05026227608323097, -0.023294473066926003, -0.08894026279449463, -0.03863828629255295, 0.1086544468998909, 0.10392774641513824], [0.24754975736141205, 0.1413087248802185, -0.05402659252285957, -0.08736565709114075, -0.0941416397690773, 0.17918118834495544, -0.06278426200151443, 0.0617496483027935, -0.1494642049074173, 0.06422064453363419, 0.0849601998925209, -0.026542508974671364, -0.043489739298820496, 0.05077951401472092, 0.12896984815597534, -0.2064601480960846, -0.009605682455003262, 0.0029483113903552294, 0.143586665391922, -0.031428299844264984, -0.19998027384281158, -0.07455436140298843, 0.16048260033130646, 0.12536364793777466, -0.03292987495660782, -0.0905478224158287, 0.069674551486969, -0.013032959774136543, 0.01287110149860382, -0.10790715366601944, 0.003841404803097248, 0.18686871230602264, -0.03401986137032509, 0.010344126261770725, -0.07788500189781189, 0.20970124006271362, 0.10054793208837509, -0.22256827354431152, -0.13163745403289795, -0.013952769339084625, -0.06293997168540955, 0.11490138620138168, 0.11968568712472916, -0.15166790783405304, 0.19355863332748413, 0.0688132643699646, 0.07322830706834793, -0.19588342308998108, -0.058003682643175125, -0.15037713944911957, -0.11848385632038116, 0.18274156749248505, 0.04299049824476242, -0.09490974992513657, -0.22440311312675476, 0.0300157368183136, -0.06635056436061859, -0.009096714667975903, -0.13572056591510773, 0.02361040934920311, -0.19284537434577942, -0.11983969807624817, -0.18137647211551666, -0.017892882227897644, 0.12198156118392944, 0.041045863181352615, -0.045827772468328476, 0.10188624262809753, 0.14619334042072296, -0.17628493905067444, 0.16407839953899384, -0.048768553882837296, 0.0386933758854866, -0.0742516741156578, -0.02500065788626671, -0.17199921607971191, -0.05143259838223457, 0.01185823418200016, -0.0002921538834925741, -0.06624238938093185, 0.03425653278827667, 0.1539243757724762, 0.10934647172689438, -0.061923250555992126, -0.045728687196969986, -0.17008478939533234, -0.26116883754730225, 0.036785613745450974, 0.16790935397148132, 0.14035692811012268, -0.12380173057317734, 0.2215723842382431, 0.042286019772291183, 0.02571992203593254, -0.03815760090947151, 0.2318730503320694, 0.05092495679855347, -0.14859436452388763, 0.06374314427375793, -0.19254831969738007, 0.1533467024564743, -0.04297258332371712, 0.08999712020158768, -0.0917695015668869, 0.1959814876317978, 0.20636895298957825, -0.02204318158328533, -0.18596450984477997, 0.1170199066400528, 0.17288726568222046, -0.14784282445907593, 0.06516578793525696, -0.13642677664756775, -0.14199961721897125, -0.1715276688337326], [0.10753148794174194, -0.22121566534042358, -0.12677818536758423, -0.20661939680576324, -0.1049320176243782, -0.054729800671339035, -0.1813780814409256, -0.14945967495441437, 0.04444209113717079, -0.1334030032157898, -0.22264227271080017, -0.09080686420202255, 0.09251808375120163, -0.07423651963472366, 0.06547998636960983, -0.15817637741565704, 0.1723574697971344, -0.1791674941778183, 0.028518885374069214, -0.04992980882525444, -0.053517576307058334, 0.01829017512500286, 0.0480511449277401, 0.19598613679409027, -0.009039116092026234, -0.07889208197593689, -0.05903753638267517, 0.09512929618358612, -0.10960645228624344, 0.01689707487821579, -0.09884820878505707, 0.19811610877513885, -0.09746842086315155, -0.20572100579738617, 0.11045611649751663, -0.12489470839500427, 0.1944403499364853, 0.05848119780421257, 0.03336844593286514, 0.21331627666950226, -0.1453751027584076, -0.17682169377803802, 0.028212251141667366, 0.18340542912483215, -0.07708165794610977, -0.17832131683826447, -0.019028158858418465, 0.10491611063480377, -0.17062754929065704, -0.1096358522772789, 0.11782405525445938, -0.11967510730028152, -0.12081069499254227, -0.12746736407279968, 0.1456795185804367, -0.09201788902282715, -0.2571260333061218, 0.09205944091081619, -0.13669148087501526, 0.08192602545022964, 0.05559651926159859, 0.12178259342908859, -0.1289791315793991, 0.04275200515985489, -0.050547823309898376, 0.02363324910402298, 0.08624377846717834, 0.14437076449394226, -0.16472864151000977, 0.1786969006061554, -0.0013279500417411327, 0.16447393596172333, -0.21505385637283325, 0.0007183903944678605, 0.1557644158601761, 0.12623779475688934, 0.09516093134880066, 0.06543692946434021, 0.1650954633951187, -0.07528766989707947, 0.19654642045497894, -0.19219352304935455, 0.007781633175909519, -0.07183931767940521, 0.06678315997123718, -0.039716776460409164, -0.06498321145772934, 0.11440899223089218, -0.24935714900493622, 0.1791064739227295, 0.05444260686635971, -0.06853365898132324, 0.016080422326922417, 0.0887734666466713, 0.09063110500574112, 0.056330177932977676, 0.18880756199359894, 0.027631331235170364, 0.1908479630947113, 0.09881769865751266, 0.06867685914039612, -0.010439563542604446, 0.11240441352128983, -0.12673355638980865, -0.12663982808589935, 0.05558190494775772, 0.17921170592308044, -0.045142434537410736, 0.1566014587879181, 0.1924649178981781, 0.023025788366794586, -0.05819278210401535, -0.12462247908115387, -0.0422506146132946, 0.032796576619148254], [-0.0124072739854455, 0.17363275587558746, -0.025109168142080307, -0.1644361913204193, 0.20166029036045074, 0.15294812619686127, -0.04184802249073982, -0.011015125550329685, -0.2146814614534378, 0.015830345451831818, -0.1273474395275116, 0.0791606605052948, 0.03626497834920883, -0.037670910358428955, -0.07123929262161255, 0.045674532651901245, 0.024342207238078117, 0.17982658743858337, -0.04584241285920143, 0.07585427165031433, 0.09312956035137177, -0.056881681084632874, 0.14939473569393158, -0.08889579772949219, -0.15254710614681244, 0.16794359683990479, 0.030725492164492607, -0.07579296827316284, 0.09231742471456528, -0.08862794190645218, 0.14763668179512024, 0.14491213858127594, 0.14578020572662354, 0.11197157204151154, -0.17185963690280914, -0.13913804292678833, 0.06232192739844322, -0.08894623816013336, -0.2417561411857605, 0.14786125719547272, 0.07995972037315369, -0.13160191476345062, -0.19422012567520142, 0.03202090039849281, 0.09072210639715195, 0.010261209681630135, -0.07881679385900497, -0.23667684197425842, -0.06824419647455215, 0.01876300573348999, -0.059000227600336075, 0.15020591020584106, 0.11731327325105667, -0.0818769633769989, -0.08651871979236603, -0.13185635209083557, -0.1589391976594925, -0.1671982705593109, -0.15412043035030365, -0.09259097278118134, 0.05758926272392273, 0.04821641743183136, -0.08857110887765884, 0.17842832207679749, 0.18097910284996033, 0.1424751728773117, 0.10731329023838043, -0.021759463474154472, -0.07868190854787827, 0.19377484917640686, -0.14507721364498138, -0.18672844767570496, -0.05012865364551544, -0.21247678995132446, 0.015632392838597298, -0.21857044100761414, 0.12145814299583435, -0.17797188460826874, 0.1745968610048294, -0.22262459993362427, 0.1158505231142044, 0.20092658698558807, -0.13390076160430908, 0.012917447835206985, -0.19147896766662598, -0.1953589767217636, -0.04969825595617294, 0.07239901274442673, -0.19071657955646515, 0.1090702936053276, 0.2249317318201065, -0.17542795836925507, 0.0827924832701683, 0.017814872786402702, -0.18177400529384613, 0.20081767439842224, -0.03708131983876228, -0.1720091998577118, -0.010150333866477013, 0.15815001726150513, 0.04030439257621765, -0.03323386609554291, -0.07782422751188278, 0.2086963653564453, 0.07936161011457443, -0.18950606882572174, 0.027213716879487038, 0.18218554556369781, 0.16876192390918732, -0.16771124303340912, 0.04400854930281639, -0.1862851232290268, 0.11848003417253494, -0.06920956075191498, 0.21344302594661713], [0.09576623141765594, -0.10117053985595703, 0.05039508268237114, 0.03360264003276825, -0.08931391686201096, -0.10778282582759857, -0.10951867699623108, -0.05239493399858475, 0.1851453185081482, 0.07433132827281952, 0.004387747496366501, -0.16691502928733826, -0.19548141956329346, -0.05083214491605759, 0.01372009888291359, -0.14619283378124237, 0.18946632742881775, -0.025771642103791237, -0.03797879070043564, 0.1462623029947281, -0.19410888850688934, -0.0694442167878151, -0.1432262659072876, 0.03447490185499191, 0.17043840885162354, 0.15574945509433746, 0.08430501818656921, -0.05829446762800217, 0.20425298810005188, -0.13855621218681335, 0.1853281557559967, 0.15370357036590576, 0.09599001705646515, 0.18373049795627594, 0.2077479362487793, 0.09766937792301178, -0.008228844031691551, -0.03885422646999359, -0.0751338005065918, -0.13016125559806824, 0.2363073229789734, 0.0010075090685859323, 0.04706438630819321, 0.06242687627673149, 0.1573251485824585, -0.12446244060993195, 0.04645373672246933, -0.1554938554763794, -0.051370568573474884, 0.021006854251027107, -0.10134703665971756, 0.07901889830827713, 0.08161911368370056, -0.15820381045341492, -0.21506768465042114, -0.13143114745616913, 0.11133125424385071, -0.18903586268424988, -0.01833239197731018, -0.10771298408508301, -0.19513729214668274, 0.06187864765524864, -0.07682842761278152, -0.20109137892723083, -0.023911822587251663, -0.1090376153588295, -0.14879833161830902, 0.012791668064892292, -0.06712131202220917, 0.16452191770076752, 0.125730499625206, -0.10566788166761398, -0.14351224899291992, 0.16120927035808563, -0.06621044874191284, 0.03682766482234001, -0.11274289339780807, 0.17513532936573029, -0.09397748857736588, -0.08043251931667328, 0.07647241652011871, 0.1871531903743744, 0.17529213428497314, -0.0153005700558424, -0.2069620043039322, 0.09561361372470856, -0.13394342362880707, -0.08301180601119995, -0.050125207751989365, -0.1768631935119629, 0.00725075788795948, -0.007531313691288233, 0.05105406790971756, -0.03972923010587692, 0.18025341629981995, 0.04539816826581955, -0.1469992995262146, 0.050632294267416, 0.15046751499176025, 0.10781262814998627, -0.070050910115242, 0.00846128724515438, -0.17189502716064453, 0.1479916125535965, -0.12498468160629272, 0.1939099133014679, -0.008808941580355167, 0.13485638797283173, 0.10946091264486313, -0.1554914116859436, -0.1866266280412674, -0.17561239004135132, 0.005020680837333202, 0.059450313448905945, 0.06260351091623306]], "b1": [0.019188519567251205, -0.05473766475915909, 0.04163223132491112, -0.3814871907234192, -0.3202507793903351, 0.048676997423172]}, "1": {"w0": [[0.13252462446689606, -0.2562030553817749, -0.00957519467920065, -0.1382828950881958, 0.1361081451177597, -0.17791412770748138, -0.165909543633461, 0.15587455034255981], [0.03932942450046539, 0.06007061526179314, 0.14369873702526093, 0.09078808128833771, -0.011761306785047054, -0.014867410995066166, -0.13016727566719055, -0.1995639204978943], [0.0809846818447113, 0.09411462396383286, -0.05614775791764259, -0.1391192376613617, 0.05437353253364563, 0.12659122049808502, -0.08530514687299728, -0.047607336193323135], [0.025019340217113495, -0.15140733122825623, 0.09865875542163849, 0.04355708137154579, 0.026334909722208977, -0.07936011254787445, 0.02406567707657814, -0.1575031727552414], [-0.17270655930042267, 0.05431608483195305, -0.45983725786209106, 0.15071099996566772, 0.10863222926855087, 0.0768846720457077, -0.1605382263660431, 0.007247497793287039], [0.05673715099692345, 0.08559837937355042, 0.202401801943779, 0.08951584994792938, 0.06397808343172073, -0.16791805624961853, 0.07465954124927521, 0.13446606695652008], [0.038098566234111786, 0.08236110210418701, 0.21177297830581665, -0.17054757475852966, -0.028665203601121902, -0.05427781492471695, 0.19984464347362518, -0.09654579311609268], [-0.1230463907122612, 0.06868989020586014, -0.12053778022527695, -0.0557323582470417, 0.16889457404613495, 0.04289870336651802, -0.014558053575456142, -0.19985373318195343], [0.1569448560476303, -0.13479886949062347, -0.28804129362106323, -0.06303780525922775, 0.09212935715913773, 0.023031897842884064, -0.1768973022699356, -0.16629968583583832], [-0.2566835284233093, 0.1070714220404625, 0.1816648542881012, -0.11566091328859329, -0.0861564502120018, 0.20437836647033691, 0.09205115586519241, -0.12085279822349548], [-0.13160370290279388, -0.010821953415870667, 0.010293816216289997, -0.011945920996367931, -0.08894182741641998, 0.1854386031627655, -0.08046381175518036, 0.054633256047964096], [0.013667442835867405, -0.16077937185764313, 0.18601153790950775, 0.061589501798152924, 0.23152168095111847, -0.09009147435426712, 0.045082803815603256, 0.1164645329117775], [0.12263686209917068, -0.005825662985444069, -0.058809224516153336, 0.05929010733962059, -0.15370680391788483, 0.024077286943793297, -0.1447896510362625, 0.16976548731327057], [0.15565185248851776, 0.24332194030284882, 0.1146676167845726, -0.013375524431467056, 0.0634208470582962, -0.19416408240795135, -0.14955195784568787, 0.037341516464948654], [-0.04764758422970772, 0.024512924253940582, -0.05544285476207733, -0.13453781604766846, 0.08206164836883545, 0.15775400400161743, -0.0330127514898777, -0.02461913414299488], [-0.12576353549957275, 0.07507727295160294, 0.2754800021648407, 0.1576775312423706, 0.06199730560183525, 0.22773343324661255, -0.10900110751390457, -0.05648965388536453], [0.12769483029842377, -0.12074234336614609, 0.0075649903155863285, -0.19143730401992798, 0.07863423973321915, 0.10180827230215073, -0.07132741808891296, 0.07501954585313797], [0.18248802423477173, -0.2893713414669037, 0.0448155514895916, -0.1564899981021881, -0.06829176098108292, -0.14209388196468353, 0.13923190534114838, 0.20074662566184998], [0.22334110736846924, 0.14195562899112701, 0.21467730402946472, -0.05583496391773224, 0.08431506156921387, -0.11734447628259659, 0.06546076387166977, 0.039092469960451126], [-0.14168277382850647, -0.08903412520885468, 0.058897923678159714, 0.16106577217578888, 0.03512125834822655, 0.088351771235466, 0.05177106335759163, -0.1911904513835907], [0.19854436814785004, 0.03136121481657028, 0.19231729209423065, -0.19874368607997894, -0.04040766879916191, -0.03193964064121246, 0.03547246381640434, 0.006817398127168417], [0.10225115716457367, 0.1005922332406044, -0.10632463544607162, -0.11560706049203873, -0.11339513957500458, -0.21819497644901276, 0.019822876900434494, -0.06152888014912605], [-0.22961260378360748, -0.14972040057182312, -0.13744451105594635, -0.13288584351539612, -0.11018914729356766, -0.0829721987247467, 0.15498867630958557, 0.22894775867462158], [-0.05091216415166855, 0.17342205345630646, 0.13103832304477692, 0.08132662624120712, 0.16847632825374603, 0.18808236718177795, -0.12158843129873276, -0.0009813414653763175], [0.08612017333507538, -0.21423137187957764, -0.24168120324611664, -0.028699485585093498, 0.14349934458732605, -0.09235531836748123, -0.17533345520496368, 0.11753378063440323], [0.059600286185741425, 0.1672503799200058, 0.05628720298409462, 0.11272932589054108, -0.06649888306856155, -0.007311981171369553, 0.0019023458007723093, -0.1270940750837326], [0.16730636358261108, 0.1369730830192566, -0.11892741173505783, 0.08482739329338074, 0.058694157749414444, -0.18327853083610535, 0.05541694164276123, -0.1622423380613327], [0.14552849531173706, 0.07822053879499435, 0.12266400456428528, -0.04392494633793831, 0.1693742424249649, 0.21024571359157562, 0.012571503408253193, 0.17348287999629974], [0.0559936948120594, -0.13044504821300507, 0.16752833127975464, 0.10642591863870621, -0.1111220195889473, -0.17722885310649872, 0.12390962243080139, -0.12125000357627869], [-0.21321192383766174, -0.02174881100654602, 0.3004358410835266, 0.16213709115982056, -0.10174818336963654, -0.1164240837097168, 0.11139819771051407, 0.02941000647842884], [-0.22438982129096985, 0.1731332391500473, -0.014053191989660263, 0.06090005114674568, 0.04807908833026886, -0.03126043826341629, 0.03364172950387001, 0.08079913258552551], [0.03173758089542389, 0.006795686669647694, -0.024875374510884285, -0.10774838924407959, 0.030853740870952606, -0.23642200231552124, 0.00028623943217098713, 0.19215379655361176], [-0.15561482310295105, -0.14319230616092682, 0.2496330589056015, 0.017195777967572212, -0.21506190299987793, 0.14386065304279327, -0.204441636800766, -0.09746445715427399], [0.024986347183585167, 0.130287304520607, 0.05518936365842819, -0.10349428653717041, -0.12564916908740997, 0.15281029045581818, 0.17923790216445923, -0.12469358742237091], [0.1388637125492096, 0.17040306329727173, -0.036670465022325516, -0.14281947910785675, -0.03680499643087387, 0.17982076108455658, 0.02084999717772007, -0.04730920493602753], [-0.00685831718146801, 0.08493023365736008, 0.11206743866205215, -0.12986987829208374, -0.005545314867049456, -0.09829776734113693, -0.03974450007081032, 0.017922304570674896], [-0.17412041127681732, -0.03474676236510277, -0.027403956279158592, 0.008564569056034088, 0.17064978182315826, -0.07935860753059387, -0.03725142031908035, -0.12415408343076706], [-0.047636497765779495, 0.00426536425948143, 0.07736477255821228, -0.05002100020647049, 0.15374039113521576, 0.0111653758212924, -0.17056022584438324, 0.13601768016815186], [0.07426401227712631, 0.15785175561904907, 0.1754426807165146, 0.16608580946922302, 0.23869697749614716, -0.06091707572340965, -0.041158635169267654, 0.07267152518033981], [-0.1367410123348236, 0.08513904362916946, -0.20633310079574585, 0.17767180502414703, -0.13362467288970947, 0.11077248305082321, 0.11757338047027588, 0.018709508702158928], [0.03732837736606598, 0.12086495757102966, -0.4073578715324402, 0.03394537791609764, -0.11106762290000916, 0.14271414279937744, 0.11816977709531784, 0.08637439459562302], [-0.1526501625776291, -0.014857087284326553, 0.24769327044487, -0.0459616556763649, -0.1062309518456459, 0.18596065044403076, -0.11514920741319656, -0.09702066332101822], [0.03815126046538353, 0.1858280450105667, 0.14281587302684784, 0.08730209618806839, -0.1473294049501419, 0.08275948464870453, -0.04570813104510307, -0.05239417031407356], [0.036986466497182846, -0.18458056449890137, -0.11773514747619629, 0.08860252052545547, -0.1301218867301941, -0.023432977497577667, -0.03927754610776901, 0.10403673350811005], [-0.2536846697330475, -0.04743317887187004, 0.060595832765102386, 0.05203758552670479, 0.0868985503911972, 0.04980010911822319, 0.1762944906949997, 0.04543895646929741], [-0.08598551899194717, 0.18863312900066376, 0.15832550823688507, 0.02991374209523201, -0.09876557439565659, -0.0930776298046112, 0.0805949941277504, 0.15842147171497345], [-0.14421530067920685, 0.06733018159866333, -0.24156148731708527, 0.0504150316119194, -0.18299898505210876, 0.02504190057516098, -0.013985618948936462, 0.1583264172077179], [-0.04920687526464462, 0.076357401907444, -0.2780364155769348, 0.03621548041701317, -0.18675416707992554, 0.10829520970582962, -0.02167321927845478, -0.036438871175050735], [-0.06132939085364342, -0.10729719698429108, -0.39821332693099976, -0.14860185980796814, 0.005063159856945276, 0.12015171349048615, -0.07159274816513062, 0.00207570125348866], [-0.10623958706855774, 0.03483400121331215, 0.01083526760339737, -0.08503665030002594, 0.09071803838014603, 0.21444512903690338, 0.054482825100421906, -0.1232779249548912], [0.11682888865470886, -0.17428447306156158, 0.22141049802303314, 0.00810310523957014, -0.14410899579524994, 0.11734172701835632, 0.14373522996902466, 0.10550311952829361], [0.038407232612371445, 0.12845049798488617, 0.15781475603580475, 0.2458958625793457, 0.09212037175893784, -0.19951055943965912, 0.034899283200502396, -0.04993656650185585], [-0.09854397177696228, 0.09883581101894379, 0.044830676168203354, 0.011599438264966011, -0.19045375287532806, -0.1261412799358368, -0.13574913144111633, -0.07866726070642471], [-0.20847420394420624, 0.0733678936958313, 0.16290754079818726, -0.17432497441768646, 0.004051273223012686, -0.20887061953544617, 0.00708157941699028, 0.061352573335170746], [-0.09922979772090912, -0.15619809925556183, -0.2086154669523239, -0.10464751720428467, 0.16462144255638123, 0.1311044692993164, 0.18070097267627716, 0.17681989073753357], [0.17644326388835907, 0.031673431396484375, 0.09915325790643692, 0.15704111754894257, 0.21215297281742096, -0.09233338385820389, 0.1896650642156601, -0.015465687960386276], [-0.03697590529918671, -0.03565569967031479, -0.15845684707164764, 0.01977095939218998, -0.11196362227201462, 0.018582545220851898, -0.0023652110248804092, 0.08286390453577042], [-0.06738856434822083, 0.07230598479509354, 0.09431299567222595, 0.0015439614653587341, 0.061334315687417984, -0.15756146609783173, -0.1272132247686386, 0.1185981035232544], [-0.08537528663873672, 0.13554316759109497, -0.36513084173202515, 0.15944340825080872, 0.016537822782993317, -0.09797307848930359, -0.05967152863740921, -0.08270297199487686], [-0.018278351053595543, 0.11388152092695236, -0.1515243649482727, -0.07350935786962509, 0.0978061854839325, 0.04111181199550629, 0.1751580536365509, -0.19820405542850494], [-0.13399013876914978, -0.07563381642103195, -0.2143784463405609, 0.178863987326622, 0.14191001653671265, 0.11427611857652664, 0.15040908753871918, -0.047338102012872696], [-0.12894728779792786, -0.06151621788740158, -0.0964495912194252, -0.07424967736005783, -0.15309545397758484, -0.04949593544006348, -0.12751898169517517, 0.2036312073469162], [0.10714136809110641, 0.27808767557144165, -0.2091582715511322, 0.06457901746034622, 0.12423097342252731, -0.11377911269664764, -0.038493163883686066, 0.09985165297985077], [0.11184324324131012, 0.018923696130514145, 0.16292156279087067, 0.15146978199481964, -0.19159357249736786, -0.06218438223004341, 0.01924719288945198, -0.07622672617435455], [0.02773739956319332, 0.20179221034049988, -0.008242584764957428, 0.1421481966972351, -0.04145874083042145, -0.14724761247634888, 0.16601742804050446, 0.20027278363704681], [0.12073943763971329, 0.011986356228590012, 0.03775331750512123, 0.1354512721300125, 0.19852206110954285, 0.10054939985275269, -0.0879131481051445, -0.014025283977389336], [0.07105214148759842, 0.014119612984359264, 0.16957253217697144, -0.11677902191877365, 0.16540174186229706, 0.09314178675413132, 0.12734930217266083, -0.22119009494781494], [-0.06839737296104431, 0.054061342030763626, 0.07853125035762787, 0.14193286001682281, -0.17797736823558807, -0.011290623806416988, 0.07385936379432678, -0.13818329572677612], [0.10017561167478561, 0.16514556109905243, 0.1546492874622345, -0.0993613451719284, -0.11174805462360382, 0.13784553110599518, 0.18074175715446472, 0.02761673554778099], [0.028049642220139503, -0.09346534311771393, -0.3139898478984833, 0.040802083909511566, 0.10049661248922348, -0.07321662455797195, 0.1396227926015854, -0.18709303438663483], [-0.031346842646598816, -0.07516209036111832, -0.5248928666114807, 0.09718366712331772, 0.022041097283363342, 0.0299343541264534, -0.15190938115119934, -0.1982475221157074], [-0.08853937685489655, 0.13472837209701538, -0.12085124850273132, -0.06592607498168945, 0.18606041371822357, -0.005439898930490017, -0.20148374140262604, -0.024629000574350357], [-0.10000552982091904, -0.14399999380111694, -0.05969025567173958, -0.02786322310566902, 0.09646404534578323, -0.008066544309258461, -0.04402586445212364, -0.06365415453910828], [0.212424635887146, 0.1037881076335907, 0.2576114237308502, 0.05887040123343468, -0.04997456818819046, 0.0015399749390780926, -0.034353796392679214, 0.04463395103812218], [0.004274002742022276, -0.13524293899536133, -0.15869389474391937, -0.06205989792943001, 0.1458682268857956, 0.00033122775494121015, -0.08386945724487305, -0.17742465436458588], [0.12265964597463608, 0.06453415006399155, -0.1512364149093628, 0.03141268342733383, -0.1280689537525177, 0.12822531163692474, 0.017781058326363564, -0.21651320159435272], [-0.1708073765039444, 0.12315443903207779, -0.17177213728427887, 0.1994781494140625, 0.02096332423388958, 0.16130755841732025, 0.04504794627428055, -0.0028527381364256144], [0.08696253597736359, 0.16310957074165344, 0.1772286295890808, -0.0969824343919754, -0.07231457531452179, 0.10193939507007599, 0.1718972623348236, -0.04224931076169014], [-0.0151331452652812, -0.11085213720798492, 0.024327877908945084, 0.23640955984592438, 0.10610730201005936, -0.06068890169262886, 0.007641070056706667, 0.1213645339012146], [-0.05515756458044052, -0.011557255871593952, 0.21307186782360077, 0.11980678141117096, -0.03418971970677376, 0.15435370802879333, -0.04071343317627907, 0.12528617680072784], [0.11827954649925232, 0.0765908733010292, 0.14977239072322845, -0.13747988641262054, 0.10119859129190445, 0.18424028158187866, -0.2284688949584961, 0.14692755043506622], [-0.10221065580844879, 0.08493035286664963, 0.05884360149502754, 0.13487592339515686, -0.18046997487545013, -0.0621989369392395, 0.11661792546510696, 0.18525196611881256], [0.10220666974782944, -0.12619052827358246, -0.1591581553220749, 0.09593521803617477, -0.1518193483352661, -0.08921656012535095, 0.08871722966432571, -0.0343751423060894], [-0.015506376512348652, -0.10151214152574539, -0.3887997567653656, 0.15388493239879608, 0.09782359004020691, -0.14782966673374176, -0.07250126451253891, -0.0030233676079660654], [-0.0970817506313324, 0.22013024985790253, 0.27282315492630005, 0.0005082735442556441, 0.00032824583468027413, 0.18720436096191406, 0.16989654302597046, -0.09006045758724213], [0.0016820355085656047, 0.03366849571466446, -0.32376232743263245, -0.18506795167922974, -0.16901694238185883, -0.07293648272752762, -0.09711567312479019, -0.1527610421180725], [0.08342278748750687, 0.0068128593266010284, -0.11017116904258728, -0.12479910254478455, 0.040627144277095795, -0.226659893989563, 0.06035856902599335, 0.04352036491036415], [-0.03631478548049927, -0.07773300260305405, 0.1948547512292862, 0.03188898041844368, 0.18711000680923462, -0.10148298740386963, -0.2019035369157791, -0.22681863605976105], [0.18438278138637543, -0.03267888352274895, -0.3576481342315674, 0.08761771023273468, -0.17083807289600372, 0.027694296091794968, 0.11022642999887466, -0.14435012638568878], [0.14398440718650818, -0.052301064133644104, -0.15168170630931854, 0.06109492853283882, 0.03661394864320755, 0.020213134586811066, -0.18138833343982697, 0.13470244407653809], [-0.14118549227714539, -0.02220027893781662, 0.02858559973537922, 0.18408305943012238, 0.14616668224334717, -0.0059909699484705925, 0.21935909986495972, -0.04697316884994507], [-0.12600164115428925, 0.1013338565826416, -0.005045278929173946, 0.060935407876968384, -0.14401283860206604, 0.05468953773379326, 0.1220884844660759, -0.11207277327775955], [-0.03663591668009758, -0.07909885793924332, -0.0880618691444397, -0.09012667834758759, -0.11687859147787094, -0.010072339326143265, -0.11806273460388184, 0.2474101334810257], [-0.09593512862920761, 0.1431627720594406, -0.015860576182603836, -0.09022355824708939, -0.03349095582962036, 0.07060246914625168, -0.022321252152323723, -0.20265448093414307], [0.02978789247572422, 0.021320810541510582, -0.3586064577102661, 0.12288019061088562, 0.017930805683135986, 0.09746620804071426, -0.003104398725554347, -0.014027830213308334], [0.1562291532754898, 0.027296457439661026, -0.3198334574699402, -0.04849730804562569, -0.07068146765232086, -0.0668947845697403, 0.11894990503787994, 0.15241004526615143], [0.04643929749727249, 0.08497487008571625, -0.024169178679585457, -0.0987529382109642, 0.11196836829185486, 0.042485449463129044, 0.06890063732862473, 0.21179810166358948], [0.13421301543712616, 0.18268415331840515, 0.006202991586178541, 0.08620395511388779, 0.05440409481525421, 0.16047219932079315, -0.04299909994006157, 0.027265075594186783], [0.11459380388259888, -0.24015097320079803, 0.12242355197668076, 0.08484339714050293, -0.19987915456295013, -0.0006375511875376105, 0.08155006170272827, 0.01709345541894436], [-0.09493400901556015, -0.18723911046981812, -0.1613636314868927, -0.10944845527410507, 0.11555418372154236, 0.15117147564888, 0.18436725437641144, 0.18349261581897736], [0.08954714238643646, -0.1546432375907898, -0.1774306744337082, 0.0833502784371376, -0.08482547104358673, -0.08083773404359818, 0.18205805122852325, 0.03148761764168739], [-0.0822632759809494, -0.06646157056093216, 0.10575716942548752, 0.2537592947483063, 0.16984377801418304, -0.005555867683142424, -0.01925341971218586, 0.03556856885552406], [0.17210976779460907, -0.19370430707931519, -0.21326042711734772, 0.062426190823316574, 0.09864495694637299, -0.07997138053178787, 0.03194205462932587, 0.04691481962800026], [0.24644550681114197, -0.2003040909767151, 0.09523741155862808, 0.19749613106250763, -0.003169340780004859, 0.04058798775076866, -0.09401213377714157, 0.14252221584320068], [-0.08862598985433578, -0.09327070415019989, 0.11444947868585587, -0.15710721909999847, 0.19773468375205994, -0.12253084778785706, 0.11561764776706696, -0.06859803944826126], [-0.16463586688041687, 0.10181091725826263, 0.11368577182292938, -0.13259823620319366, 0.12587058544158936, -0.0017380880890414119, 0.1301051378250122, -0.1064935252070427], [-0.1458553969860077, -0.12275528907775879, -0.032200757414102554, 0.024677306413650513, -0.15336093306541443, -0.12188974022865295, -0.07285069674253464, 0.16164080798625946], [-0.1389186829328537, -0.13630402088165283, 0.2759426534175873, 0.1099327802658081, 0.23090951144695282, 0.03428852558135986, -0.09982360899448395, -0.1016472801566124], [0.018641307950019836, 0.13701120018959045, -0.027283359318971634, -0.07783245295286179, 0.07817978411912918, 0.009745649993419647, 0.1886487454175949, -0.03238484635949135], [-0.05346198007464409, -0.106665700674057, 0.000905445427633822, -0.020452747121453285, -0.06255015730857849, -0.17927002906799316, -0.2041485607624054, -0.03383341431617737], [-0.12171541154384613, -0.07548890262842178, 0.23524227738380432, 0.0012223951052874327, 0.09915389865636826, -0.16262049973011017, -0.10138013958930969, -0.15445557236671448], [-0.14637288451194763, 0.04637563228607178, 0.14128679037094116, 0.17922139167785645, -0.07781635969877243, -0.227929025888443, 0.08945166319608688, 0.1895887702703476], [0.15130043029785156, -0.16204333305358887, 0.09182630479335785, 0.06510328501462936, -0.2013150155544281, 0.03425254300236702, -0.013338936492800713, 0.20070098340511322], [-0.12151143699884415, -0.01943293772637844, -0.27778804302215576, 0.209919735789299, -0.016170943155884743, -0.1500493288040161, 0.29331573843955994, -0.041624221950769424], [0.17830704152584076, 0.24289773404598236, -0.013969670049846172, 0.053721968084573746, 0.10704397410154343, 0.13200119137763977, -0.05668609216809273, -0.13567879796028137]], "b0": [-0.04912291467189789, 0.03194718062877655, -0.032553188502788544, 0.08877292275428772, -0.06483178585767746, 0.05764707922935486, 0.042527664452791214, -0.05232880637049675, -0.07245630770921707, 0.04226601868867874, -0.00789947435259819, 0.09645245969295502, -0.023072227835655212, 0.1375596970319748, -0.03801384195685387, 0.05527966469526291, 0.0757690966129303, -0.023734930902719498, 0.033770542591810226, 0.07320316880941391, 0.018904076889157295, -0.05543281510472298, -0.01621507853269577, 0.09411490708589554, -0.03660823777318001, 0.03458027169108391, 0.06255055218935013, 0.03992518410086632, 0.08531075716018677, 0.09084167331457138, 0.02370576187968254, 0.06275990605354309, 0.0029005869291722775, -0.033419132232666016, -0.01946105621755123, 0.00673545291647315, 0.005303373094648123, -0.01774577796459198, 0.055365774780511856, -0.024533864110708237, 0.010798613540828228, 0.059238698333501816, 0.08404971659183502, 0.01550328079611063, 0.01583286188542843, 0.01130885910242796, 0.0013941047945991158, -0.047112587839365005, -0.007035864982753992, 0.03264923766255379, -0.020212246105074883, 0.06445114314556122, 0.017817901447415352, 0.022512923926115036, -0.015083177015185356, -0.0876089483499527, -0.048972051590681076, 0.0382809042930603, -0.01891232654452324, -0.03138318657875061, -0.05862149968743324, 0.0151097746565938, -0.039803020656108856, 0.030169809237122536, 0.036789670586586, 0.0596318244934082, 0.08318344503641129, -0.055130839347839355, 0.03756430000066757, 0.06377608329057693, -0.08961977809667587, 0.018211908638477325, -0.017361899837851524, 0.11481953412294388, -0.00026009834255091846, -0.07145342230796814, -0.04565294459462166, -0.002665270585566759, 0.053081635385751724, -0.011703199706971645, 0.10102496296167374, 0.005959935020655394, -0.03371785581111908, -0.021381249651312828, 0.040741175413131714, -0.024878233671188354, -0.008143128827214241, 0.09660196304321289, -0.02532736025750637, -0.022868631407618523, 0.02127663791179657, -0.03338465467095375, -0.06362312287092209, -0.027168631553649902, -0.047382377088069916, 0.004742953926324844, 0.011505762115120888, -0.0802655890583992, 0.1467358022928238, -0.004424077458679676, -0.02870301716029644, -0.12145093828439713, 0.014600295573472977, 0.04027580842375755, 0.02225625328719616, -0.009567243047058582, 0.0014184672618284822, 0.09599854052066803, 0.02493257261812687, 0.025225404649972916, 0.12480755895376205, 0.030050009489059448, -0.016553353518247604, -0.0742020457983017, -0.03697759285569191], "w1": [[-0.024354932829737663, 0.1368168145418167, 0.11244391649961472, 0.11608514934778214, 0.06682569533586502, -0.10859464108943939, 0.12009814381599426, 0.14445067942142487, -0.15779487788677216, -0.003738124156370759, -0.1340649276971817, -0.04115746170282364, 0.08007398992776871, 0.08833552896976471, 0.056572265923023224, 0.012065095826983452, -0.1378946602344513, -0.19689317047595978, -0.21948708593845367, -0.22192683815956116, 0.028444534167647362, 0.20916180312633514, 0.014983664266765118, -0.20346252620220184, -0.10079723596572876, -0.06312385201454163, -0.06600990146398544, -0.16454681754112244, 0.039920516312122345, -0.1408369541168213, -0.0788772776722908, 0.08430903404951096, -0.1479514092206955, -0.1028471365571022, 0.08725421875715256, 0.017393004149198532, 0.19962194561958313, 0.20580613613128662, 0.09049368649721146, 0.0929984301328659, 0.23951806128025055, 0.14526407420635223, -0.19125866889953613, 0.2264348268508911, -0.017131993547081947, -0.22527863085269928, 0.155763640999794, 0.026934966444969177, 0.286683589220047, 0.13464109599590302, -0.17689071595668793, -0.00045140396105125546, -0.17906460165977478, -0.226949542760849, 0.09033458679914474, -0.09019190818071365, 0.19602085649967194, -0.22916482388973236, 0.20011037588119507, -0.021797366440296173, -0.040127530694007874, 0.10519566386938095, 0.11485496163368225, 0.06935467571020126, -0.15445874631404877, 0.051926322281360626, 0.10166064649820328, -0.14371469616889954, 0.0003470555238891393, 0.2309439331293106, 0.15018227696418762, -0.10198318958282471, -0.1319330781698227, -0.12439529597759247, 0.24496124684810638, 0.17283041775226593, 0.09024203568696976, 0.20234525203704834, -0.1759229451417923, 0.008235437795519829, -0.0814574658870697, -0.19509415328502655, -0.14285114407539368, -0.02753547392785549, 0.17184709012508392, 0.24944977462291718, -0.09893263131380081, -0.27250587940216064, 0.2254205197095871, 0.14960525929927826, 0.08521433174610138, 0.005580375902354717, 0.1938946694135666, -0.18270382285118103, -0.006194615736603737, 0.01609179750084877, -0.11175502836704254, -0.04577561467885971, -0.16283701360225677, 0.27214762568473816, -0.10049521178007126, 0.1890619844198227, 0.25961416959762573, 0.20754551887512207, 0.04223334789276123, -0.18652395904064178, -0.07749433815479279, -0.2313377857208252, 0.24939674139022827, 0.08009939640760422, 0.04365299269556999, -0.10951583087444305, -0.13747629523277283, 0.29069972038269043, -0.10507515072822571], [-3.3049356716219336e-05, 0.15127357840538025, -0.06299619376659393, 0.22011062502861023, -0.21585428714752197, 0.20662644505500793, -0.05934734269976616, 0.12980513274669647, -0.2038140892982483, -0.04605131968855858, 0.06994903832674026, 0.025073334574699402, -0.13521870970726013, 0.24549244344234467, 0.03769261762499809, 0.22046642005443573, 0.1203627660870552, -0.07220490276813507, 0.1778256595134735, 0.03494841977953911, -0.10697828978300095, 0.04297598823904991, -0.11067025363445282, 0.017138224095106125, 0.1133924052119255, -0.03230619803071022, -0.22671613097190857, -0.03677565976977348, 0.12470537424087524, 0.1985151618719101, -0.18315710127353668, 0.13948512077331543, 0.22318501770496368, -0.09438545256853104, -0.11531919240951538, 0.06953050941228867, 0.15900255739688873, -0.1315920650959015, -0.012562229298055172, 0.032352082431316376, -0.2877480983734131, 0.14846599102020264, 0.21398688852787018, -0.2263726145029068, -0.09012421220541, -0.05110351741313934, 0.009889497421681881, 0.05983738228678703, -0.20379236340522766, 0.06293709576129913, 0.00822819210588932, -0.042341362684965134, 0.10791347175836563, -0.017251024022698402, -0.21614517271518707, -0.10699784010648727, -0.09706220030784607, 0.025958852842450142, 0.15229737758636475, -0.12297266721725464, -0.007361279334872961, 0.05772498622536659, -0.2666246294975281, 0.0003627862024586648, -0.051911354064941406, 0.20612499117851257, 0.015012414194643497, -0.13035641610622406, 0.2439473569393158, -0.23090589046478271, -0.3484651744365692, 0.017619706690311432, 0.12424853444099426, 0.2851322591304779, 0.01859932392835617, -0.23614662885665894, 0.03566104546189308, 0.048680249601602554, -0.12876935303211212, 0.04184018447995186, 0.010136401280760765, -0.23697863519191742, 0.04476073384284973, -0.17934906482696533, 0.21134035289287567, -0.25494304299354553, -0.011074076406657696, 0.0891304537653923, 0.04564068838953972, -0.005309630185365677, 0.1930776983499527, -0.02960779517889023, 0.004688714165240526, -0.22165915369987488, -0.07058349996805191, -0.2520797848701477, -0.03677519038319588, -0.04238224774599075, 0.1903308928012848, -0.06578390300273895, -0.18296277523040771, -0.09152756631374359, -0.022937912493944168, 0.20831505954265594, 0.07625816762447357, -0.09110012650489807, -0.13689851760864258, 0.06555034220218658, 0.11332125216722488, -0.0315045565366745, 0.08833524584770203, 0.1018463522195816, -0.007668427191674709, -0.18160083889961243, -0.04436353221535683], [0.1318591982126236, 0.16430266201496124, -0.19625699520111084, 0.17937248945236206, -0.2301161289215088, -0.09346254914999008, -0.2013477385044098, -0.10774475336074829, -0.21159562468528748, 0.0019744583405554295, 0.19022780656814575, 0.16493608057498932, -0.11074822396039963, 0.1822923719882965, -0.22275196015834808, 0.19843487441539764, 0.01937943510711193, 0.02848035655915737, -0.11009671539068222, 0.11385669559240341, 0.1839146465063095, -0.16810111701488495, -0.08888942003250122, 0.17432190477848053, -0.21655035018920898, 0.07312236726284027, 0.14348584413528442, -0.023814981803297997, 0.010889830067753792, 0.1751987785100937, 0.19184288382530212, 0.16630645096302032, 0.09904970228672028, 0.09175631403923035, 0.06778588145971298, 0.08287122845649719, -0.18810485303401947, 0.11106189340353012, 0.05251545086503029, 0.05736588314175606, -0.052416056394577026, 0.266947478055954, 0.11271103471517563, 0.1719469577074051, 0.08840472996234894, -0.19037628173828125, -0.267051100730896, -0.200670525431633, -0.18521296977996826, -0.17433583736419678, -0.048006150871515274, 0.15958677232265472, 0.1956251561641693, 0.2308967560529709, -0.05794409289956093, -0.2323911190032959, -0.1645824909210205, -0.18880219757556915, -0.31647005677223206, -0.029750937595963478, -0.14148515462875366, 0.04629727825522423, -0.003671107580885291, 0.07041451334953308, 0.059225115925073624, 0.2576998174190521, 0.2064313292503357, -0.15845270454883575, 0.051419567316770554, 0.08287626504898071, -0.312295138835907, -0.12664057314395905, -0.11044149845838547, -0.058962177485227585, 0.027386073023080826, -0.019978724420070648, -0.22655759751796722, 0.004986923653632402, 0.10751865804195404, 0.04193055257201195, 0.16853253543376923, 0.17747341096401215, -0.10412070900201797, -0.23599642515182495, 0.23845887184143066, -0.20533931255340576, -0.2604483962059021, 0.09570717066526413, -0.1781194806098938, -0.05750660598278046, 0.10985920578241348, -0.056852810084819794, -0.0692279115319252, -0.11890093237161636, -0.22865132987499237, -0.15616019070148468, -0.09327960759401321, -0.08627699315547943, 0.1487143486738205, 0.014802535064518452, 0.07452651113271713, -0.16320565342903137, -0.10037293285131454, -0.027399512007832527, 0.027475962415337563, -0.09893614053726196, -0.09020031243562698, 0.13404881954193115, 0.018461504951119423, 0.09951351583003998, 0.1750594526529312, 0.014776214025914669, 0.04489560052752495, -0.1768648624420166, -0.17647595703601837], [-0.12406616657972336, -0.16192930936813354, 0.1496838480234146, -0.10575997084379196, -0.16974246501922607, 0.12962545454502106, 0.19300805032253265, -0.20027393102645874, -0.2550404667854309, 0.06532319635152817, -0.16869276762008667, 0.24846157431602478, 0.12936124205589294, 0.058165259659290314, -0.026339134201407433, 0.08149990439414978, 0.0063072447665035725, 0.18219606578350067, -0.121561698615551, 0.07496682554483414, 0.22833772003650665, 0.02377745509147644, -0.0573463961482048, 0.1382777988910675, -0.270893394947052, 0.058972641825675964, -0.04490823298692703, 0.1097739040851593, 0.28228649497032166, 0.05724706873297691, -0.11172398179769516, 0.0925859585404396, -0.08250896632671356, -0.1370960772037506, -0.16834627091884613, 0.1404961794614792, 0.14256273210048676, 0.01442749984562397, 0.10912393778562546, -0.17507001757621765, -0.10019989311695099, 0.20170579850673676, 0.26613858342170715, -0.16981680691242218, 0.15980786085128784, 0.14168666303157806, -0.12454764544963837, -0.25744760036468506, 0.0017679020529612899, 0.1763531118631363, 0.17348571121692657, 0.29982516169548035, -0.18476009368896484, -0.03153565153479576, -0.04908312112092972, -0.12359143793582916, 0.13852961361408234, 0.1079457700252533, -0.17730815708637238, -0.05206713825464249, -0.18136580288410187, -0.02406158857047558, -0.1813218891620636, 0.2600611746311188, 0.23125414550304413, -0.1273898482322693, 0.15492132306098938, 0.1447536051273346, -0.1154198870062828, -0.1837695986032486, 0.0774444118142128, -0.22244784235954285, -0.17238454520702362, -0.004882216453552246, -0.037681229412555695, 0.03320213407278061, -0.06395290046930313, 0.08353102952241898, 0.05947922542691231, 0.0885651633143425, -0.012661010958254337, 0.1486494094133377, -0.21004989743232727, -0.22254271805286407, 0.11496973782777786, -0.08563373982906342, 0.06767816096544266, 0.16876326501369476, -0.26692673563957214, -0.12315410375595093, -0.1047724261879921, -0.02067764289677143, -0.13714367151260376, 0.08771917968988419, -0.20759963989257812, -0.22060900926589966, -0.04236764460802078, -0.03400213643908501, 0.11025912314653397, 0.08515796065330505, -0.18306873738765717, 0.026404857635498047, 0.09613160043954849, 0.204687237739563, 0.06133837252855301, -0.11667636036872864, 0.15492428839206696, 0.06143767014145851, -0.13510017096996307, 0.21424850821495056, 0.24173380434513092, 0.1874212771654129, -0.004056144505739212, -0.1146855503320694, 0.015752466395497322], [0.149411141872406, -0.21473795175552368, -0.16898594796657562, -0.05289893224835396, -0.13429029285907745, 0.07690959423780441, -0.12016811221837997, -0.16191847622394562, -0.027280302718281746, -0.10985568165779114, 0.09487088024616241, -0.08850643783807755, 0.0367516465485096, 0.015267940238118172, 0.06145673617720604, 0.009303612634539604, -0.24555200338363647, -0.15988928079605103, -0.22309710085391998, -0.21013973653316498, -0.06851215660572052, 0.1040588915348053, -0.017410852015018463, -0.15703727304935455, -0.03205437958240509, 0.07255248725414276, -0.19559521973133087, 0.15691545605659485, 0.16852161288261414, 0.03888486698269844, -0.06033509969711304, -0.1510487049818039, 0.07149533182382584, 0.11420974135398865, 0.17270323634147644, 0.05415498837828636, 0.2220827341079712, 0.15126614272594452, 0.20165924727916718, 0.07531215995550156, 0.12317575514316559, -0.2158167064189911, -0.12355900555849075, 0.10420076549053192, -0.13002683222293854, -0.04709978029131889, 0.013453011400997639, -0.13860371708869934, -0.1331011801958084, -0.026605429127812386, 0.07328475266695023, 0.11076262593269348, -0.03841111809015274, -0.006818072870373726, 0.15360160171985626, -0.06118150055408478, 0.10902955383062363, 0.11592075228691101, -0.10281740128993988,