{"ft": {"w0": [[0.23166410624980927, -0.1225384995341301, 0.2084687203168869, -0.6531803607940674, -0.05879727751016617, 0.040896181017160416, 0.06009475141763687], [0.1983748972415924, 0.6105959415435791, 0.2934873104095459, 0.09808065742254257, -0.31393948197364807, 0.5138504505157471, 0.5220428705215454], [-0.3737810254096985, -0.3858639895915985, -0.16413962841033936, 0.4458951950073242, 0.3557334840297699, 0.3840950131416321, 0.5787208676338196], [-0.41995885968208313, -0.20794950425624847, 0.24426943063735962, 0.1686679869890213, -0.184097021818161, -0.09534528851509094, 0.4085085093975067], [-0.5341467261314392, -0.06937171518802643, 0.27277716994285583, -0.08694851398468018, -0.22572515904903412, -0.5680069327354431, -0.39592108130455017], [0.04604077339172363, -0.33580005168914795, -0.5510649085044861, -0.42961645126342773, 0.19080261886119843, -0.016762055456638336, 0.00648242374882102]], "b0": [-0.03413281962275505, -0.4913978576660156, 0.009042873047292233, 0.03166563808917999, -0.0456518717110157, -0.5960046052932739], "w1": [[-0.27493155002593994, -0.3866223692893982, -0.02315017394721508, -0.22347299754619598, 0.06529498100280762, -0.16997680068016052, 0.15215928852558136, 0.20016400516033173, -0.37429213523864746, -0.13489705324172974, -0.2612718641757965, -0.00675591267645359], [0.5575875043869019, 0.20918388664722443, 0.2144210785627365, -0.2694755792617798, -0.2969503700733185, -0.4548783004283905, 0.0319586805999279, 0.2664828896522522, -0.05937008187174797, -0.20681092143058777, -0.2753830850124359, 0.014489474706351757], [-0.39217498898506165, 0.16919736564159393, -0.08774333447217941, 0.39965519309043884, 0.15559972822666168, -0.1386183500289917, -0.35779663920402527, -0.3305806517601013, 0.17214719951152802, -0.027233632281422615, 0.06130296364426613, -0.564085066318512], [0.3349936008453369, -0.12195930629968643, -0.4687396287918091, -0.46765851974487305, -0.0483386255800724, -0.4573429226875305, 0.021295297890901566, -0.280237078666687, -0.0052380808629095554, 0.4317435622215271, 0.04378088191151619, -0.3792803883552551], [-0.2820259928703308, -0.460038423538208, -0.18013162910938263, 0.48829177021980286, -0.23793159425258636, -0.1810121089220047, 0.40211403369903564, 0.1898418664932251, -0.4128120541572571, 0.5037656426429749, -0.5910047292709351, -0.5727968811988831], [0.3784806430339813, -0.24920451641082764, -0.11358701437711716, 0.023580679669976234, 0.39025306701660156, 0.0847911387681961, -0.2865012288093567, 0.051127947866916656, -0.008919739164412022, 0.36994194984436035, -0.24328716099262238, -0.03441578894853592]], "b1": [-0.43600034713745117, -0.01300947368144989, 0.009845010004937649, -0.5254298448562622, -0.37063705921173096, 0.02347150817513466]}, "it": {"w0": [[-0.46847936511039734, 0.5816569328308105, -0.45372068881988525, 0.5291759371757507, 0.5580152869224548, -0.14982308447360992, 0.3681983947753906], [0.9393775463104248, -0.18868796527385712, -0.6854966878890991, -0.22404812276363373, -0.6756016612052917, 0.648776113986969, 0.6765521168708801], [-0.05399502068758011, 0.5847424268722534, 0.5287235379219055, 0.6998953223228455, 0.04466763883829117, 0.6145146489143372, -0.417216420173645], [0.8736841678619385, -0.5789883136749268, 0.361419677734375, -0.24003730714321136, 0.12508298456668854, 0.37518659234046936, 0.3226805329322815], [0.6901771426200867, 0.20840848982334137, -0.5864403247833252, -0.4924428164958954, -0.6626632809638977, -0.3077942430973053, 0.6734946370124817], [0.6480448246002197, 0.27223238348960876, -0.487174928188324, 0.5005707144737244, 0.22655048966407776, 0.17523692548274994, 0.10404103994369507]], "b0": [-0.05671467259526253, 0.36965814232826233, 0.33088526129722595, 0.3026207387447357, 0.03327083960175514, 0.633794903755188], "w1": [[0.23314884305000305, -0.4241507351398468, -0.001813930575735867, -0.2762768864631653, 0.40706315636634827, -0.23584072291851044, -0.33697742223739624, -0.04345215484499931, -0.4207717478275299, 0.24610170722007751, -0.7521985173225403, -0.519795298576355], [0.12465456873178482, 0.5166637897491455, -0.39142274856567383, 0.39330151677131653, 0.08457085490226746, -0.36812126636505127, -0.32920220494270325, 0.19277769327163696, -0.26836097240448, -0.5389477014541626, -0.18908186256885529, -0.41237562894821167], [0.21706271171569824, -0.5154138803482056, -0.07160060107707977, -0.25229164958000183, 0.38795197010040283, 0.02571956440806389, 0.5732478499412537, -0.06177251413464546, 0.14905381202697754, 0.47134479880332947, 0.33489519357681274, -0.08172062784433365], [0.19744955003261566, -0.2889132797718048, 0.3898923993110657, -0.29646533727645874, -0.5776455402374268, -0.0778641626238823, -0.27410510182380676, 0.04124666750431061, 0.19115744531154633, -0.5799436569213867, 0.048693783581256866, 0.44676339626312256], [-0.4951798915863037, 0.19024886190891266, 0.08040832728147507, -0.32185694575309753, -0.2658272683620453, 0.2513975203037262, 0.3487364649772644, 0.017016014084219933, 0.27329689264297485, 0.04211168736219406, 0.32561028003692627, 0.17139993607997894], [0.5395681262016296, 0.323223352432251, 0.08851247280836105, 0.261218786239624, -0.5496533513069153, 0.3769782483577728, 0.23490676283836365, -0.1391337662935257, -0.26977667212486267, -0.5864817500114441, 0.02196548320353031, -0.2956625521183014]], "b1": [0.2535328269004822, 0.005033248569816351, 0.0618867464363575, 0.16199038922786713, 0.2653036117553711, 0.07190277427434921]}, "Ctild_t": {"w0": [[-0.1699652224779129, -0.6211597919464111, 0.1723887175321579, -0.3869818150997162, -0.019077809527516365, 0.38500696420669556, -0.3024997115135193], [-1.4583978652954102, 0.15733486413955688, 0.05760302394628525, -0.4407210946083069, -0.670897364616394, -0.08687864243984222, 0.8470314145088196], [-1.2047680616378784, 0.1831641048192978, -0.2919832468032837, -0.48316362500190735, -0.20483753085136414, 0.4550529718399048, -0.010819977149367332], [-1.1835932731628418, 0.1400652825832367, -0.10582702606916428, 0.550865113735199, 0.4555398225784302, 0.02003142237663269, -0.1071440652012825], [-0.489520400762558, 0.05424132198095322, 0.0721481516957283, -0.32795432209968567, 0.401730477809906, -0.21618302166461945, 0.6282948851585388], [1.6148416996002197, 0.17761103808879852, 0.9778536558151245, 0.6326548457145691, 0.6749215722084045, 0.22659850120544434, -0.14049457013607025]], "b0": [0.11829105764627457, 1.0245184898376465, 0.8067433834075928, 0.7554860711097717, 0.4755246937274933, -1.1383256912231445], "w1": [[0.09149234741926193, 0.5358249545097351, 0.5696964859962463, 0.7218694686889648, -0.039695531129837036, -1.1026670932769775, 0.00577819487079978, -0.25506216287612915, 0.10511848330497742, 0.28251099586486816, -0.6405063271522522, 0.022210175171494484], [-0.3170876204967499, 0.2483065277338028, -0.3421882092952728, 0.2190217524766922, 0.1327577382326126, 0.7093685865402222, -0.2362145483493805, 0.043876875191926956, 0.4097079634666443, -0.5409310460090637, -0.4991488456726074, -0.2504841089248657], [-0.4515773355960846, 0.6083312630653381, 0.2934722304344177, -0.11108462512493134, -0.2986370027065277, -0.43698301911354065, -0.480216920375824, 0.3608112335205078, -0.23097901046276093, -0.31300604343414307, 0.1288650631904602, 0.4597765803337097], [0.4366031289100647, 0.7802023887634277, 0.40467557311058044, 0.6041712164878845, 0.08236206322908401, -0.9188051819801331, -0.008960053324699402, 0.16822399199008942, 0.04252314195036888, -0.061683472245931625, -0.08810846507549286, -0.31376758217811584], [-0.2857216000556946, 1.0259443521499634, 0.42943862080574036, -0.1545974463224411, 0.6904730200767517, -0.9121264219284058, -0.028565211221575737, -0.0669717863202095, -0.2793711721897125, -0.1183697059750557, -0.1212095245718956, 0.05066104233264923], [0.307039350271225, 0.40289270877838135, 0.39953213930130005, 0.3652615249156952, 0.5261107683181763, -0.08738058060407639, -0.2691185176372528, 0.33555206656455994, 0.30902791023254395, -0.2775322198867798, 0.1784801334142685, 0.5842071175575256]], "b1": [-0.20318344235420227, -0.04828399419784546, -0.20247817039489746, -0.11097534745931625, -0.15279443562030792, 0.3485574722290039]}, "ot": {"w0": [[-0.5697917342185974, 0.18275192379951477, 0.3467116355895996, 0.141928032040596, 0.03976389393210411, 0.47098803520202637, -0.2766067087650299], [0.4799262285232544, 0.2029159963130951, -0.48934662342071533, 0.6983453631401062, -0.018530001863837242, -0.07956251502037048, 0.49771013855934143], [-0.43881386518478394, -0.6633111238479614, -0.4789304733276367, -0.44772613048553467, 0.34582310914993286, 0.7335258722305298, -0.4689806401729584], [-0.16209614276885986, -0.2590641677379608, -0.5198287963867188, 0.3666146993637085, -0.194172665476799, 0.29055628180503845, -0.11244159936904907], [0.47265002131462097, -0.09905461966991425, -0.24075965583324432, 0.6318848729133606, 0.41698890924453735, 0.12779419124126434, -0.22551317512989044], [1.0098053216934204, -0.11919508874416351, 0.10004872828722, -0.45570826530456543, 0.13145986199378967, 0.04811730235815048, 0.3455294370651245]], "b0": [-0.06686507165431976, 0.5994382500648499, 0.4062453806400299, 0.4887348413467407, 0.06439296156167984, 0.6130757331848145], "w1": [[-0.1871219277381897, -0.45196497440338135, -0.20525042712688446, -0.5596820116043091, -0.4032546877861023, 0.1419842392206192, 0.1183900386095047, -0.1296733319759369, 0.5888152718544006, 0.24543644487857819, -0.01350228302180767, -0.6034528613090515], [0.12962818145751953, -0.2539651095867157, -0.12329989671707153, -0.5669602155685425, -0.5657991766929626, 0.2392006814479828, -0.27191197872161865, -0.05943335220217705, -0.34819307923316956, -0.42519932985305786, 0.31174781918525696, 0.45229533314704895], [0.5167933702468872, -0.24680779874324799, -0.511630117893219, 0.025882650166749954, 0.08537313342094421, 0.49300333857536316, -0.3760499358177185, -0.5256093144416809, 0.11957933008670807, 0.15518803894519806, -0.3689442574977875, -0.2089577466249466], [0.23212142288684845, 0.167287677526474, -0.14745445549488068, -0.4940526485443115, -0.5799741744995117, 0.4154190123081207, 0.3086993098258972, -0.4988837242126465, 0.2775924503803253, 0.4174589216709137, -0.24532389640808105, 0.12576663494110107], [0.17576970160007477, -0.16069205105304718, -0.5864323377609253, 0.24197013676166534, -0.5918954014778137, 0.35507234930992126, 0.2847757935523987, -0.1902889907360077, -0.419028639793396, 0.3663618564605713, 0.3083508312702179, -0.43974822759628296], [0.2635604739189148, 0.07000921666622162, 0.3115643560886383, 0.043218944221735, -0.2989034354686737, -0.5729658007621765, -0.10520124435424805, -0.2712865173816681, -0.2277674525976181, -0.18874391913414001, -0.21076683700084686, -0.507003903388977]], "b1": [0.21473512053489685, -0.009204469621181488, 0.062182266265153885, 0.21313053369522095, 0.29748716950416565, 0.06877507269382477]}, "mlp": {"w0": [[0.20719501376152039, -0.030906768515706062, 0.24996383488178253, 0.44659528136253357, 0.12307325005531311, 0.148324653506279], [0.012476246803998947, -0.2256198674440384, 0.155804842710495, -0.10287076234817505, 0.02668111026287079, -0.04132111743092537], [0.06394577026367188, -0.14682580530643463, 0.19676882028579712, -0.16338078677654266, 0.1972457766532898, 0.10861096531152725], [-0.03361817076802254, -0.1642865538597107, 0.004437719006091356, -0.21977727115154266, -0.09230635315179825, 0.06829800456762314], [0.0887661799788475, -0.2376093864440918, 0.07844753563404083, -0.06995677202939987, 0.08447927236557007, 0.17720559239387512], [0.47243204712867737, 0.006432002410292625, 0.4185805320739746, 0.5685576796531677, 0.3018466532230377, 0.6098265647888184], [-0.09132366627454758, -0.2251405566930771, 0.16414612531661987, 0.11339214444160461, -0.06531671434640884, 0.11849376559257507], [0.0539257749915123, -0.13001802563667297, 0.21606770157814026, 0.042128030210733414, -0.12333948165178299, -0.07547938823699951], [-0.16933205723762512, 0.12386590987443924, -0.16864804923534393, -0.08924760669469833, 0.0231923907995224, 0.06831072270870209], [-0.11295094341039658, -0.21736013889312744, -0.21821102499961853, 0.2188062220811844, -0.09381236135959625, 0.02251617982983589], [-0.0221678726375103, 0.11314290016889572, 0.08778991550207138, -0.002072495874017477, 0.048469386994838715, 0.15767040848731995], [-0.40431055426597595, -0.08243395388126373, 0.01813768967986107, -0.5426816940307617, -0.32452449202537537, -0.17315471172332764], [0.13797615468502045, -0.22913163900375366, 0.23213475942611694, 0.18774385750293732, -0.058343254029750824, -0.06249905750155449], [-0.18329422175884247, -0.06258092075586319, 0.2139611542224884, 0.10751325637102127, -0.10701548308134079, 0.09755741059780121], [-0.08471724390983582, -0.07019507139921188, 0.023807737976312637, -0.19923077523708344, -0.235018789768219, -0.15049557387828827], [-0.14660505950450897, -0.17751719057559967, 0.13530467450618744, -0.1990443617105484, -0.1555582582950592, -0.14927570521831512], [-0.06069799140095711, 0.1222587376832962, 0.09842939674854279, -0.017265185713768005, -0.16581620275974274, -0.12075912207365036], [-0.05545134097337723, -0.08577881008386612, 0.23179395496845245, 0.0984361544251442, 0.1858234703540802, 0.07838413119316101], [0.22673854231834412, -0.07228932529687881, -0.19003918766975403, -0.07345405220985413, 0.032046884298324585, -0.2246733009815216], [-0.18250207602977753, 0.07041790336370468, -0.16569821536540985, 0.0030477421823889017, -0.1702483594417572, -0.10221045464277267], [0.6585537195205688, -0.027229417115449905, 0.1803543120622635, 0.2547001540660858, 0.2651139795780182, 0.07822494953870773], [0.2658041715621948, 0.020503591746091843, 0.20131509006023407, 0.5375313758850098, 0.6824815273284912, 0.37501466274261475], [0.13459399342536926, -0.004908428061753511, 0.1781255453824997, -0.16692394018173218, 0.10746225714683533, 0.13811400532722473], [0.21396386623382568, -0.07382889837026596, 0.08375997841358185, -0.011292878538370132, 0.23349358141422272, 0.07663899660110474], [-0.030292769894003868, 0.035357922315597534, 0.19204674661159515, -0.14912429451942444, -0.11837947368621826, 0.1063644215464592], [-0.1789705455303192, -0.09765307605266571, -0.0431036613881588, -0.08651996403932571, 0.22854575514793396, -0.0038437088951468468], [-0.15453805029392242, -0.1559881567955017, 0.11976949125528336, -0.019832100719213486, -0.14978742599487305, -0.1447811722755432], [0.3493492305278778, 0.13791991770267487, -0.05259052291512489, 0.21952520310878754, 0.08002015948295593, -0.10566656291484833], [0.0036608322989195585, -0.11285829544067383, 0.0670701265335083, 0.17293862998485565, -0.08761455118656158, -0.0680389255285263], [0.15469901263713837, 0.12480462342500687, 0.0789479985833168, -0.19041240215301514, 0.21401551365852356, -0.1633612960577011], [-0.011152785271406174, 0.25879988074302673, 0.2207181602716446, -0.024871040135622025, -0.05294181406497955, -0.03079204633831978], [-0.07671413570642471, 0.1772019863128662, 0.11029685288667679, -0.08129574358463287, 0.1775236427783966, 0.22811447083950043], [-0.005977647379040718, -0.08873947709798813, -0.15593096613883972, -0.18557967245578766, -0.17258326709270477, -0.07858636230230331], [0.08160733431577682, -0.08600804209709167, -0.18417449295520782, 0.006570168770849705, 0.16431009769439697, -0.16687659919261932], [0.056335534900426865, 0.18131868541240692, 0.05914526805281639, 0.12573692202568054, 0.203669935464859, 0.026383545249700546], [-0.18617939949035645, -0.17819473147392273, 0.019803859293460846, 0.1543484628200531, 0.020042501389980316, -0.2218933403491974], [-0.15505826473236084, 0.19299286603927612, -0.020261723548173904, 0.1651584953069687, 0.04066527634859085, -0.17088788747787476], [-0.1624104529619217, 0.2047889083623886, 0.08078037202358246, 0.030173610895872116, -0.18981724977493286, -0.1957801729440689], [-0.15910696983337402, -0.1475139707326889, -0.1392819583415985, -0.1782175600528717, -0.22880862653255463, -0.19439564645290375], [-0.05833820998668671, 0.2083495855331421, 0.0006011828081682324, 0.17546378076076508, 0.09044011682271957, -0.15792565047740936], [0.2299872785806656, 0.18795081973075867, -0.043902307748794556, -0.17488396167755127, -0.13827787339687347, 0.010591096244752407], [0.13723328709602356, -0.08040489256381989, -0.14241455495357513, -0.023418400436639786, -0.10293550789356232, 0.0967511460185051], [0.16372783482074738, 0.10386202484369278, 0.0811862125992775, 0.23482626676559448, 0.16805633902549744, -0.18046963214874268], [-0.18262559175491333, -0.1622532159090042, 0.2367916852235794, 0.10950552672147751, 0.18700852990150452, -0.10894268751144409], [-0.15259325504302979, -0.0038396341260522604, -0.16902336478233337, 0.17233242094516754, -0.14194197952747345, -0.18810048699378967], [0.1903509944677353, -0.14268164336681366, -0.03735208511352539, 0.08353658020496368, -0.11096225678920746, 0.17174382507801056], [-0.0059897261671721935, 0.1338590532541275, -0.03607417270541191, 0.20712439715862274, -0.10702698677778244, -0.19185730814933777], [0.08651122450828552, -0.004187788814306259, -0.13656075298786163, -0.08956277370452881, -0.23104052245616913, -0.143149271607399], [0.15407973527908325, 0.061265379190444946, 0.14593102037906647, 0.09913929551839828, 0.25079968571662903, 0.07886102795600891], [0.04580355063080788, -0.16966842114925385, 0.22651658952236176, -0.06575854867696762, 0.20582188665866852, -0.15148873627185822], [0.04056118056178093, -0.02745892107486725, 0.1381080597639084, 0.03551394119858742, -0.2268482893705368, -0.17558766901493073], [-0.05898695066571236, 0.20684728026390076, 0.1608920395374298, -0.16316823661327362, -0.025298485532402992, 0.10843222588300705], [-0.18964819610118866, -0.18021047115325928, -0.21645154058933258, 0.19499385356903076, -0.18103235960006714, 0.15205369889736176], [-0.20198599994182587, 0.38826867938041687, 0.22905579209327698, -0.33081841468811035, -0.34489718079566956, 0.2571604251861572], [0.1994364708662033, -0.13998626172542572, 0.00808723270893097, -0.038810018450021744, 0.032938916236162186, -0.021098824217915535], [-0.029675055295228958, -0.07448995858430862, 0.21082569658756256, -0.15988199412822723, -0.13969796895980835, -0.040698908269405365], [-0.21147793531417847, 0.132959246635437, -0.1543799638748169, 0.0014058123342692852, 0.19124488532543182, -0.12077315151691437], [0.09753954410552979, 0.14957624673843384, -0.00766954617574811, 0.1872994750738144, -0.09738624095916748, 0.10532833635807037], [0.658871054649353, 0.07360410690307617, -0.12490913271903992, 0.46267855167388916, 0.31472325325012207, -0.10775405913591385], [0.2261997014284134, 0.009930967353284359, 0.18951363861560822, 0.016431188210844994, 0.13001079857349396, -0.12098756432533264], [-0.19885265827178955, -0.010661236010491848, 0.05469188094139099, 0.05595342442393303, 0.14047789573669434, 0.05265422537922859], [-0.008028426207602024, 0.006201602518558502, -0.08630362898111343, 0.17935211956501007, -0.13108839094638824, 0.008502190932631493], [-0.10878597944974899, 0.22003716230392456, 0.2725028097629547, -0.03679974749684334, 0.18526317179203033, 0.2317330688238144], [-0.10301614552736282, -0.03249134495854378, 0.16713136434555054, -0.1451483815908432, -0.22485408186912537, -0.07247833907604218], [-0.18149927258491516, 0.09559345245361328, 0.08956895023584366, 0.10141193866729736, 0.02556159347295761, -0.1675243079662323], [-0.06922465562820435, -0.172165185213089, -0.018245315179228783, -0.1446835994720459, -0.037860069423913956, -0.058203939348459244], [0.005150307435542345, 0.1917291134595871, -0.19446603953838348, -0.09492740780115128, 0.23145964741706848, 0.16805914044380188], [-0.023630015552043915, 0.19862671196460724, 0.03538182005286217, -0.05717281252145767, 0.21964643895626068, -0.07711133360862732], [-0.011805910617113113, -0.05117498338222504, 0.15508857369422913, -0.1861690729856491, 0.16201500594615936, 0.1686563938856125], [-0.09374108910560608, -0.17357037961483002, 0.20268182456493378, 0.025801759213209152, -0.16915826499462128, 0.02171792834997177], [0.18853037059307098, -0.18184199929237366, -0.14091286063194275, 0.20654261112213135, 0.010627571493387222, -0.04617895558476448], [0.03863590583205223, -0.11339819431304932, -0.11152879893779755, 0.004588386043906212, -0.10691617429256439, -0.1315419226884842], [-0.1744302213191986, -0.22434382140636444, -0.20162445306777954, 0.08393209427595139, 0.01616787724196911, 0.029678869992494583], [0.07829899340867996, -0.057054802775382996, 0.05792573094367981, 0.08852369338274002, -0.09935338795185089, 0.073532834649086], [0.09718549251556396, -0.22858256101608276, 0.08866086602210999, 0.08150272071361542, -0.048090238124132156, 0.11284677684307098], [-0.12893341481685638, 0.01816004328429699, 0.08115135878324509, -0.0782628059387207, 0.13419990241527557, 0.20613738894462585], [-0.09579895436763763, -0.06103016808629036, -0.07095949351787567, -0.03572801873087883, 0.028788603842258453, -0.15614256262779236], [0.0806121677160263, -0.07839994132518768, 0.05144994333386421, -0.1148281991481781, 0.14633497595787048, -0.1406671404838562], [-0.15268883109092712, 0.03909067064523697, -0.0893322005867958, 0.03837517276406288, -0.048967547714710236, 0.23738671839237213], [-0.13532698154449463, -0.05054531618952751, 0.09141388535499573, 0.0556165874004364, -0.046139538288116455, 0.18834660947322845], [-0.17994162440299988, 0.15870803594589233, -0.1475163698196411, 0.11254966259002686, -0.017419910058379173, -0.0683586448431015], [-0.059670791029930115, -0.15334704518318176, 0.08021971583366394, -0.05528955161571503, -0.12484098970890045, -0.10795003920793533], [-0.025245508179068565, 0.11534934490919113, -0.20753824710845947, 0.08498487621545792, 0.10324788093566895, -0.21131914854049683], [0.08949806541204453, 0.04234067723155022, -0.09255166351795197, 0.044359222054481506, 0.11550487577915192, 0.16979317367076874], [-0.061630673706531525, 0.07709644734859467, 0.19171242415905, -0.05181339383125305, -0.10705658048391342, 0.1141858622431755], [-0.16697388887405396, 0.12634290754795074, 0.08767551183700562, -0.16690722107887268, -0.008144949562847614, 0.09248903393745422], [0.02434263378381729, -0.1888020634651184, -0.17407181859016418, 0.10743207484483719, -0.2038450688123703, -0.21457387506961823], [0.2122143656015396, 0.194753959774971, 0.1654519885778427, -0.1494366079568863, 0.1685829758644104, 0.11905727535486221], [-0.15327128767967224, 0.0026624694000929594, -0.04709074646234512, 0.22103539109230042, 0.1286373883485794, -0.17873279750347137], [0.04297247529029846, 0.11754748970270157, -0.007218680810183287, -0.08582011610269547, 0.07988616824150085, -0.03059161826968193], [0.026179995387792587, -0.030183592811226845, 0.07945031672716141, -0.03603029623627663, -0.030616911128163338, -0.14849261939525604], [0.3180023431777954, 0.11677388101816177, -0.22664308547973633, 0.09267361462116241, 0.07994696497917175, -0.013433950021862984], [-0.10350654274225235, -0.035949066281318665, 0.13639014959335327, 0.06302886456251144, 0.06983757019042969, 0.11980412155389786], [-0.03866104036569595, 0.14763009548187256, 0.1947847157716751, 0.1736825704574585, 0.16499516367912292, -0.21181656420230865], [-0.16265791654586792, -0.11100037395954132, 0.18244993686676025, -0.01686256192624569, -0.1923874169588089, 0.06345406174659729], [-0.09775476157665253, -0.03153693303465843, 0.20420046150684357, -0.06105112284421921, 0.01718193292617798, 0.23213809728622437], [0.06021746248006821, -0.15725430846214294, 0.12532268464565277, 0.12152155488729477, 0.16166560351848602, -0.05865900591015816], [-0.09056992083787918, -0.09206206351518631, 0.21045643091201782, 0.000411598855862394, 0.165683314204216, 0.027719058096408844], [-0.17742516100406647, 0.1116199716925621, -0.20932485163211823, -0.11271319538354874, 0.035874925553798676, -0.044543780386447906], [-0.1732776015996933, -0.13110102713108063, 0.14223968982696533, 0.16147221624851227, -0.012114789336919785, -0.034956250339746475], [-0.18275927007198334, -0.13989487290382385, -0.01794879324734211, 0.029580943286418915, -0.2198847532272339, 0.02132478728890419], [0.11476295441389084, -0.11733110249042511, -0.11517035961151123, 0.1733826994895935, 0.1471656858921051, -0.1750079095363617], [0.19093240797519684, 0.15224766731262207, -0.0939520075917244, 0.09856867045164108, 0.11076042056083679, -0.031658243387937546]], "b0": [0.05633341148495674, -0.14366887509822845, -0.13543981313705444, -0.264801561832428, -0.36517199873924255, 0.1437937319278717, -0.014172389172017574, -0.22345836460590363, -0.6162250638008118, -0.21158744394779205, -0.168839693069458, 0.05028034746646881, -0.10517638921737671, -0.5464277267456055, -0.1272464394569397, -0.0947125256061554, -0.28279924392700195, -0.06576080620288849, -0.10609205812215805, -0.3785783052444458, 0.06627708673477173, 0.20503848791122437, -0.2951850891113281, -0.6839215755462646, -0.14818859100341797, -0.0995434895157814, -0.09022927284240723, 0.0040986742824316025, -0.5150161385536194, -0.1312461495399475, -0.09203944355249405, -0.20935238897800446, -0.5357521772384644, -0.017173392698168755, -0.16810160875320435, -0.05821356549859047, -0.5756394267082214, -0.10371286422014236, -0.07607834041118622, -0.14289085566997528, -0.19998732209205627, -0.10115639865398407, -0.29647281765937805, -0.40047088265419006, -0.049565453082323074, -0.6074156165122986, -0.35410550236701965, -0.27526918053627014, -0.5920888185501099, -0.4463530480861664, -0.09837449342012405, -0.07021850347518921, -0.06621544808149338, -0.10708773881196976, -0.21495811641216278, -0.44050681591033936, -0.08611232042312622, -0.19623015820980072, 0.022121328860521317, -0.23668470978736877, -0.04633747413754463, -0.3351541757583618, -0.03974507749080658, -0.10686624050140381, -0.3033004701137543, -0.1302865445613861, -0.3039403557777405, -0.24143145978450775, -0.3061370253562927, -0.36885330080986023, -0.41690513491630554, -0.19505617022514343, -0.16224722564220428, -0.27773624658584595, -0.5982241034507751, -0.049857597798109055, -0.2905358374118805, -0.3923098146915436, -0.10737426578998566, -0.045273587107658386, -0.08767911046743393, -0.501274824142456, -0.25998860597610474, -0.15758484601974487, -0.2912278473377228, -0.3696867525577545, -0.0968322902917862, -0.34973442554473877, -0.5829508900642395, -0.2529945969581604, -0.024387916550040245, -0.028732948005199432, -0.215363010764122, -0.3328615427017212, -0.1083722785115242, -0.6472867727279663, -0.11675713211297989, -0.12946981191635132, -0.11204451322555542, -0.23100577294826508, -0.060374852269887924, -0.07144857943058014, -0.412007600069046], "w1": [[-0.26007914543151855, -0.102711021900177, 0.020517123863101006, -0.04912905767560005, 0.052616462111473083, -0.2275097370147705, -0.0964328944683075, -0.16822050511837006, -0.11114264279603958, -0.03048686683177948, -0.08540140837430954, 0.4136289060115814, -0.21652303636074066, -0.06540016829967499, 0.01973363570868969, 0.008855666033923626, -0.19026748836040497, -0.12050753086805344, 0.0017772557912394404, -0.0013556452468037605, -0.4077818691730499, -0.3179694712162018, -0.22126039862632751, -0.09198608249425888, -0.09154705703258514, -0.12144682556390762, -0.19678226113319397, -0.33575135469436646, -0.21184752881526947, 0.031870339065790176, -0.2783092260360718, -0.13350509107112885, -0.056933291256427765, -0.019836166873574257, -0.1597767174243927, -0.18304958939552307, -0.11461688578128815, -0.06388077884912491, -0.1482958346605301, 0.020562762394547462, -0.08443320542573929, -0.07263651490211487, -0.12520551681518555, -0.20331799983978271, -0.015556296333670616, -0.09070117026567459, -0.03398573398590088, 0.02998017892241478, -0.02371406741440296, -0.18046385049819946, 0.003052625572308898, 0.19607684016227722, -0.1193026676774025, 0.3655826151371002, -0.1315593719482422, -0.16012288630008698, -0.05643125995993614, -0.08683083951473236, -0.5379877090454102, -0.11186663061380386, -0.08144055306911469, -0.14644864201545715, 0.170832097530365, -0.04483981803059578, -0.03829701989889145, -0.1159568578004837, -0.0056519112549722195, -0.1603829264640808, -0.16836263239383698, -0.21843743324279785, -0.09076468646526337, -0.11674769967794418, -0.10806543380022049, -0.05623675137758255, 0.06359623372554779, 0.08286848664283752, -0.17977425456047058, -0.06552818417549133, -0.13110122084617615, 0.0519380047917366, -0.04573791101574898, -0.15853603184223175, -0.20639370381832123, -0.06877586990594864, -0.12407951802015305, -0.07917305082082748, -0.05312935635447502, -0.19435416162014008, -0.1400272697210312, -0.13468921184539795, -0.021271497011184692, -0.23640096187591553, -0.1792771816253662, -0.09960484504699707, -0.04811585322022438, -0.054350681602954865, -0.06704439222812653, -0.08534568548202515, -0.05503247305750847, -0.11161445826292038, -0.13984572887420654, -0.05469745025038719, -0.10264578461647034]], "b1": [0.7655657529830933]}, "mlp_config": {"0": {"w0": [[-0.1140357181429863, 0.1350909322500229, 0.008663339540362358, -0.009233273565769196, 0.05925270542502403, -0.15149962902069092, 0.03967613726854324, -0.13063228130340576], [0.090998075902462, -0.1859385073184967, -0.15180650353431702, 0.1650848686695099, -0.18896503746509552, -0.1494273692369461, -0.041952215135097504, -0.038779933005571365], [0.1393415480852127, -0.12015675753355026, 0.12509433925151825, -0.1617363691329956, 0.06840907782316208, -0.09349057823419571, 0.07775940746068954, 0.15367242693901062], [-0.21457631886005402, 0.18625584244728088, 0.09843527525663376, -0.16146796941757202, 0.07778467983007431, 0.09079593420028687, -0.0821155458688736, 0.04248544201254845], [0.13021796941757202, -0.03307509794831276, -0.05485375225543976, -0.04780387878417969, -0.10596001148223877, -0.13849598169326782, 0.14619120955467224, -0.15350878238677979], [-0.14916737377643585, -0.10967712104320526, 0.05426962673664093, 0.06122574955224991, 0.08450189977884293, 0.10564585775136948, -0.00320237223058939, -0.15670950710773468], [0.07129160314798355, -0.09845432639122009, -0.17625465989112854, 0.16939599812030792, -0.07666832208633423, -0.1386551707983017, -0.0070008342154324055, 0.15944181382656097], [-0.07196200639009476, -0.18890409171581268, -0.042972516268491745, 0.017061524093151093, -0.17604099214076996, 0.008516067638993263, 0.08969702571630478, -0.049766428768634796], [0.017800668254494667, -0.08147101104259491, 0.18803615868091583, -0.12538394331932068, 0.08811625838279724, 0.13181151449680328, -0.15071453154087067, -0.1877865195274353], [0.1637413501739502, 0.12995938956737518, 0.16010229289531708, 0.1332017481327057, 0.06796660274267197, -0.16464795172214508, 0.07050442695617676, -0.22274485230445862], [-0.13590750098228455, 0.16819335520267487, -0.08008889853954315, -0.17164206504821777, -0.09452354162931442, -0.03527601435780525, 0.09991233050823212, -0.03875238448381424], [0.1647019237279892, 0.17669199407100677, -0.16137102246284485, 0.11672816425561905, -0.023205088451504707, -0.07551628351211548, 0.13838191330432892, -0.13357460498809814], [0.06486638635396957, 0.09854448586702347, -0.0380631685256958, -0.018694045022130013, 0.0025039655156433582, -0.03169878199696541, -0.19900190830230713, 0.012593552470207214], [0.19937069714069366, -0.132310688495636, 0.031157610937952995, 0.06133250519633293, 0.15129438042640686, 0.01553544495254755, 0.1631718873977661, -0.02151613123714924], [-0.17225781083106995, 0.07728029042482376, 0.15876434743404388, 0.021675195544958115, -0.21597953140735626, 0.09410309046506882, -0.16121472418308258, -0.23017992079257965], [0.11509911715984344, 0.08395987004041672, 0.1593192219734192, -0.03665874898433685, 0.00974224042147398, 0.05862407386302948, 0.031846094876527786, 0.19158422946929932], [-0.13284192979335785, -0.0022200015373528004, 0.11302027106285095, 0.16000580787658691, 0.15638500452041626, 0.016060246154665947, -0.021739473566412926, 0.13092762231826782], [-0.02387549914419651, -0.1724708080291748, -0.012857886031270027, -0.21774925291538239, 0.028730394318699837, 0.055404458194971085, 0.17679275572299957, 0.17736074328422546], [-0.04682803526520729, -0.07482477277517319, -0.21344095468521118, -0.16128769516944885, -0.13910214602947235, 0.08600454777479172, -0.12204091250896454, 0.11361113935709], [-0.005443587899208069, 0.1658877432346344, -0.01827992871403694, 0.07626969367265701, 0.13738413155078888, -0.03212369605898857, 0.11759423464536667, -0.04439626261591911], [0.19302523136138916, -0.07540586590766907, -0.09809544682502747, 0.1510813683271408, -0.1722719818353653, 0.13259342312812805, -0.03960791975259781, -0.1624445617198944], [0.06652281433343887, -0.13270890712738037, -0.06421542912721634, -0.18295621871948242, 0.020773528143763542, 0.19645990431308746, -0.18390007317066193, -0.12289641797542572], [-0.14010514318943024, -0.022196050733327866, 0.10102842003107071, 0.17311009764671326, -0.12624019384384155, -0.051037006080150604, -0.11634032428264618, -0.17801153659820557], [-0.11957041919231415, 0.0731070265173912, -0.15161775052547455, 0.03147321566939354, -0.22096078097820282, 0.07728217542171478, 0.07150965929031372, -0.09798825532197952], [-0.08142859488725662, 0.17835552990436554, -0.05712495744228363, 0.03503207862377167, 0.16727322340011597, -0.02654576115310192, 0.13572831451892853, -0.13223965466022491], [0.15968099236488342, 0.09671291708946228, 0.04639045149087906, 0.15403984487056732, -0.03408560901880264, -0.12316765636205673, -0.14014515280723572, -0.12331032752990723], [-0.14993847906589508, -0.04336627200245857, -0.1144319549202919, -0.011817955411970615, 0.17822039127349854, 0.11902756243944168, 0.028777942061424255, 0.20713622868061066], [0.05154019594192505, -0.1045214831829071, 0.1787959337234497, 0.15409675240516663, -0.11991894245147705, -0.17711949348449707, 0.2021133005619049, 0.006238427944481373], [-0.09325858950614929, -0.0894533321261406, 0.035749368369579315, 0.110610231757164, -0.11614059656858444, -0.19859781861305237, 0.007039577234536409, -0.0325099341571331], [-0.07745328545570374, 0.11912427842617035, -0.25800392031669617, -0.2022906243801117, 0.0985536277294159, -0.17160345613956451, -0.07589775323867798, -0.010322926566004753], [0.13231433928012848, 0.0791207030415535, -0.1525903344154358, 0.01489493902772665, 0.013473029248416424, -0.03264378383755684, 0.17125189304351807, 0.10559695959091187], [-0.19564040005207062, 0.16753606498241425, 0.05083582177758217, -0.04226235672831535, -0.1108165979385376, -0.16150707006454468, -0.07903128117322922, 0.08480902761220932], [0.06116239354014397, -0.014024114236235619, -0.261183500289917, 0.07089646905660629, 0.03759494051337242, 0.042871661484241486, 0.13711139559745789, 0.06443731486797333], [0.09530947357416153, 0.15102003514766693, 0.06289929151535034, -0.12093939632177353, -0.12424855679273605, 0.0032548930030316114, 0.0944177433848381, -0.07775503396987915], [0.05082207918167114, 0.08648259192705154, -0.21232768893241882, -0.014447672292590141, 0.05249150097370148, -0.09157082438468933, -0.10720134526491165, 0.036180660128593445], [-0.24293561279773712, -0.13865646719932556, 0.1985800564289093, -0.16388380527496338, -0.1445249617099762, -0.13386082649230957, 0.056026481091976166, 0.12593668699264526], [-0.052449408918619156, -0.053541943430900574, -0.2502423822879791, -0.13388969004154205, -0.002586918883025646, 0.13244837522506714, 0.013477982953190804, -0.15525037050247192], [0.22441628575325012, 0.167947918176651, -0.023296181112527847, -0.1748702973127365, -0.04380863159894943, -0.1768210232257843, 0.05885831266641617, 0.13632558286190033], [-0.19525451958179474, 0.011018122546374798, -0.032726988196372986, -0.1604149490594864, -0.1740095019340515, 0.11838492006063461, 0.002967449137941003, 0.11685911566019058], [0.16319100558757782, 0.2332598716020584, -0.09585097432136536, -0.13856588304042816, 0.1731795221567154, -0.1475762128829956, -0.028293142095208168, 0.036799076944589615], [0.024201421067118645, -0.10041163861751556, -0.012213410809636116, -0.018578723073005676, 0.2309660166501999, 0.09776409715414047, -0.09090263396501541, 0.20848676562309265], [-0.053266577422618866, 0.004969611763954163, -0.01866184175014496, -0.057868849486112595, 0.058986082673072815, -0.11596895009279251, -0.13479173183441162, -0.06202414259314537], [-0.20017677545547485, -0.016095008701086044, 0.14915591478347778, 0.0785566121339798, 0.1516244262456894, -0.018183313310146332, 0.10524288564920425, -0.02531861700117588], [0.15767629444599152, -0.1450463980436325, -0.022293556481599808, -0.1547575145959854, -0.017885448411107063, -0.061767660081386566, 0.1888541430234909, 0.13422028720378876], [-0.15822546184062958, 0.1258333921432495, -0.26407817006111145, 0.002778964815661311, -0.12517882883548737, 0.0002650549286045134, 0.05671150982379913, -0.07664887607097626], [-0.012803462333977222, 0.08089181035757065, -0.0312414038926363, 0.005128717981278896, 0.17343774437904358, 0.10731448978185654, 0.1526036262512207, -0.14132177829742432], [-0.14412657916545868, 0.045437589287757874, 0.17641596496105194, -0.09001657366752625, 0.05463607609272003, 0.008905722759664059, -0.12134801596403122, 0.05692940950393677], [-0.16572608053684235, -0.014173600822687149, 0.16410429775714874, 0.08795628696680069, -0.20164544880390167, 0.12701274454593658, -0.053816650062799454, -0.11332988739013672], [-0.027113059535622597, -0.15442001819610596, 0.04530245065689087, 0.02590959332883358, -0.17483356595039368, -0.14005200564861298, -0.2443748414516449, 0.19811363518238068], [-0.011877721175551414, -0.14080387353897095, 0.0382663868367672, -0.017758794128894806, 0.12462872266769409, 0.10807542502880096, 0.14326296746730804, 0.10706337541341782], [0.19609034061431885, 0.01012908760458231, 0.17765796184539795, 0.003986188676208258, -0.014856459572911263, -0.09491342306137085, -0.11488474160432816, -0.0613931380212307], [0.005516080651432276, -0.027492176741361618, 0.16671904921531677, 0.1695767492055893, 0.06917177885770798, -0.08503086864948273, 0.07658921927213669, -0.15447191894054413], [0.1454414278268814, -0.040500130504369736, -0.1358649879693985, -0.029561031609773636, 0.20449298620224, -0.12326202541589737, 0.05881810188293457, -0.14297503232955933], [-0.05825338140130043, -0.09823141247034073, -0.021827001124620438, -0.047721944749355316, 0.0579649843275547, -0.03557214140892029, 0.0187519658356905, -0.06722182780504227], [0.03770795091986656, 0.0596880279481411, -0.03184230998158455, 0.1869182586669922, -0.13359221816062927, 0.15084026753902435, -0.07423242181539536, -0.05439157411456108], [0.09084001928567886, -0.03741773962974548, -0.07145245373249054, -0.13447555899620056, -0.01869967393577099, -0.07133688777685165, 0.1845347285270691, 0.004753056447952986], [-0.034261275082826614, -0.020293915644288063, -0.2843618094921112, -0.046102579683065414, -0.10088294744491577, 0.11290161311626434, -0.026801563799381256, 0.09942013025283813], [0.06514709442853928, -0.12770678102970123, -0.09110661596059799, 0.1949698030948639, -0.13627615571022034, 0.16358761489391327, 0.12363109737634659, 0.0197585541754961], [-0.06528369337320328, 0.10906185954809189, -0.21636560559272766, -0.10429306328296661, 0.0592513233423233, 0.05316319316625595, -0.17951828241348267, 0.09979584813117981], [-0.15075859427452087, 0.07738325744867325, -0.1697234809398651, -0.037380438297986984, -0.07616380602121353, -0.15490147471427917, 0.008685393258929253, -0.1474168747663498], [-0.020903082564473152, 0.23360103368759155, 0.155355766415596, 0.07765477150678635, -0.1904091089963913, 0.0037973583675920963, 0.12380111217498779, -0.119181327521801], [0.15770669281482697, 0.12763293087482452, -0.16261252760887146, 0.02091904915869236, 0.040482502430677414, -0.10443432629108429, 0.14300844073295593, -0.2157668173313141], [-0.06673496961593628, 0.13826142251491547, -0.18139508366584778, 0.07494549453258514, 0.10323957353830338, 0.07946357131004333, -0.053675390779972076, 0.0018516615964472294], [-0.09547632932662964, -0.09912220388650894, -0.09348452091217041, 0.10131265223026276, -0.013796639628708363, 0.1506536453962326, -0.1971445083618164, 0.07959721982479095], [-0.06578472256660461, 0.14192673563957214, 0.1688082367181778, 0.06351516395807266, -0.11622155457735062, 0.06334538012742996, 0.016672711819410324, 0.11707765609025955], [0.0823306068778038, -0.17327430844306946, -0.34424644708633423, 0.11316961795091629, 0.12274716794490814, 0.105281300842762, -0.0846588984131813, 0.15947385132312775], [-0.13855567574501038, 0.11558510363101959, -0.014570176601409912, -0.19976302981376648, -0.0828290581703186, -0.22546802461147308, 0.054622139781713486, -0.053550753742456436], [0.012391873635351658, -0.04205350577831268, 0.07190216332674026, 0.097829170525074, -0.08495411276817322, -0.07519655674695969, -0.030030913650989532, 0.09192623198032379], [-0.0728922039270401, 0.15528737008571625, 0.10945547372102737, 0.12206703424453735, 0.002822181675583124, 0.08655484020709991, 0.20111869275569916, -0.02496946044266224], [-0.0666235089302063, 0.16878516972064972, -0.06035055220127106, -0.04381497576832771, -0.05759115889668465, -0.1286546289920807, 0.05573725700378418, 0.0738670825958252], [-0.02410734072327614, -0.022539878264069557, 0.08260534703731537, 0.07895177602767944, 0.1385137140750885, 0.09460257738828659, 0.04977135360240936, 0.1608830690383911], [-0.050136812031269073, 0.026257282122969627, 0.05381547659635544, -0.011282609775662422, -0.09679575264453888, 0.13401208817958832, -0.18223848938941956, 0.18124674260616302], [0.06639498472213745, 0.1571572870016098, -0.015490783378481865, -0.15503789484500885, -0.17332695424556732, 0.06699665635824203, 0.12774860858917236, -0.07714152336120605], [-0.06240048259496689, 0.0915214866399765, 0.05334033444523811, -0.0691005066037178, 0.19338458776474, 0.07162470370531082, 0.10145191848278046, -0.03612826392054558], [0.18859344720840454, 0.017069360241293907, 0.15270790457725525, 0.15074066817760468, 0.05839845910668373, -0.12960399687290192, -0.20832481980323792, 0.010251934640109539], [-0.06839483231306076, 0.07460534572601318, -0.2782208025455475, 0.03004974126815796, -0.016233811154961586, 0.06871682405471802, -0.11140100657939911, 0.07702670246362686], [-0.01756207086145878, 0.06603506207466125, -0.06325951218605042, -0.17277026176452637, -0.011877842247486115, -0.11743403971195221, 0.1743469536304474, -0.004989244509488344], [-0.05651458725333214, -0.020862465724349022, -0.12623971700668335, -0.13134798407554626, 0.05247863009572029, 0.2028837651014328, -0.1762206107378006, -0.058243200182914734], [-0.09991859644651413, 0.014858989976346493, 0.04832641780376434, 0.2039940357208252, -0.02193455770611763, -0.09457743167877197, 0.12585517764091492, 0.015031198039650917], [-0.007220967207103968, -0.0042635779827833176, -0.19019612669944763, -0.1640399843454361, -0.031971149146556854, 0.04647200554609299, -0.17572607100009918, -0.15963034331798553], [0.03299171105027199, 0.013119085691869259, -0.36812594532966614, -0.1837678998708725, -0.039416078478097916, 0.09625808149576187, 0.0064116185531020164, -0.12380129098892212], [-0.10612447559833527, -0.11280860006809235, 0.181178018450737, -0.1779644638299942, -0.0631226971745491, -0.13047736883163452, 0.19058866798877716, 0.01406305842101574], [0.08546093851327896, 0.045191340148448944, 0.18416883051395416, -0.2335037738084793, -0.028173459693789482, 0.11194965243339539, 0.11055190116167068, 0.12742124497890472], [-0.1896386444568634, -0.08688393980264664, -0.15640456974506378, -0.09308072924613953, -0.056326836347579956, 0.19085311889648438, -0.003619587514549494, 0.1832519918680191], [0.12949010729789734, 0.10767927020788193, 0.018914945423603058, 0.050505150109529495, -0.07081509381532669, 0.015892716124653816, 0.14784599840641022, -0.17308403551578522], [0.08987535536289215, 0.2817763388156891, -0.0758284404873848, -0.12223947793245316, -0.08609725534915924, 0.053230803459882736, 0.04204723238945007, -0.05091036483645439], [0.17132988572120667, 0.1720043569803238, 0.19247759878635406, -0.023730948567390442, -0.038177140057086945, -0.00996068213135004, 0.1031399816274643, -0.11643964797258377], [0.041910283267498016, 0.03331667184829712, 0.023704450577497482, 0.19469615817070007, 0.16182956099510193, -0.08569549024105072, -0.16865693032741547, 0.009780975989997387], [-0.06350736320018768, 0.10848486423492432, 0.045050133019685745, 0.19334131479263306, 0.0006128826644271612, -0.14607997238636017, -0.1751178801059723, -0.14936013519763947], [0.04550548270344734, 0.1646057516336441, -0.14272060990333557, -0.041619569063186646, -0.06546124070882797, 0.16373711824417114, 0.1777404397726059, 0.1443028301000595], [0.18799026310443878, -0.015125550329685211, 0.2074769139289856, -0.07076384127140045, -0.12659990787506104, -0.16121059656143188, -0.027273330837488174, -0.1432618796825409], [-0.14796701073646545, 0.0002417912328382954, -0.25710028409957886, 0.09170114248991013, -0.02706112712621689, -0.06578600406646729, 0.012878199107944965, -0.13632220029830933], [0.08486974239349365, 0.1088658794760704, -0.25971105694770813, -0.09987546503543854, -0.14173108339309692, 0.16794860363006592, 0.1283692866563797, 0.06081520393490791], [0.05406520888209343, -0.017198074609041214, 0.031102890148758888, 0.1953303962945938, -0.002645820612087846, 0.054845791310071945, 0.03245626762509346, 0.11941225081682205], [0.17228133976459503, -0.12146152555942535, -0.06648564338684082, 0.08242321759462357, 0.09179524332284927, -0.02473936416208744, -0.04375925660133362, -0.08932908624410629], [0.15321828424930573, 0.12973853945732117, 0.13061538338661194, 0.13349922001361847, 0.052449773997068405, 0.12954184412956238, 0.1942119002342224, -0.035454440861940384], [-0.0009087118087336421, 0.0830097645521164, -0.0015374087961390615, 0.09967632591724396, -0.06642181426286697, 0.058891501277685165, -0.04648682847619057, -0.10648351907730103], [0.03172523155808449, -0.033127039670944214, -0.20798331499099731, -0.13406558334827423, 0.05482478439807892, -0.09306985139846802, 0.11672709882259369, 0.018845006823539734], [0.18229348957538605, -0.037045374512672424, 0.17569749057292938, -0.1715126484632492, -0.1413937509059906, 0.14090615510940552, 0.1072612926363945, -0.17721736431121826], [-0.17531070113182068, 0.015890639275312424, -0.0020448248833417892, -0.12771174311637878, 0.19006691873073578, 0.01728532649576664, 0.13162446022033691, 0.17080318927764893], [-0.17426763474941254, 0.1231909990310669, -0.006788700819015503, 0.0536859892308712, 0.09622826427221298, -0.22399604320526123, 0.09621015191078186, -0.15536506474018097], [-0.0791095718741417, 0.008413111791014671, -0.16502432525157928, 0.03169630095362663, -0.07198214530944824, -0.027287909761071205, -0.04850064963102341, -0.1289859116077423], [-0.059079814702272415, 0.21174673736095428, 0.013748718425631523, -0.12233137339353561, -0.15859074890613556, -0.04886429384350777, 0.0458810031414032, -0.1718633621931076], [-0.03595723211765289, -0.12742270529270172, 0.002612144686281681, -0.1225878894329071, -0.1687631905078888, -0.1048983559012413, 0.08490456640720367, -0.10087816417217255], [-0.047578588128089905, -0.02900996245443821, 0.008350815623998642, 0.071339912712574, 0.028417853638529778, -0.09347700327634811, -0.01800510473549366, 0.1258062869310379], [-0.09726625680923462, 0.08291681110858917, 0.11449281126260757, 0.205069899559021, 0.23751136660575867, -0.18493783473968506, -0.1740286648273468, 0.07255346328020096], [0.13674293458461761, -0.12658630311489105, -0.009126377291977406, 0.1435922086238861, -0.010319775901734829, -0.09069494903087616, -0.08965059369802475, -0.1092967614531517], [-0.014063825830817223, 0.06386933475732803, 0.01218603178858757, 0.12061435729265213, -0.08700346201658249, 0.04824232682585716, -0.03680027648806572, -0.10909850895404816], [0.003984949551522732, -0.0566878505051136, -0.15987035632133484, 0.036346565932035446, -0.09341582655906677, -0.21148963272571564, -0.11756958812475204, -0.0988527461886406], [-0.17438079416751862, 0.024584434926509857, -0.01060823816806078, 0.08895421773195267, -0.05688254162669182, 0.12214754521846771, -0.06507017463445663, 0.08619824796915054], [-0.03430180996656418, 0.006127955857664347, 0.10285978764295578, 0.043490853160619736, -0.059546783566474915, -0.03637557104229927, -0.0694127157330513, -0.23416554927825928], [-0.14529043436050415, -0.08192909508943558, 0.13573221862316132, 0.05822782590985298, 0.16765548288822174, 0.027671268209815025, -0.21413660049438477, -0.014674060046672821], [-0.00921429693698883, -0.07071340084075928, -0.28006213903427124, 0.07442492991685867, 0.07278043031692505, 0.07284676283597946, -0.006609608419239521, -0.009897440671920776], [-0.05668244510889053, 0.04474858567118645, 0.21086616814136505, -0.04456714168190956, -0.12285236269235611, 0.09732580184936523, -0.08335168659687042, 0.213999405503273], [-0.029558897018432617, -0.1705271303653717, 0.2065797597169876, 0.1279694139957428, -0.18792031705379486, -0.1039910539984703, 0.07376483827829361, -0.12983369827270508]], "b0": [-0.023559290915727615, 0.01766597107052803, 0.01988328993320465, 0.03298371285200119, 0.009923197329044342, -0.005777583457529545, -0.024775180965662003, 0.03759091719985008, -0.005862577352672815, -0.004070441238582134, 0.02404767833650112, -0.011909534223377705, 0.01621195487678051, 0.02851393073797226, 0.0004052543081343174, 0.01223415695130825, -0.00660881819203496, -0.005999840330332518, 0.09572210162878036, -0.020031308755278587, -0.0015270672738552094, -0.0037323429714888334, 0.00904040690511465, 0.03771558776497841, 0.05313226208090782, -0.07771434634923935, -0.023203887045383453, 0.010764649137854576, -0.024606579914689064, -0.03845978528261185, -0.005641515366733074, 0.008290951140224934, 0.02176772803068161, -0.012823431752622128, -0.024256454780697823, 0.053315840661525726, -0.025608500465750694, -0.01739680953323841, -0.024335715919733047, 0.006291401572525501, -0.004410402849316597, -0.001037083100527525, 0.035274215042591095, -0.0011167398188263178, 0.029476836323738098, -0.05540887638926506, -0.02121066302061081, 0.06735119223594666, -0.012981563806533813, 0.05409000441431999, 0.04594690725207329, 0.06445394456386566, -0.017498498782515526, 0.02802892029285431, -0.08706392347812653, -0.07307185977697372, -0.06975653022527695, 0.01688005030155182, -0.034029677510261536, 0.03130591660737991, 0.012249529361724854, -0.03165162354707718, -0.035425733774900436, 0.06812874972820282, 0.028507541865110397, 0.026755942031741142, -0.013174818828701973, 0.047982726246118546, 0.020040063187479973, -0.0040571861900389194, -0.01838197559118271, -0.030713364481925964, -0.041668664664030075, 0.0959053486585617, 0.06705400347709656, -0.05416189879179001, -0.07786921411752701, -0.03892078623175621, -0.05009925365447998, 0.03580337390303612, 0.04357576742768288, 0.022719182074069977, 0.006207985337823629, -0.06211383268237114, 0.03886328637599945, 0.027406133711338043, 0.04403143748641014, 0.003241726430132985, 0.013381555676460266, -0.0233136136084795, 0.005616733804345131, 0.009309315122663975, 0.021790018305182457, 0.03702199459075928, -0.043419867753982544, 0.02839561738073826, -0.0073042139410972595, -0.0273837149143219, 0.05399274453520775, 0.023627564311027527, -0.00014224027108866721, -0.013481173664331436, -0.004645399283617735, -0.015590504743158817, 0.07635604590177536, 0.03433176130056381, 0.02531595528125763, 0.030485929921269417, 0.04706556722521782, -0.0017355362651869655, -0.014229102060198784, -0.027127714827656746, -0.07061787694692612, -0.03454934060573578, 0.013726480305194855], "w1": [[0.11170077323913574, 0.031125562265515327, 0.14921416342258453, 0.05748749524354935, -0.17170508205890656, 0.0942414328455925, -0.033586286008358, -0.072830431163311, -0.10130605101585388, 0.03322376310825348, -0.045268140733242035, -0.04470806568861008, 0.13405157625675201, -0.1004544273018837, -0.18773658573627472, -0.0926075428724289, 0.17404812574386597, 0.1381717473268509, -0.10903286933898926, 0.14877945184707642, 0.10828199237585068, -0.1425573080778122, 0.2114260047674179, -0.15537868440151215, -0.12979498505592346, 0.13929378986358643, 0.11769058555364609, -0.05785561352968216, 0.07336250692605972, 0.1249174177646637, 0.13173358142375946, -0.09859892725944519, -0.03555991128087044, -0.18157033622264862, 0.14637315273284912, 0.11703909188508987, 0.14262044429779053, -0.18657106161117554, -0.12245902419090271, -0.10341116040945053, -0.1627725213766098, -0.18140919506549835, -0.0026571862399578094, 0.15843462944030762, 0.19114969670772552, 0.19962596893310547, 0.09890042245388031, 0.003067932790145278, -0.11565551161766052, -0.15669842064380646, 0.1467183530330658, 0.05271601676940918, 0.05904377996921539, 0.06338754296302795, 0.15704388916492462, 0.07192715257406235, 0.16375070810317993, -0.005148222669959068, 0.1479949802160263, 0.03240453824400902, 0.04948193579912186, 0.12236510217189789, -0.10476236045360565, 0.004281621892005205, -0.1383838653564453, 0.16644540429115295, -0.047314390540122986, 0.1491917222738266, 0.1223599910736084, -0.14510148763656616, -0.06703636050224304, 0.047760237008333206, 0.016311749815940857, -0.11882787942886353, -0.06036674603819847, 0.08012337237596512, 0.09512884169816971, 0.17815452814102173, 0.13293957710266113, 0.22087368369102478, 0.1994607299566269, -0.1412176489830017, 0.049920566380023956, -0.1495143175125122, -0.15183278918266296, 0.009167778305709362, 0.1807982623577118, 0.0486825667321682, -0.2019098550081253, 0.08286159485578537, 0.09537561982870102, 0.026997817680239677, 0.0170071292668581, -0.06868843734264374, 0.0372883565723896, -0.19009484350681305, -0.04888072609901428, -0.09956111013889313, -0.11539658904075623, -0.14933830499649048, -0.19290347397327423, 0.08187273889780045, 0.028149083256721497, 0.1364598423242569, 0.06594018638134003, 0.05827396363019943, -0.20091888308525085, 0.012567129917442799, 0.08554014563560486, 0.027258802205324173, -0.0345132015645504, -0.12018030881881714, 0.13543932139873505, 0.03400932997465134, -0.1426895260810852], [-0.07702863961458206, 0.022411515936255455, 0.0059287953190505505, 0.11878708750009537, -0.015421349555253983, -0.03843305632472038, 0.02390136942267418, 0.14801371097564697, 0.08615604788064957, -1.3388027582550421e-05, -0.0064605469815433025, 0.11596086621284485, -0.17717942595481873, -0.021158643066883087, 0.11359769105911255, 0.16058608889579773, 0.09609615057706833, -0.017600402235984802, 0.2557581961154938, -0.09636873751878738, 0.1165318563580513, -0.04590005427598953, -0.09781023114919662, 0.23266483843326569, -0.01228784304112196, 0.06712782382965088, 0.19708827137947083, 0.0173853300511837, -0.13306790590286255, 0.10642769187688828, -0.13433152437210083, -0.08720216155052185, 4.990856905351393e-05, 0.1100129559636116, 0.0643463283777237, -0.07022927701473236, 0.11860498785972595, 0.12724462151527405, -0.04074767604470253, -0.01841585524380207, -0.14069285988807678, -0.1613602489233017, -0.08559550344944, -0.11427639424800873, -0.02937455102801323, 0.024936066940426826, -0.13881804049015045, -0.16934382915496826, 0.06604368984699249, -0.026168592274188995, 0.12229709327220917, 0.019631141796708107, 0.022220386192202568, 0.0075163207948207855, -0.08916551619768143, 0.14407366514205933, -0.08944385498762131, -0.0007123217801563442, -0.038518983870744705, -0.042063601315021515, 0.0635659396648407, -0.11555974185466766, -0.050211142748594284, -0.029618240892887115, -0.0046395775862038136, 0.1822911947965622, 0.0813191682100296, -0.09023202210664749, -0.0862284004688263, -0.07953842729330063, 0.05367658659815788, -0.1369647979736328, -0.14011619985103607, 0.046436212956905365, -0.11498140543699265, 0.10232488065958023, -0.010916346684098244, -0.10984155535697937, 0.1445866972208023, 0.10200418531894684, -0.006241875234991312, 0.1373944878578186, 0.09188409149646759, -0.0761837512254715, -0.04320473223924637, 0.12270206958055496, -0.14355380833148956, 0.09674568474292755, 0.17125888168811798, -0.13993597030639648, -0.1034112349152565, 0.013652185909450054, 0.028813811019062996, -0.09972123056650162, 0.11248669773340225, 0.16652347147464752, -0.03138165548443794, 0.16860845685005188, -0.059409111738204956, -0.1319095343351364, 0.15041296184062958, -0.05873792618513107, -0.09075184166431427, -0.06806477159261703, 0.0010233791545033455, 0.015185624361038208, -0.07557360827922821, 0.16609007120132446, 0.0664612352848053, 0.18247218430042267, -0.05639047920703888, 0.005838889162987471, -0.16974395513534546, 0.11282812803983688, 0.05767456814646721], [0.043134987354278564, -0.11919886618852615, -0.19711555540561676, 0.1996249258518219, 0.1007833331823349, 0.16601769626140594, 0.08756446838378906, 0.16450916230678558, -0.12445468455553055, -0.12248077243566513, -0.09649910777807236, 0.15167511999607086, 0.18493060767650604, 0.03449748829007149, 0.12111631780862808, 0.01492181047797203, 0.06404954195022583, 0.048375487327575684, 0.14112217724323273, -0.02254212275147438, -0.09940051287412643, 0.08669160306453705, 0.03237057477235794, 0.04747750237584114, 0.06808995455503464, -0.1904432624578476, -0.14983439445495605, -0.008100936189293861, 0.13479605317115784, -0.07691683620214462, 0.0586225651204586, -0.11431240290403366, 0.12138810753822327, 0.14600089192390442, -0.1975131630897522, -0.04824185371398926, -0.12115714699029922, -0.19163472950458527, -0.044266484677791595, 0.09368337690830231, 0.1319180577993393, 0.13510511815547943, -0.12169047445058823, 0.08416040986776352, 0.11645955592393875, -0.2065221071243286, -0.0821182057261467, 0.018203945830464363, 0.07395424693822861, 0.025106584653258324, 0.09211158752441406, 0.1903826743364334, 0.03729822859168053, -0.15291686356067657, 0.038834549486637115, -0.12669886648654938, -0.18070794641971588, -0.06069432199001312, -0.16081489622592926, 0.08988574892282486, -0.23410668969154358, -0.029099056497216225, -0.06688578426837921, 0.03784365952014923, -0.04138452932238579, 0.01871509663760662, 0.053798601031303406, -0.030320726335048676, 0.07328572124242783, 0.1336703896522522, -0.16206663846969604, -0.1156015694141388, -0.14303846657276154, 0.08931702375411987, -0.02057027630507946, -0.1013985127210617, -0.07237956672906876, -0.14621810615062714, -0.07052454352378845, 0.07156911492347717, -0.16113971173763275, 0.07994197309017181, -0.1399393081665039, 0.05567494034767151, 0.030304057523608208, 0.14698128402233124, 0.06655098497867584, 0.0929328128695488, -0.10936359316110611, 0.126667320728302, 0.02490095980465412, -0.21537987887859344, -0.07656601071357727, -0.014187228865921497, 0.01989682950079441, -0.1264372020959854, 0.1918899118900299, 0.05598102882504463, 0.21584147214889526, 0.13848121464252472, 0.01339144166558981, -0.04275432601571083, -0.15657800436019897, -0.14979642629623413, -0.08147609978914261, -0.04225892201066017, -0.05027862638235092, 0.07418972998857498, 0.029698750004172325, 0.081180140376091, -0.034780945628881454, 0.06131061166524887, -0.18953143060207367, 0.16786834597587585, -0.13696768879890442], [-0.1464708298444748, -0.11654028296470642, 0.16547222435474396, -0.03664332255721092, -0.08409517258405685, -0.1297818124294281, 0.03170951083302498, 0.07233306765556335, 0.0699843317270279, -0.1389438956975937, -0.1046270877122879, -0.21930061280727386, -0.11327923834323883, -0.07808997482061386, -0.10372915118932724, -0.06595838814973831, 0.07930271327495575, -0.1203293651342392, -0.1545703113079071, -0.0018030472565442324, 0.06608093529939651, -0.15136416256427765, -0.06198408454656601, -0.21170148253440857, 0.06145606189966202, 0.12381541728973389, -0.1835843324661255, -0.08255992829799652, 0.02799799293279648, 0.04481137543916702, 0.2015218436717987, 0.1368531733751297, 0.1596222221851349, 0.07526026666164398, 0.1431073695421219, 0.12291301786899567, -0.005085649900138378, -0.17368026077747345, -0.009762808680534363, -0.001982141984626651, 0.12938952445983887, -0.17341215908527374, 0.032864633947610855, 0.05661459267139435, 0.04649299755692482, 0.05186863988637924, 0.05684947967529297, 0.17434674501419067, -0.08471843600273132, 0.01137491688132286, 0.018238533288240433, 0.09297279268503189, -0.10135361552238464, 0.2139330357313156, -0.11451815813779831, 0.07844070345163345, -0.19032414257526398, 0.08879844099283218, 0.09252608567476273, -0.07892847061157227, -0.02902178280055523, 0.17671005427837372, 0.020598849281668663, 0.18870331346988678, -0.023393921554088593, -0.10661572962999344, 0.01812172867357731, 0.059992771595716476, -0.06993556767702103, -0.06927024573087692, -0.04232597351074219, 0.10949546098709106, -0.00011621076555456966, 0.0723676010966301, 0.02545222081243992, -0.20372594892978668, -0.02015979029238224, 0.14798979461193085, 0.08282708376646042, 0.048510100692510605, -0.09566393494606018, -0.1368677169084549, 0.009344124235212803, 0.20295488834381104, 0.17941483855247498, 0.040685608983039856, -0.1617904156446457, -0.02684592269361019, -0.015266326256096363, 0.00897102989256382, 0.040572214871644974, -0.14287151396274567, 0.09504317492246628, -0.11399587988853455, -0.11068382114171982, -0.06376177817583084, -0.16463623940944672, -0.09341548383235931, -0.07393006235361099, -0.06092197075486183, 0.08557219803333282, 0.07842309027910233, 0.12686856091022491, 0.07802305370569229, -0.13478019833564758, -0.0035881386138498783, 0.09216567128896713, 0.1863795965909958, 0.12299960106611252, -0.04719403386116028, 0.061679668724536896, -0.09412436932325363, -0.03606288880109787, -0.02064160257577896, -0.14346469938755035], [0.14717988669872284, -0.1492420732975006, -0.12074817717075348, -0.16072697937488556, -0.12808914482593536, -0.16364943981170654, -0.004183663520962, 0.1454032063484192, 0.17606419324874878, -0.12852469086647034, 0.1120750904083252, 0.05348043888807297, -0.0076586101204156876, 0.08562036603689194, -0.13852141797542572, 0.09832940250635147, 0.14416569471359253, -0.20828299224376678, 0.0954815000295639, 0.10799099504947662, 0.10129395127296448, -0.0003589295956771821, 0.12646684050559998, -0.06926320493221283, 0.19482074677944183, -0.05053865909576416, 0.16652576625347137, 0.1609145700931549, -0.11810187995433807, -0.11390281468629837, 0.19836175441741943, 0.18234041333198547, 0.025164395570755005, 0.044067852199077606, -0.15049433708190918, 0.013694306835532188, -0.0974692851305008, 0.14371444284915924, 0.03017420694231987, 0.0665726438164711, -0.01027030497789383, 0.2201453596353531, 0.1292695254087448, 0.11816949397325516, 0.17772649228572845, -0.16877710819244385, -0.0453949049115181, 0.032106008380651474, 0.12013780325651169, -0.20060785114765167, -0.10321585088968277, -0.0202141385525465, 0.16857221722602844, 0.2045784443616867, -0.1018068715929985, -0.04483770579099655, -0.12150220572948456, 0.1173463836312294, -0.1452728658914566, 0.15320990979671478, -0.017674293369054794, -0.04434136673808098, -0.09498336166143417, 0.112931989133358, 0.21115648746490479, 0.00019161676755174994, -0.1266392320394516, -0.03459440544247627, -0.04385374113917351, 0.03284785896539688, -0.1168893575668335, -0.09451977163553238, -0.17579834163188934, 0.143182173371315, 0.12461093068122864, -0.08612140268087387, -0.14874577522277832, 0.13104526698589325, -0.10472504049539566, -0.15497009456157684, 0.12487822026014328, 0.1356441229581833, 0.11410229653120041, 0.1471889764070511, 0.17397788166999817, -0.07952529937028885, 0.18901178240776062, -0.06640995293855667, 0.01625198684632778, -0.11274345219135284, 0.010333827696740627, 0.13882902264595032, 0.17608094215393066, 0.14044883847236633, 0.12704682350158691, -0.17804065346717834, -0.032434821128845215, 0.0776531845331192, 0.07497453689575195, 0.13592569530010223, -0.1515149027109146, 0.14658419787883759, 0.18645638227462769, -0.0975169986486435, 0.1067969799041748, -0.07682377099990845, 0.004188914317637682, 0.1906316578388214, 0.1636572927236557, -0.0003231198061257601, -0.19978274405002594, -0.04595467075705528, 0.015189052559435368, 0.027728743851184845, 0.08437681943178177], [0.1130342110991478, -0.08328279107809067, 0.13158807158470154, 0.18362227082252502, 0.11604806780815125, -0.001332431798800826, -0.04241830110549927, 0.0893087387084961, 0.06547936797142029, -0.029071418568491936, 0.07305964082479477, 0.01106235384941101, 0.025549791753292084, -0.13442976772785187, 0.11379420757293701, -0.09443674236536026, 0.0686665028333664, 0.10017415881156921, 0.16264508664608002, -0.17772646248340607, 0.047829288989305496, 0.034721892327070236, -0.07426726073026657, 0.12106503546237946, 0.06695923209190369, -0.09652087092399597, 0.1024622917175293, -0.15284986793994904, 0.028614584356546402, -0.11912349611520767, 0.13802960515022278, 0.13210000097751617, -0.15659409761428833, -0.07465498149394989, -0.15604877471923828, -0.10850521177053452, -0.19497941434383392, -0.08452338725328445, 0.18794186413288116, 0.04886435344815254, 0.05896003544330597, -0.08593310415744781, -0.04727457836270332, 0.06840517371892929, -0.19531011581420898, 0.08397254347801208, -0.06952749937772751, -0.024515816941857338, -0.013922362588346004, -0.14262785017490387, 0.17676687240600586, -0.0473128966987133, 0.21815243363380432, 0.1415487676858902, 0.2202644944190979, -0.11156308650970459, -0.10123816132545471, 0.15268436074256897, 0.04260497912764549, 0.0020698385778814554, -0.02704041451215744, 0.08463194221258163, -0.19133523106575012, 0.04417390003800392, -0.182630717754364, -0.01731085032224655, -0.04362913966178894, 0.1665022373199463, -0.08127322793006897, 0.026474418118596077, 0.03186878561973572, -0.16070109605789185, -0.024325856938958168, -0.05555277317762375, 0.1550084948539734, -0.08269944041967392, 0.11945745348930359, -0.011503777466714382, 0.17759892344474792, -0.04835944622755051, -0.012277326546609402, 0.12414190173149109, 0.14830078184604645, -0.10955077409744263, -0.05103922635316849, 0.18559367954730988, -0.02996303141117096, -0.13457992672920227, -0.062321849167346954, 0.03421608731150627, -0.14219272136688232, -0.012816485948860645, -0.12032689899206161, 0.10370929539203644, -0.053772296756505966, 0.04955205321311951, 0.11914943158626556, -0.1628185510635376, -0.013306704349815845, -0.12510448694229126, 0.03612334653735161, -0.17794935405254364, -0.06911320239305496, 0.0028504529036581516, -0.02298544906079769, 0.1897430419921875, -0.17049765586853027, -0.17404893040657043, 0.18433143198490143, 0.20692449808120728, 0.23883172869682312, -0.1344163864850998, 0.023612458258867264, -0.10018347203731537, 0.10961538553237915]], "b1": [-0.1526811718940735, 0.008750960230827332, 0.13831378519535065, 0.1292864978313446, 0.1381819099187851, 0.17972657084465027]}, "1": {"w0": [[0.1726207733154297, -0.07175220549106598, -0.09278865158557892, -0.13439123332500458, -0.11421281844377518, 0.16472406685352325, 0.10643339902162552, -0.047436509281396866], [-0.08344249427318573, 0.03785935789346695, -0.21284295618534088, 0.06808999180793762, 0.11497985571622849, -0.15789794921875, -0.06759396940469742, 0.007870391942560673], [0.13669079542160034, -0.07882580161094666, 0.10389622300863266, -0.09558337181806564, 0.03202249854803085, -0.1432168036699295, 0.2408217042684555, -0.1582224816083908], [-0.20827807486057281, -0.14571908116340637, -0.1192985475063324, 0.06476224213838577, 0.14150388538837433, 0.06969128549098969, -0.07353059202432632, 0.006298265885561705], [0.002197160618379712, -0.13294045627117157, -0.001482460298575461, -0.08091026544570923, 0.05176364257931709, 0.21830694377422333, 0.09175492823123932, -0.08128354698419571], [-0.05293065309524536, 0.19222594797611237, 0.1090344563126564, 0.23252587020397186, -0.04353518411517143, -0.04154343903064728, 0.16844411194324493, 0.20508313179016113], [0.011064031161367893, 0.14911718666553497, -0.1655195951461792, 0.0581599697470665, 0.13809096813201904, -0.179437056183815, 0.08440973609685898, -0.047453224658966064], [-0.14254552125930786, 0.005629219114780426, -0.13779564201831818, 0.17399615049362183, 0.05734226480126381, 0.1393096148967743, 0.1083642765879631, 0.1666269749403], [-0.17259220778942108, -0.14957085251808167, 0.05651615187525749, -0.011259603314101696, -0.17379668354988098, 0.14827971160411835, -0.026135588064789772, -0.20359736680984497], [-0.1452145129442215, 0.17166605591773987, -0.108400858938694, -0.004704578779637814, 0.07485881447792053, 0.19332118332386017, 0.20130273699760437, 0.06098967045545578], [-0.10526277124881744, -0.10207303613424301, -0.32664114236831665, -0.01640276424586773, -0.0006149318069219589, -0.06288576126098633, 0.08694422990083694, -0.040909331291913986], [0.03109016828238964, 0.17466463148593903, 0.23656417429447174, 0.034955717623233795, 0.10800840705633163, 0.30839744210243225, -0.14258909225463867, -0.007177602034062147], [-0.021744053810834885, -0.013991915620863438, -0.4794797897338867, -0.07991386204957962, 0.18199674785137177, 0.05082005634903908, 0.014960860833525658, -0.05046826973557472], [0.023400863632559776, 0.02962413802742958, -0.02769906260073185, 0.12071772664785385, -0.16406185925006866, -0.013585464097559452, 0.1588500738143921, -0.13581718504428864], [-0.20313747227191925, 0.15099181234836578, 0.14610959589481354, 0.18513816595077515, 0.16872268915176392, 0.15780292451381683, 0.11120611429214478, -0.15683609247207642], [-0.14018912613391876, 0.04940970242023468, 0.05711718648672104, -0.12930242717266083, -0.01992153562605381, -0.0172840878367424, -0.2066369503736496, -0.14258606731891632], [-0.01375978160649538, -0.1242118552327156, -0.2012503743171692, 0.09556154161691666, -0.07705778628587723, 0.11547263711690903, 0.22980113327503204, 0.10812249034643173], [-0.0609363354742527, 0.0673118531703949, -0.2128744125366211, 0.033453214913606644, 0.08307977020740509, 0.0664985328912735, 0.11270171403884888, -0.06580352783203125], [0.05756746977567673, -0.18471834063529968, -0.2641400098800659, -0.01490514725446701, -0.08040984719991684, -0.08794335275888443, -0.09228476881980896, 0.048944421112537384], [0.09755066782236099, 0.08412040770053864, -0.09947486221790314, 0.0395301952958107, 0.1846238225698471, 0.14492012560367584, 0.21487480401992798, -0.006953447591513395], [-0.0341375358402729, 0.009732013568282127, -0.19553466141223907, 0.13596318662166595, 0.13070744276046753, 0.05761514976620674, 0.17437051236629486, -0.10172121226787567], [0.037063293159008026, -0.13102436065673828, -0.08687914162874222, -0.011153754778206348, 0.2498268336057663, 0.04310712218284607, 0.08300185203552246, 0.15189342200756073], [-0.10121893137693405, 0.012569688260555267, 0.22219224274158478, 0.049539484083652496, -0.09644196927547455, -0.03590436652302742, 0.13543176651000977, -0.05962827801704407], [-0.16786035895347595, 0.0623326301574707, -0.1377204954624176, 0.23046906292438507, 0.06833675503730774, -0.20214314758777618, 0.0829717293381691, -0.01367021445184946], [0.06512525677680969, 0.19048383831977844, -0.0031930645927786827, 0.16649988293647766, 0.15568724274635315, -0.20998282730579376, 0.17631591856479645, -0.11192849278450012], [0.020068150013685226, -0.23012292385101318, 0.12452901899814606, -0.02694307081401348, 0.05065883323550224, 0.11995718628168106, -0.01981682889163494, -0.18638627231121063], [0.0730968713760376, -0.10634324699640274, -0.27855560183525085, 0.08598905056715012, 0.059260331094264984, 0.1559542417526245, -0.03508535400032997, 0.027407946065068245], [-0.013630311004817486, 0.05501405522227287, -0.38869088888168335, -0.01900891214609146, 0.028211425989866257, -0.07027553766965866, 0.2099444717168808, 0.1653534471988678], [-0.08853931725025177, -0.16717371344566345, -0.18062278628349304, 0.15179170668125153, -0.14878129959106445, -0.05079008266329765, 0.18131503462791443, 0.20374424755573273], [0.11490524560213089, 0.017976487055420876, 0.19232945144176483, -0.005575030110776424, -0.0011505397269502282, 0.044136010110378265, -0.159512460231781, 0.009391016326844692], [0.01965872198343277, 0.04310271143913269, -0.041277892887592316, 0.2665851414203644, 0.055911894887685776, -0.05487268418073654, 0.10452530533075333, -0.18386046588420868], [-0.037261538207530975, 0.06728200614452362, -0.18270987272262573, 0.08184705674648285, -0.05312934145331383, 0.08042725175619125, -0.13080990314483643, -0.0065517546609044075], [0.05457375943660736, 0.1468610167503357, -0.21860384941101074, 0.20856809616088867, 0.17841249704360962, -0.058630991727113724, -0.020244330167770386, -0.023423321545124054], [-0.09381937235593796, -0.10908925533294678, 0.18723660707473755, 0.1822570115327835, 0.014971156604588032, 0.11203620582818985, -0.094658263027668, -0.07148367166519165], [0.16016027331352234, 0.06394361704587936, -0.15208570659160614, 0.05129826068878174, -0.03763134777545929, 0.1989797204732895, -0.14301042258739471, 0.12083268165588379], [0.09738347679376602, 0.08022163808345795, 0.11717697978019714, -0.2100389152765274, -0.09574277698993683, -0.08223125338554382, 0.06681246310472488, 0.12302748113870621], [0.023795481771230698, -0.08597084879875183, 0.07567962259054184, -0.1969773769378662, 0.13994303345680237, 0.09416971355676651, 0.026842257007956505, 0.15070456266403198], [-0.09401588886976242, 0.016401227563619614, 0.18571899831295013, -0.11423324048519135, 0.10196471214294434, 0.08796074241399765, 0.08185350894927979, 0.14390598237514496], [-0.011320983991026878, -0.09920735657215118, 0.1275542676448822, -0.034457627683877945, -0.04776786267757416, 0.060353513807058334, 0.148804172873497, -0.14559321105480194], [-0.16632361710071564, 0.03613301366567612, 0.04011814668774605, -0.06871684640645981, -0.18055953085422516, -0.07035500556230545, 0.07895392179489136, -0.008812857791781425], [-0.07446308434009552, 0.1954430788755417, -0.3358958065509796, 0.02430855669081211, -0.014256974682211876, 0.05261795222759247, 0.1287073791027069, 0.05487600341439247], [0.12446635961532593, -0.06619463860988617, -0.38299742341041565, 0.07802363485097885, 0.009852085262537003, -0.015056642703711987, 0.1015009880065918, -0.10977251082658768], [-0.10069991648197174, -0.04988078773021698, 0.13670484721660614, -0.0942973792552948, -0.006722185295075178, 0.04475317522883415, -0.15300869941711426, -0.011059884913265705], [-0.01962997391819954, -0.11201648414134979, 0.027889570221304893, -0.19464287161827087, -0.08360715955495834, -0.06566961109638214, 0.19525201618671417, 0.25038373470306396], [-0.020990295335650444, 0.1489003747701645, 0.04876643046736717, -0.16995806992053986, -0.003511885879561305, 0.30770033597946167, 0.07579436153173447, -0.009385514073073864], [-0.10640953481197357, 0.1351086050271988, -0.02227218821644783, -0.08937152475118637, -0.12064340710639954, -0.030846865847706795, 0.17114360630512238, 0.07657336443662643], [-0.19693823158740997, -0.14961108565330505, 0.167136088013649, 0.1527971625328064, -0.1845846027135849, 0.17448081076145172, 0.14815649390220642, 0.2037493884563446], [0.07423928380012512, -0.12754333019256592, 0.13286851346492767, 0.09586821496486664, 0.11369987577199936, 0.13864609599113464, 0.06221705302596092, -0.04199392721056938], [0.16011777520179749, -0.15503691136837006, 0.08183249831199646, -0.1071394681930542, 0.161396324634552, 0.010164722800254822, -0.08045798540115356, 0.14841881394386292], [0.17877726256847382, 0.06750141084194183, -0.19790580868721008, -0.1628209352493286, 0.07504742592573166, -0.12498727440834045, 0.1660538911819458, 0.09030802547931671], [0.04225144907832146, 0.0441138930618763, -0.10869055986404419, 0.024919306859374046, 0.0418618768453598, -0.07980012893676758, 0.18431665003299713, -0.13030435144901276], [-0.08416848629713058, -0.051641128957271576, -0.06421364098787308, -0.13825802505016327, 0.16564497351646423, -0.14753104746341705, -0.0022800802253186703, 0.17153364419937134], [0.1555042564868927, 0.01764444075524807, -0.17878253757953644, 0.20308808982372284, 0.11502085626125336, -0.09291514754295349, -0.03224717453122139, -0.18468113243579865], [-0.16420544683933258, -0.12984324991703033, -0.02326349727809429, -0.08798500150442123, 0.21275852620601654, -0.16027623414993286, -0.2084396332502365, -0.06426402181386948], [0.09911859780550003, -0.1376148909330368, 0.0875983014702797, 0.10813315957784653, 0.16752544045448303, -0.11061660945415497, 0.14864864945411682, 0.09063590317964554], [-0.1338234543800354, -0.18632541596889496, 0.12152861058712006, -0.04866424575448036, 0.004609675146639347, -0.09297158569097519, 0.1009439080953598, -0.12303043156862259], [-0.11763855814933777, 0.013685541227459908, -0.05981609597802162, -0.08985567092895508, -0.09550591558218002, -0.17344217002391815, -0.10503741353750229, 0.22763335704803467], [0.21069778501987457, 0.15035368502140045, 0.2453916370868683, 0.0330066904425621, -0.17893290519714355, -0.13276006281375885, -0.07919609546661377, -0.007601313292980194], [-0.11641672253608704, -0.0452691987156868, -0.1570374071598053, 0.11210677027702332, -0.03314955160021782, 0.1086607575416565, 0.05425199866294861, 0.01266465149819851], [-0.017620420083403587, -0.11205806583166122, 0.1589863896369934, 0.2069811075925827, -0.11603448539972305, -0.20208892226219177, 0.17814700305461884, 0.12246549129486084], [-0.0665932446718216, -0.12305153161287308, 0.0904538556933403, -0.09154265373945236, 0.04469286650419235, -0.05708186328411102, -0.14804735779762268, 0.14339955151081085], [-0.0019256913801655173, -0.05981114134192467, -0.11815685778856277, -0.17111334204673767, -0.11203701794147491, 0.1309511661529541, 0.030391473323106766, 0.07290690392255783], [-0.13947363197803497, -0.04945562779903412, -0.18979956209659576, -0.08875542879104614, -0.003938840702176094, 0.17786987125873566, 0.013358629308640957, -0.2103128582239151], [0.037483446300029755, -0.19703547656536102, 0.027640117332339287, -0.08580896258354187, 0.16376125812530518, -0.08690702170133591, -0.22095227241516113, 0.1637396514415741], [-0.1519038826227188, -0.06272662431001663, -0.21642069518566132, 0.07734059542417526, 0.036021869629621506, -0.013711431995034218, -0.06743475794792175, 0.06413296610116959], [0.0671386793255806, 0.14426787197589874, -0.1726122498512268, 0.06464545428752899, -0.044365108013153076, 0.07116153091192245, 0.18168224394321442, -0.13939298689365387], [0.0021277579944580793, 0.10929333418607712, 0.12133780121803284, 0.2192222774028778, 0.01327822171151638, -0.16713525354862213, -0.09536439925432205, 0.18265505135059357], [-0.1748036891222, 0.06752631068229675, 0.21510986983776093, -0.03438025712966919, -0.010520673356950283, 0.14357934892177582, -0.12696099281311035, 0.13617685437202454], [-0.12503892183303833, -0.049522142857313156, 0.06096399575471878, 0.10444820672273636, 0.04972411319613457, -0.07406222075223923, 0.07187103480100632, -0.14271092414855957], [-0.1265043318271637, -0.12633801996707916, -0.2372351437807083, -0.06557746976613998, -0.08325187861919403, -0.16872228682041168, 0.01943058893084526, -0.05901277810335159], [0.10234769433736801, 0.13997411727905273, -0.2481389045715332, 0.027669716626405716, -0.2206043154001236, 0.08873426914215088, 0.16867417097091675, -0.033859629184007645], [0.18295131623744965, -0.01893768645823002, -0.007136454340070486, -0.20649053156375885, -0.05724732577800751, 0.12108185142278671, -0.0324011892080307, 0.014206591993570328], [-0.023899883031845093, -0.06671789288520813, 0.0539730004966259, 0.20053890347480774, -0.0746593326330185, 0.11008255183696747, 0.0185341015458107, 0.16605991125106812], [-0.16961748898029327, 0.03894199803471565, 0.0450468510389328, -0.10577765107154846, -0.15947142243385315, 0.03139995411038399, -0.1741776466369629, 0.10845103114843369], [0.18862247467041016, -0.00568824028596282, 0.07400794327259064, -0.027049941942095757, 0.15614698827266693, 0.014708485454320908, 0.03201456740498543, 0.10281148552894592], [0.07050672918558121, -0.014090006239712238, 0.11007457971572876, -0.06346895545721054, 0.0018399108666926622, -0.1226891279220581, 0.031666576862335205, -0.11440525203943253], [-0.21636800467967987, 0.02816881239414215, -0.16409432888031006, 0.10115690529346466, -0.15817759931087494, -0.08712504804134369, 0.14774483442306519, -0.04936610162258148], [0.10974736511707306, 0.027417968958616257, 0.13900604844093323, -0.0730886235833168, -0.17331910133361816, 0.19921250641345978, -0.029370948672294617, -0.06635811924934387], [0.05756521597504616, -0.10794682800769806, -0.06652812659740448, 0.13350217044353485, -0.10911252349615097, 0.17709875106811523, 0.17500801384449005, 0.08198047429323196], [0.009801664389669895, 0.04593615233898163, -0.044310782104730606, -0.1573883295059204, 0.013447494246065617, 0.1755717545747757, 0.09798502922058105, -0.08423394709825516], [0.06343354284763336, -0.10666355490684509, -0.16116484999656677, 0.020766451954841614, -0.10969578474760056, -0.15792402625083923, 0.27105265855789185, -0.06768730282783508], [0.026376672089099884, 0.08183170109987259, -0.033485766500234604, 0.10379896312952042, 0.17973032593727112, -0.0915234386920929, 0.14819492399692535, -0.134986013174057], [0.06427440047264099, -0.05116937682032585, 0.15825964510440826, 0.23760181665420532, 0.04332605004310608, 0.0961826965212822, 0.05670477822422981, -0.20319999754428864], [0.04344068840146065, -0.0038277669809758663, -0.006075297482311726, 0.17270976305007935, -0.04377846047282219, -0.12533649802207947, -0.2085943967103958, 0.11304255574941635], [0.04524887353181839, 0.05771122872829437, -0.11609327793121338, -0.0901586040854454, 0.047736044973134995, 0.15020371973514557, -0.06890430301427841, -0.15481147170066833], [0.1061733141541481, 0.058737874031066895, -0.36476415395736694, 0.13574367761611938, -0.008385243825614452, 0.09775391221046448, -0.04270680993795395, -0.1542142629623413], [0.04391135647892952, 0.043070804327726364, -0.20979347825050354, -0.15647928416728973, -0.03769894689321518, -0.20592842996120453, 0.07283932715654373, -0.09986215084791183], [-0.17987529933452606, -0.06479015201330185, 0.11984714865684509, 0.09964106976985931, 0.13029639422893524, 0.16965025663375854, 0.029047902673482895, -0.14875265955924988], [0.15772183239459991, -0.20857766270637512, 0.21643386781215668, -0.1678423136472702, -0.05708280950784683, 0.2183840423822403, 0.09298615157604218, -0.06474355608224869], [-0.1481671929359436, -0.052127089351415634, 0.2381826639175415, 0.1321239471435547, 0.10933294147253036, 0.19296269118785858, 0.06434328109025955, 0.08874539285898209], [0.1503766030073166, -0.06987746804952621, -0.2583264112472534, 0.0938628613948822, -0.08141786605119705, -0.18458788096904755, -0.17781829833984375, -0.15787376463413239], [0.10788054764270782, 0.041409727185964584, -0.10256252437829971, 0.0693173035979271, -0.11796090751886368, 0.1543065458536148, -0.12488224357366562, 0.1145225390791893], [0.15665552020072937, -0.0662003606557846, 0.09359655529260635, 0.034550704061985016, 0.16899244487285614, 0.15795369446277618, -0.04997439682483673, -0.0610685832798481], [0.043866295367479324, 0.015868859365582466, -0.31134650111198425, -0.036564912647008896, -0.18301498889923096, 0.07290307432413101, -0.016024043783545494, -0.056590862572193146], [-0.019557900726795197, -0.20004165172576904, -0.18319618701934814, -0.20002424716949463, -0.11746848374605179, 0.20409102737903595, -0.07918022572994232, 0.03024601936340332], [-0.020170222967863083, 0.07497239112854004, -0.2976110577583313, 0.03835798799991608, 0.029655957594513893, 0.18491148948669434, -0.1648278683423996, -0.0943726971745491], [0.01233399473130703, 0.1432895064353943, 0.1742946356534958, 0.20077280700206757, 0.04750823229551315, 0.14278750121593475, 0.06176335737109184, -0.09179158508777618], [-0.05876273289322853, 0.0980629175901413, -0.03517128899693489, 0.18778760731220245, 0.10492710024118423, -0.15437202155590057, -0.04708516225218773, -0.14860069751739502], [-0.2209460288286209, 0.056408002972602844, 0.24158628284931183, -0.13598795235157013, 0.004735602531582117, 0.0075562335550785065, -0.2143942415714264, 0.0903160497546196], [0.11216410249471664, 0.02674688771367073, 0.18106834590435028, -0.1731729805469513, -0.06951011717319489, -0.04275212064385414, -0.04438759759068489, 0.10099129378795624], [-0.0260186567902565, -0.11567676067352295, 0.26822778582572937, -0.05724392831325531, 0.02615443803369999, 0.1494113653898239, -0.16770990192890167, -0.15064209699630737], [0.031178519129753113, 0.07033833861351013, 0.02422422356903553, -0.1894010305404663, -0.061289895325899124, -0.1620354950428009, 0.22684462368488312, 0.11083602160215378], [0.04311009496450424, 0.16709233820438385, 0.028266169130802155, 0.005073159001767635, 0.10107766836881638, -0.027219006791710854, -0.15110674500465393, 0.10460560023784637], [-0.17484259605407715, 0.1604463756084442, 0.06991472095251083, 0.12144114077091217, 0.0169496089220047, -0.028091736137866974, 0.08074624836444855, -0.10832023620605469], [-0.0355292409658432, 0.048645153641700745, 0.1253882646560669, 0.016456061974167824, -0.1582653522491455, -0.21034394204616547, 0.031466756016016006, 0.0077386233024299145], [0.16625341773033142, 0.1271374225616455, -0.29157209396362305, 0.04025886207818985, -0.11411013454198837, 0.17337915301322937, -0.01908336952328682, 0.12336517125368118], [-0.07744333893060684, -0.13195282220840454, -0.24633392691612244, 0.1550723761320114, -0.052936356514692307, -0.12642884254455566, 0.07527341693639755, -0.06379248946905136], [-0.15078775584697723, 0.04630986228585243, 0.15941180288791656, -0.17350035905838013, 0.02392105758190155, 0.19548536837100983, -0.1937665194272995, -0.15384745597839355], [0.10438992828130722, -0.11559122055768967, 0.12767758965492249, -0.22970536351203918, -0.11891953647136688, 0.13223201036453247, -0.01740376465022564, 0.1257205605506897], [0.009313172660768032, -0.036345623433589935, -0.005411568097770214, -0.22227992117404938, 0.14132468402385712, -0.16077052056789398, -0.05590365454554558, 0.017454704269766808], [0.1623736023902893, -0.020798657089471817, 0.16660229861736298, -0.015653716400265694, 0.17328651249408722, -0.13621072471141815, -0.08658763021230698, 0.12722739577293396], [-0.16682282090187073, 0.08319506049156189, -0.04024156183004379, 0.1800951063632965, 0.15329119563102722, 0.12082064896821976, -0.03103376179933548, 0.04385225102305412], [-0.174383744597435, -0.13386359810829163, -0.13910169899463654, 0.025720009580254555, -0.2361297309398651, -0.0626719743013382, -0.04575075954198837, -0.1529817432165146], [-0.14301073551177979, -0.06983322650194168, 0.1994597166776657, -0.03915446251630783, 0.09980281442403793, -0.16842731833457947, 0.19895188510417938, -0.15394921600818634], [-0.16523858904838562, 0.16914072632789612, 0.03523968532681465, -0.1657077670097351, -0.05774840712547302, 0.1027790978550911, -0.14441293478012085, -0.12084544450044632]], "b0": [0.04738786071538925, -0.04013093560934067, 0.04099729657173157, 0.017925793305039406, -0.013533911667764187, -0.08324915915727615, 0.03318069875240326, -0.006019685883074999, 0.03641970828175545, 0.07179880142211914, -0.0029991730116307735, 0.052075814455747604, 0.0030557389836758375, -0.04151545837521553, 0.0025004795752465725, 0.034784067422151566, 0.007851427420973778, -0.02270987443625927, 0.013287430629134178, 0.026216423138976097, -0.002369962865486741, 0.05394499748945236, -0.02310938388109207, -0.00022077343601267785, 0.029803061857819557, 0.044459354132413864, -0.08578314632177353, 0.037285517901182175, -0.018436824902892113, 0.08814413845539093, 0.010329479351639748, -0.0017071878537535667, 0.007496767211705446, 0.07244706898927689, -0.034442316740751266, -0.05734178423881531, -0.10024652630090714, 0.021158145740628242, 0.01612185128033161, -0.03623339906334877, -0.05376040190458298, -0.09827462583780289, 0.04854918271303177, -0.02409731037914753, 0.05633733794093132, 0.02760264277458191, -0.026452546939253807, 0.11498954892158508, -0.026833392679691315, 0.02665637619793415, 0.0007913541630841792, 0.0015248646959662437, -0.03318529948592186, -0.00911595020443201, -0.021551962941884995, -0.018316306173801422, 0.03339344635605812, 0.0625840499997139, 0.007449037861078978, 0.030356353148818016, 0.037362389266490936, -0.069351926445961, -0.05561664700508118, -0.010711587965488434, -0.022812357172369957, -0.016445457935333252, -0.03438747674226761, 0.0038805410731583834, -0.01953117363154888, -0.01094614714384079, -0.06159600988030434, -0.09509405493736267, 0.06419122964143753, 0.0034533643629401922, 0.05157805234193802, -0.04197471961379051, -0.023004427552223206, 0.07031475752592087, 0.07367023080587387, -0.07162080705165863, 0.05043650045990944, -0.023764872923493385, -0.06277318298816681, -0.024719733744859695, -0.004766942001879215, -0.02539297565817833, -0.04798373952507973, -0.034390758723020554, 0.025452321395277977, 0.019327424466609955, -0.024784445762634277, -0.09300215542316437, -0.008113516494631767, -0.09095965325832367, 0.013244891539216042, -0.0033138340804725885, -0.015233134850859642, -0.0017103820573538542, -0.0016760181169956923, 0.03560284897685051, 0.026542438194155693, 0.008717972785234451, -0.011197655461728573, -0.06225082278251648, 0.049366433173418045, 0.03492745757102966, -0.010757304728031158, 0.012714704498648643, -0.018021821975708008, 0.021430015563964844, 0.049588777124881744, -0.014675934799015522, 0.0004553311155177653, 0.06581908464431763, 0.03518367558717728], "w1": [[-1.037914785229077e-06, 0.13044622540473938, -0.10029615461826324, 0.08604372292757034, 0.12292008101940155, 0.009237192571163177, -0.023119529709219933, -0.13929273188114166, 0.020271237939596176, 0.1468798667192459, -0.2574120759963989, 0.18746550381183624, -0.20610693097114563, 0.06706327944993973, -0.18977990746498108, 0.067526675760746, 0.16062597930431366, 0.09913992881774902, -0.05934518575668335, 0.14722825586795807, -0.07392435520887375, 0.1843089908361435, 0.17603230476379395, 0.02012774720788002, 0.03898341581225395, 0.17992568016052246, -0.20328709483146667, 0.046883586794137955, 0.12265826761722565, 0.008340190164744854, -0.2377696931362152, -0.06484568119049072, 0.11014509201049805, 0.21730898320674896, 0.17695771157741547, -0.20054160058498383, -0.19458723068237305, 0.18875917792320251, -0.15269623696804047, 0.16623619198799133, -0.20682303607463837, 0.07733934372663498, 0.01985369622707367, -0.09843834489583969, 0.1056208536028862, 0.12765461206436157, -0.222213014960289, 0.03539646044373512, -0.1402779221534729, -0.11555352807044983, 0.12239524722099304, 0.18843285739421844, -0.056842561811208725, 0.07854001224040985, -0.19043749570846558, -0.09643346071243286, 0.1422668844461441, 0.09910465776920319, -0.0495242141187191, 0.17928802967071533, -0.08432842046022415, -0.07398169487714767, -0.08873924612998962, 0.12235458940267563, -0.11696965247392654, -0.10946866124868393, -0.06130773946642876, 0.04609763249754906, 0.1505011022090912, 0.10645687580108643, -0.06871764361858368, -0.15423403680324554, -0.200724795460701, 0.08989754319190979, -0.06877905130386353, 0.11444209516048431, -0.14434626698493958, 0.08167901635169983, -0.014212094247341156, -0.02038240246474743, 0.21645303070545197, 0.03269915282726288, -0.19800041615962982, 0.10568784177303314, 0.07714616507291794, -0.2990638315677643, 0.10112742334604263, 0.1117371991276741, 0.010064768604934216, 0.1563849300146103, -0.06927622109651566, -0.1469702422618866, 0.12474893033504486, -0.1632034182548523, -0.1135079562664032, -0.0843513086438179, 0.012708237394690514, 0.16725613176822662, -0.03649171069264412, 0.08619102835655212, 0.029433835297822952, -0.21921904385089874, -0.11567621678113937, 0.016971798613667488, 0.07214750349521637, 0.16865341365337372, -0.049690935760736465, -0.13745678961277008, 0.07196755707263947, 0.008899889886379242, 0.08588775247335434, -0.13397127389907837, 0.16233780980110168, -0.18930821120738983, -0.10217121243476868], [0.03496560826897621, 0.0783291757106781, 0.107642263174057, -0.011242147535085678, -0.03760311007499695, 0.19299699366092682, -0.12654224038124084, 0.13882887363433838, -0.04292857274413109, 0.12454906105995178, -0.20980073511600494, -0.1665976494550705, -0.07284587621688843, 0.12016801536083221, -0.05898765102028847, 0.07655290514230728, 0.017171168699860573, -0.13547857105731964, -0.204106405377388, 0.11867032200098038, -0.060863081365823746, -0.15022099018096924, 0.11096464097499847, -0.054510340094566345, 0.16908322274684906, 0.07377676665782928, -0.06319258362054825, -0.2400873452425003, 0.00632831733673811, -0.1387239396572113, -0.13200093805789948, 0.1735207438468933, 0.061026740819215775, -0.08174899220466614, 0.133305162191391, -0.03584980592131615, 0.18999508023262024, -0.12460927665233612, -0.11771230399608612, -0.042035020887851715, -0.23488792777061462, 0.062435176223516464, -0.14036180078983307, 0.1872618943452835, 0.15218108892440796, 0.10809789597988129, 0.048261675983667374, -0.06925228983163834, -0.1380040943622589, -0.14361661672592163, 0.12856818735599518, 0.1068190261721611, 0.23536480963230133, 0.09660349041223526, -0.13512158393859863, -0.08674946427345276, -0.17743369936943054, -0.08907376229763031, -0.10544457286596298, 0.08696494251489639, 0.14920540153980255, -0.09698397666215897, -0.12459558248519897, 0.09979936480522156, 0.05885044112801552, -0.16603292524814606, 0.22066861391067505, -0.17691481113433838, -0.08298089355230331, -0.018773896619677544, 0.15376675128936768, -0.0553707480430603, -0.1078622043132782, 0.12481877207756042, 0.03280912712216377, 0.17439916729927063, -0.01262092124670744, 0.12955103814601898, 0.02679854817688465, 0.23424960672855377, -0.07342083752155304, -0.16642765700817108, -0.0659981518983841, 0.13874240219593048, 0.12317370623350143, -0.04156121984124184, 0.192991241812706, 0.0408206470310688, -0.08787918090820312, 0.18144343793392181, -0.009397906251251698, -0.1891331970691681, 0.15993262827396393, -0.1485612541437149, 0.046025220304727554, -0.12885260581970215, 0.061488136649131775, -0.03840786591172218, -0.23398065567016602, 0.08440935611724854, -0.060169365257024765, -0.052900973707437515, -0.12731820344924927, 0.11652829498052597, -0.07748213410377502, -0.0715554878115654, -0.04522860795259476, 0.21182461082935333, 0.042918890714645386, 0.08186402171850204, -0.17338141798973083, -0.04374320060014725, 0.17734119296073914, 0.15030783414840698, -0.18061323463916779], [0.08978866040706635, 0.0633319765329361, -0.03885335847735405, 0.11931820958852768, -0.14704346656799316, -0.013972016982734203, 0.08335358649492264, 0.1795637458562851, -0.21836577355861664, 0.20872603356838226, 0.14140556752681732, -0.019801445305347443, 0.09325981140136719, 0.1725391298532486, -0.2156534343957901, 0.10960770398378372, -0.11306390166282654, -0.16505509614944458, 0.04156189411878586, -0.10223996639251709, -0.1932583749294281, 0.01746317185461521, 0.212407186627388, -0.016765398904681206, -0.0015483744209632277, -0.019946305081248283, -0.06174455210566521, 0.11736909300088882, -0.10917424410581589, -0.14081597328186035, -0.15625810623168945, 0.0015838288236409426, -0.19645105302333832, -0.00311445165425539, 0.15990236401557922, 0.15111015737056732, -0.032513972371816635, -0.07761697471141815, 0.14917509257793427, -0.11741916090250015, -0.0580807700753212, -0.060401782393455505, 0.1969175636768341, -0.09522397071123123, -0.207059845328331, 0.1667899340391159, 0.1020774394273758, 0.02770661562681198, 0.1538456529378891, 0.1432957947254181, 0.0891823023557663, -0.012216332368552685, 0.11447105556726456, -0.06103689223527908, 0.008570020087063313, 0.20777150988578796, -0.13591927289962769, -0.1763925701379776, 0.05555754899978638, 0.11498885601758957, 0.12314429879188538, 0.1815851628780365, 0.027446061372756958, -0.09269320964813232, 0.0914224311709404, 0.0569649413228035, 0.07580889016389847, -0.16596947610378265, 0.08432332426309586, -0.19572921097278595, 0.1691359579563141, -0.049442775547504425, -0.1997682899236679, -0.2178134173154831, -0.09002616256475449, 0.1528063714504242, -0.21151916682720184, 0.024483978748321533, -0.1265324205160141, -0.1358902007341385, 0.11771583557128906, 0.05438104271888733, -0.044884517788887024, -0.13684700429439545, 0.1549665927886963, 0.08110154420137405, -0.08138655871152878, 0.13792644441127777, 0.029222065582871437, 0.06552711874246597, -0.04024999588727951, 0.19925038516521454, 0.08545821160078049, -0.0950668677687645, -0.19325369596481323, 0.06247511878609657, 0.07127649337053299, 0.05059618875384331, -0.12974900007247925, 0.022069178521633148, 0.11454340815544128, -0.10700645297765732, -0.1484537422657013, -0.11440072953701019, 0.03214918076992035, -0.0028541875071823597, -0.11190689355134964, -0.0321948379278183, 0.0695384219288826, -0.19913704693317413, -0.11462254822254181, -0.013988375663757324, 0.1480949968099594, -0.07124891877174377, 0.18713168799877167], [-0.07997419685125351, 0.051011428236961365, -0.1332443654537201, 0.23900432884693146, -0.12516656517982483, -0.2671302258968353, 0.012828033417463303, 0.006444008555263281, 0.10854849219322205, 0.014658378437161446, 0.12266965210437775, -0.1928328424692154, 0.23110432922840118, -0.03417178615927696, 0.038101643323898315, -0.012017661705613136, -0.0050346339121460915, 0.07873069494962692, -0.13213710486888885, 0.23251299560070038, -0.09665406495332718, 0.041476547718048096, 0.1468989998102188, 0.038822025060653687, -0.028854520991444588, 0.00509286392480135, 0.19715851545333862, 0.29376643896102905, 0.0928940698504448, -0.06356354802846909, -0.05697629600763321, -0.14124596118927002, 0.22009746730327606, -0.020532285794615746, 0.10876986384391785, -0.29634779691696167, -0.046128880232572556, -0.138065367937088, 0.07955033332109451, -0.20040170848369598, 0.23266816139221191, 0.22210024297237396, 0.04817111790180206, -0.1418115347623825, -0.0635947436094284, 0.18438902497291565, 0.0320306234061718, -0.16477829217910767, -0.12142723053693771, 0.013051234185695648, -0.1030021458864212, -0.1716804951429367, 0.0014125873567536473, -0.029326604679226875, 0.15252481400966644, 0.06559474021196365, 0.1360769122838974, 0.05179953947663307, -0.12581224739551544, -0.20792973041534424, 0.05420956388115883, 0.17167118191719055, 0.223849818110466, 0.15683482587337494, 0.024140074849128723, -0.060299500823020935, -0.16226300597190857, -0.024250585585832596, -0.14138275384902954, 0.13656678795814514, 0.1445857137441635, -0.1589144617319107, -0.07688361406326294, 0.10661652684211731, -0.05558156594634056, 0.11524421721696854, 0.22064007818698883, -0.04866121709346771, 0.03167056292295456, 0.050415270030498505, 0.19278289377689362, 0.11845860630273819, -0.07319572567939758, 0.03548175096511841, 0.0641251727938652, 0.2234499603509903, 0.18875746428966522, -0.11926480382680893, -0.06383945792913437, -0.05380631983280182, 0.15627241134643555, 0.1429804116487503, -0.04379674047231674, 0.06154392287135124, 0.02760348841547966, -0.019147075712680817, -0.0020737801678478718, -0.1469750553369522, -0.03531818836927414, 0.16055847704410553, 0.1513976901769638, -0.17477406561374664, -0.1760154366493225, -0.024044634774327278, -0.18047788739204407, 0.1814831644296646, -0.10310912132263184, 0.08170577883720398, 0.06318575143814087, 0.040761563926935196, -0.022241555154323578, -0.010630529373884201, -0.034311141818761826, -0.1235136091709137, -0.055865831673145294], [0.12206511199474335, -0.20661206543445587, 0.1369086652994156, 0.019538192078471184, -0.18477953970432281, -0.20401309430599213, -0.08031260967254639, 0.09862206876277924, 0.06790129840373993, 0.08369522541761398, -0.09904520958662033, 0.2466115653514862, -0.3149670660495758, -0.07265415787696838, 0.17355278134346008, -0.1236245334148407, -0.1308400183916092, -0.20237746834754944, -0.21080157160758972, 0.1544194221496582, -0.2036055475473404, 0.11179270595312119, -0.24770276248455048, 0.21947722136974335, 0.16913479566574097, 0.052925948053598404, -0.1580384075641632, -0.2076941579580307, -0.13711410760879517, 0.18706876039505005, 0.09430552273988724, -0.18313583731651306, -0.0437336266040802, 0.16882562637329102, -0.11767319589853287, -0.09108617901802063, -0.12000809609889984, -0.04375908151268959, 0.16946561634540558, 0.14177250862121582, -0.08520738035440445, -0.2849385440349579, 0.10608115792274475, 0.054520949721336365, 0.19754166901111603, 0.21328625082969666, -0.011715101078152657, 0.14058244228363037, 0.08566973358392715, -0.09698569774627686, -0.12288152426481247, -0.008912616409361362, -0.011713937856256962, 