{"ft": {"w0": [[0.31907182931900024, 0.5187580585479736, -0.041021522134542465, -0.579401433467865, -0.22216832637786865, 0.5392440557479858, -0.46736007928848267], [-0.39824068546295166, -0.4674285650253296, -0.5826100707054138, -0.4878804087638855, 0.49378660321235657, -0.08515877276659012, -0.28415244817733765], [0.19113396108150482, 0.3294893801212311, 0.04064013063907623, -0.33634090423583984, 0.10760944336652756, -0.13618053495883942, 0.16073794662952423], [0.10753930360078812, 0.08543240278959274, -0.5256702303886414, -0.5361451506614685, -0.023251798003911972, -0.4909723699092865, -0.01887550950050354], [-0.1901029646396637, 0.5149558782577515, -0.36949461698532104, 0.23876766860485077, 0.07675078511238098, 0.5579182505607605, -0.4544471800327301], [0.2934429943561554, 0.6405835747718811, -0.3476365804672241, 0.26347920298576355, -0.402275413274765, 0.6426703333854675, 0.04262314364314079]], "b0": [0.013114742003381252, -0.08626057952642441, 0.15905362367630005, 0.04684648662805557, -0.15735115110874176, 0.009699204936623573], "w1": [[0.4107576906681061, -0.12825925648212433, 0.3932746946811676, 0.019790170714259148, 0.38679617643356323, 0.1538059264421463, 0.5060377717018127, -0.17376841604709625, -0.3814822733402252, 0.3341718018054962, 0.20823636651039124, 0.3575557470321655], [0.33603712916374207, -0.09842540323734283, 0.3191239535808563, -0.099883534014225, 0.3718946874141693, -0.4586351215839386, 0.15215297043323517, 0.4671902656555176, 0.022978579625487328, 0.4793728291988373, 0.015926573425531387, -0.5323148369789124], [-0.4471879303455353, -0.06657613813877106, 0.14130203425884247, 0.05023050308227539, -0.18268699944019318, -0.5060173869132996, 0.42695924639701843, 0.3420222997665405, -0.08121509104967117, 0.14683657884597778, 0.2760956585407257, -0.3334853947162628], [-0.40306898951530457, 0.20221461355686188, 0.07915443181991577, 0.45413076877593994, 0.4993947446346283, -0.32129740715026855, 0.12505055963993073, -0.5398055911064148, 0.3219027519226074, 0.27971211075782776, -0.06446871906518936, 0.10356321185827255], [0.27844107151031494, 0.34495946764945984, -0.15116271376609802, 0.5384650230407715, 0.011345463804900646, -0.3799814283847809, -0.4682422876358032, 0.2677607238292694, 0.5240492820739746, -0.0639222264289856, -0.3094046413898468, -0.3167997896671295], [-0.4949050545692444, -0.026939790695905685, -0.5451624989509583, 0.41991573572158813, 0.4133795499801636, -0.13921183347702026, -0.5705572366714478, -0.4425109922885895, -0.3525628447532654, -0.46595242619514465, -0.4601861536502838, -0.44532376527786255]], "b1": [-0.10916934162378311, -0.05497511848807335, 0.08741740137338638, -0.09671059995889664, 0.040640316903591156, 0.024963252246379852]}, "it": {"w0": [[0.20360703766345978, 0.3308555781841278, 0.25780364871025085, 0.3883397877216339, 0.2805453836917877, -0.3045428395271301, -0.22716562449932098], [0.7649616003036499, -0.6128441691398621, 0.5308800339698792, 0.08477097749710083, 0.6446454524993896, 0.2873913049697876, -0.35677358508110046], [0.48934245109558105, -0.06143507361412048, 0.5094740986824036, -0.10236407816410065, -0.5195426940917969, -0.08831678330898285, 0.16633287072181702], [0.5621647238731384, 0.5548976063728333, 0.4641311466693878, 0.3681175112724304, -0.07213480025529861, -0.1842026263475418, 0.03041795827448368], [0.6016073226928711, -0.005114691331982613, -0.5427561402320862, -0.4761122465133667, -0.3580647110939026, 0.13290128111839294, -0.20264491438865662], [0.10785330086946487, 0.43888476490974426, 0.39346128702163696, 0.3173348903656006, -0.6509052515029907, -0.5780602693557739, -0.4767058789730072]], "b0": [0.12431921064853668, 0.29540762305259705, 0.05798858031630516, 0.20984016358852386, 0.5094932913780212, 0.01177288219332695], "w1": [[0.2891310751438141, -0.24820920825004578, -0.007910487242043018, 0.4400787651538849, -0.4897986650466919, -0.414176344871521, 0.37118563055992126, -0.40620148181915283, -0.4984419047832489, -0.2907644808292389, -0.4857157766819, 0.3312155306339264], [-0.3835980296134949, -0.4438183307647705, 0.557701587677002, -0.5651570558547974, -0.42223039269447327, -0.3390812873840332, 0.19346189498901367, -0.5612452626228333, 0.2627471089363098, -0.4416799247264862, -0.21291743218898773, -0.2697901725769043], [-0.5494768023490906, 0.10542271286249161, -0.46186691522598267, 0.3545973002910614, 0.32900696992874146, -0.11748812347650528, -0.3547436594963074, 0.2048453390598297, -0.1816292405128479, -0.2537268102169037, -0.15646594762802124, -0.135517880320549], [-0.3840171992778778, 0.1727522611618042, -0.4273538887500763, 0.34222137928009033, 0.5414917469024658, 0.33973515033721924, -0.11419990658760071, 0.39282119274139404, 0.3764127492904663, -0.42254340648651123, 0.26043587923049927, -0.392134428024292], [0.46341753005981445, -0.2219124436378479, -0.5079596638679504, -0.2052227109670639, 0.12744127213954926, -0.22629308700561523, 0.35300585627555847, -0.04792046546936035, -0.205946147441864, 0.15903133153915405, 0.23063305020332336, -0.4332522749900818], [0.25887688994407654, -0.07829846441745758, -0.09478503465652466, -0.05660509690642357, 0.04156837984919548, 0.24478331208229065, -0.0770668163895607, -0.3036344349384308, -0.05121558904647827, 0.4759056866168976, -0.39608433842658997, 0.054611533880233765]], "b1": [0.321796715259552, 0.044397201389074326, 0.030659250915050507, 0.13406524062156677, 0.10923536866903305, 0.05718710273504257]}, "Ctild_t": {"w0": [[0.881417989730835, -0.5184232592582703, -0.46012571454048157, -0.05252229794859886, -0.30440959334373474, -0.1823873072862625, -0.5378512740135193], [1.1954723596572876, -0.5859326720237732, 0.4504256844520569, -0.2632848024368286, -0.3251124322414398, 0.35793760418891907, -0.34967637062072754], [0.4789486229419708, 0.47476306557655334, 0.3621225655078888, 0.6532853245735168, 0.4197022318840027, 0.0017648836364969611, 0.5782402157783508], [1.1197400093078613, 0.4759090840816498, 0.5139888525009155, -0.14170043170452118, -0.5439412593841553, -0.6233224868774414, 0.53141188621521], [-1.4997531175613403, -0.24089686572551727, 1.0380651950836182, 0.5122122764587402, 0.5310667157173157, -0.6083799004554749, -0.25559771060943604], [0.035137731581926346, 0.11209902167320251, 0.24500879645347595, 0.38139787316322327, 0.30778712034225464, -0.44919145107269287, -0.09767793118953705]], "b0": [-0.5198773145675659, -0.6941542029380798, -0.20787517726421356, -0.5821282863616943, 0.8514081239700317, -0.04989996924996376], "w1": [[0.33142247796058655, 0.9655587673187256, 0.702436089515686, 0.4451298117637634, -0.9868416786193848, -0.09296338260173798, -0.28797855973243713, -0.008903590962290764, 0.33695635199546814, 0.21425217390060425, -0.018601907417178154, 0.1481834203004837], [-0.2328566163778305, -0.28269386291503906, 0.3660866916179657, 0.12972864508628845, 0.8951898813247681, -0.38855695724487305, -0.47223100066185, -0.2579669654369354, 0.18120136857032776, 0.23152725398540497, -0.2845849096775055, 0.17411498725414276], [0.5357266664505005, 0.10119273513555527, -0.16523639857769012, -0.43114060163497925, -0.1338559240102768, 0.3776964545249939, 0.4429730772972107, -0.003040547017008066, -0.05776292830705643, -0.5203350782394409, 0.08108434081077576, 0.1376437097787857], [0.43680423498153687, 0.6407656073570251, -0.12406720221042633, 0.16460095345973969, -0.8858016133308411, 0.013028259389102459, 0.04375450313091278, 0.35612764954566956, -0.04000532999634743, 0.2582310140132904, -0.021858511492609978, -0.09632353484630585], [0.2061641365289688, -0.07491401582956314, 0.14461387693881989, 0.5998045206069946, -0.5705101490020752, 0.0218524020165205, 0.07057658582925797, 0.4838903546333313, -0.6203426718711853, 0.5516742467880249, 0.18798021972179413, -0.03874029219150543], [-0.4510931074619293, -0.13192975521087646, 0.15146437287330627, -0.6553362011909485, 0.114054374396801, 0.04830165207386017, 0.3485921621322632, 0.10199630260467529, 0.4634189307689667, 0.308087557554245, 0.5289464592933655, -0.1287447065114975]], "b1": [0.07694519311189651, 0.02645156718790531, -0.1840699464082718, -0.015774652361869812, 0.052904605865478516, -0.003554264549165964]}, "ot": {"w0": [[-0.07764863222837448, -0.1721721887588501, 0.5295597910881042, 0.6838841438293457, 0.2968614101409912, 0.18761630356311798, -0.5629281401634216], [0.7462252974510193, -0.6465326547622681, 0.6381196975708008, 0.29493623971939087, 0.30730459094047546, 0.16136088967323303, 0.4423280358314514], [-0.2329852133989334, -0.36994296312332153, -0.19844448566436768, -0.3583596348762512, -0.18145573139190674, 0.34748029708862305, -0.12150339037179947], [-0.3912971615791321, -0.5907942056655884, 0.5041921734809875, 0.5608124732971191, 0.13681307435035706, 0.03309305012226105, -0.18728819489479065], [0.05385613813996315, 0.6261085867881775, -0.4903102219104767, -0.05022476986050606, -0.34436070919036865, -0.652438223361969, 0.03888867050409317], [-0.06770637631416321, -0.006671779789030552, -0.12468725442886353, -0.1767689287662506, -0.29142844676971436, 0.3313673138618469, 0.1839943528175354]], "b0": [0.13545361161231995, 0.30099838972091675, 0.08363858610391617, 0.3171505331993103, 0.5911741256713867, 0.008235362358391285], "w1": [[-0.12958811223506927, 0.2763190269470215, 0.40288448333740234, 0.4718831479549408, 0.4501240849494934, 0.5782700181007385, -0.22756513953208923, -0.13379961252212524, 0.3880114257335663, 0.35127267241477966, 0.3262500464916229, -0.09831852465867996], [-0.31428948044776917, 0.4486449658870697, -0.01390291377902031, -0.21710573136806488, -0.05457175895571709, 0.4358399510383606, 0.0519854798913002, 0.3443351089954376, -0.07350630313158035, 0.1769508570432663, -0.06461593508720398, 0.3184959590435028], [0.13096891343593597, 0.34051892161369324, -0.2328789234161377, 0.04997312277555466, 0.35282662510871887, -0.01592252403497696, 0.07064260542392731, -0.5638980865478516, 0.286866158246994, 0.5783489346504211, -0.4002665579319, -0.32905542850494385], [-0.0617934949696064, 0.1637955605983734, 0.37316811084747314, 0.5726012587547302, 0.03965574875473976, -0.4552612900733948, 0.5528295636177063, 0.3643004596233368, 0.4612920582294464, -0.2173350751399994, -0.5747855305671692, -0.4748670756816864], [0.17138108611106873, -0.5307153463363647, -0.13541972637176514, -0.23768551647663116, -0.0552852600812912, 0.27866068482398987, 0.1976233422756195, 0.38870126008987427, -0.5079102516174316, -0.2355179637670517, -0.5883188247680664, 0.5260797739028931], [-0.5501699447631836, 0.2672446370124817, -0.40587636828422546, 0.30324336886405945, 0.5617231726646423, 0.07071760296821594, 0.38115084171295166, -0.43157148361206055, -0.03328118100762367, -0.4154329299926758, 0.146401047706604, 0.20243698358535767]], "b1": [0.38283592462539673, 0.04291052743792534, 0.014371481724083424, 0.06506872177124023, 0.07945585250854492, 0.08792157471179962]}, "mlp": {"w0": [[-0.19651202857494354, -0.10664230585098267, -0.1735542118549347, -0.019960306584835052, -0.1832091063261032, -0.15039153397083282], [0.07380391657352448, -0.028450176119804382, 0.08274153620004654, -0.0012568488018587232, 0.09568776190280914, 0.1361619085073471], [0.038428060710430145, -0.02881019189953804, 0.16495561599731445, -0.05032525584101677, -0.16442355513572693, -0.004372244235128164], [0.024232899770140648, 0.08098846673965454, 0.045768339186906815, -0.11886391043663025, 0.07284525781869888, 0.1663513034582138], [0.05223524942994118, -0.1650257706642151, 0.21322885155677795, -0.005714533384889364, 0.020842164754867554, -0.17775389552116394], [-0.056355081498622894, 0.1603558361530304, 0.17472733557224274, -0.1256902813911438, 0.11963403970003128, 0.1431831568479538], [-0.22768913209438324, 0.08199697732925415, 0.2033175379037857, -0.19048918783664703, -0.04878581315279007, -0.1498117446899414], [0.11691252887248993, 0.028979338705539703, 0.18237388134002686, 0.04450241103768349, 0.08347813785076141, -0.058992497622966766], [-0.10013921558856964, -0.010607301257550716, 0.08091352880001068, -0.036332543939352036, 0.11661099642515182, -0.08828546851873398], [0.11331263184547424, 0.10652776807546616, 0.07178931683301926, 0.21479983627796173, -0.02653156965970993, 0.23262979090213776], [-0.5407047271728516, 0.18185995519161224, -0.3030484616756439, -0.37287217378616333, -0.044661786407232285, 0.38535434007644653], [0.04686199128627777, -0.16442836821079254, 0.09489957988262177, -0.18549884855747223, 0.09303010255098343, 0.17791847884655], [-0.2043638378381729, 0.05847405642271042, 0.09244173020124435, 0.18667690455913544, -0.21346859633922577, 0.178079754114151], [0.12163396179676056, -0.160548597574234, 0.04786587134003639, 0.11921002715826035, 0.031796347349882126, 0.2086305320262909], [0.16230244934558868, 0.04567345604300499, -0.0605936199426651, -0.19002796709537506, -0.1730838567018509, -0.08509980142116547], [-0.13265304267406464, -0.09799568355083466, 0.009287475608289242, 0.17919668555259705, -0.19434289634227753, 0.034135524183511734], [0.12365985661745071, -0.050983745604753494, 0.2243705540895462, -0.036111000925302505, 0.11526850610971451, -0.06107819825410843], [-0.20233920216560364, -0.06350535899400711, -0.11329402774572372, 0.04825069382786751, -0.1408255696296692, 0.02666480280458927], [-0.13757489621639252, 0.09647008031606674, -0.07735276222229004, -0.05637849122285843, 0.12180609256029129, 0.15528902411460876], [-0.29195135831832886, 0.20606133341789246, -0.07674305140972137, 0.08606152981519699, 0.057822007685899734, 0.2472042739391327], [-0.5291698575019836, 0.03370095416903496, 0.22682976722717285, -0.35503414273262024, -0.32388585805892944, -0.08479525148868561], [0.12069522589445114, 0.06620430946350098, 0.15444540977478027, -0.0076700677163898945, -0.011737332679331303, 0.18262505531311035], [0.21638235449790955, -0.11150632053613663, -0.22313475608825684, -0.013040187768638134, 0.05332448333501816, 0.09167993813753128], [-0.06998995691537857, -0.02057955600321293, -0.1901271939277649, -0.02118130773305893, 0.2951146960258484, 0.17768089473247528], [-0.16278573870658875, -0.20282875001430511, -0.018584730103611946, -0.17989656329154968, 0.16568680107593536, 0.028960643336176872], [-0.0923205018043518, 0.08987005054950714, -0.10364696383476257, -0.03207939490675926, -0.1960497796535492, -0.04819919541478157], [0.13539068400859833, 0.04117878898978233, 0.17940746247768402, -0.11187445372343063, 0.17838451266288757, -0.028363747522234917], [0.2090117186307907, -0.14315058290958405, 0.1793803870677948, 0.20306020975112915, -0.20625662803649902, -0.007733367849141359], [-0.3619632422924042, 0.11444155871868134, -0.07620001584291458, 0.1304016262292862, 0.19261208176612854, 0.221356600522995], [0.17235678434371948, 0.04497969523072243, 0.15896932780742645, -0.21376800537109375, 0.08882927149534225, -0.10230515897274017], [-0.012153659015893936, 0.011031273752450943, -0.0786820575594902, -0.19648247957229614, -0.009576361626386642, 0.10580303519964218], [-0.008789196610450745, -0.13016510009765625, 0.07630645483732224, 0.16258670389652252, -0.07962202280759811, -0.22228525578975677], [-0.05442364141345024, 0.17742659151554108, -0.06619998067617416, -0.14181777834892273, -0.08524356037378311, 0.14496566355228424], [-0.09367526322603226, -0.18535500764846802, 0.21460171043872833, -0.2218601554632187, 0.16222843527793884, -0.2069045454263687], [0.022648777812719345, 0.13830333948135376, 0.1100073829293251, 0.21696197986602783, 0.05202263221144676, -0.03471088781952858], [-0.14729095995426178, 0.03930066525936127, -0.07272253930568695, -0.08359679579734802, 0.018901752308011055, -0.17884498834609985], [-0.004552927799522877, 0.0239121001213789, 0.10139776021242142, 0.2127983719110489, 0.15480764210224152, 0.05416533723473549], [0.20934036374092102, -0.00019885817891918123, 0.031009715050458908, -0.09042472392320633, -0.12690085172653198, 0.16506192088127136], [-0.07766077667474747, 0.024126337841153145, 0.04681567847728729, -0.13216061890125275, -0.1695559173822403, -0.07717706263065338], [-0.13612255454063416, -0.2010316550731659, -0.022771338000893593, 0.18963371217250824, 0.2196526974439621, -0.20502060651779175], [0.2709377110004425, -0.3082491457462311, 0.05691854655742645, -0.10883469879627228, 0.2606896758079529, 0.22963209450244904], [0.13090579211711884, 0.23539751768112183, -0.09253848344087601, 0.014527330175042152, -0.1938648819923401, 0.17329788208007812], [-0.18877685070037842, -0.06107722222805023, 0.15847602486610413, -0.26949307322502136, -0.1959526091814041, 0.19894559681415558], [-0.18677857518196106, -0.21334326267242432, -0.183971107006073, 0.1590603142976761, 0.11571807414293289, 0.13730725646018982], [0.12280511856079102, 0.11088680475950241, 0.16428235173225403, -0.21631905436515808, -0.03850484639406204, 0.09135856479406357], [-0.0051279617473483086, 0.025413159281015396, 0.21000641584396362, -0.07016345113515854, 0.06652764230966568, -0.055372223258018494], [-0.02472810260951519, -0.08310585469007492, -0.19092796742916107, -0.15510983765125275, 0.186120867729187, -0.1547108292579651], [0.19502019882202148, 0.16529463231563568, 0.16324114799499512, -0.12376567721366882, 0.08466300368309021, 0.2305632382631302], [-0.0017961629200726748, 0.08392500132322311, 0.18713629245758057, -0.1287134289741516, 0.2011871486902237, -0.2258584350347519], [0.6704964637756348, -0.3273612856864929, 0.15596897900104523, 0.5498592257499695, 0.24416011571884155, -0.25954470038414], [0.23386304080486298, -0.20956097543239594, 0.009822707623243332, 0.05721192806959152, 0.15367543697357178, -0.1399763524532318], [-0.0393977090716362, 0.1335565149784088, 0.09501449763774872, -0.04912642762064934, -0.17750251293182373, -0.11053185164928436], [0.03364270552992821, 0.1351054608821869, -0.23199494183063507, 0.016067378222942352, 0.24489589035511017, 0.21063287556171417], [0.10164622217416763, -0.23675887286663055, -0.21166008710861206, -0.09603326767683029, -0.16463622450828552, -0.06134943664073944], [-0.13604135811328888, 0.15561026334762573, 0.09727555513381958, 0.18492312729358673, 0.04040796309709549, -0.09201662987470627], [-0.01454847864806652, -0.21312355995178223, 0.18094979226589203, -0.10111287981271744, 0.045620888471603394, 0.007215527351945639], [0.038431163877248764, 0.1781214326620102, -0.20317792892456055, 0.16328713297843933, -0.0988488495349884, 0.019150324165821075], [-0.21313898265361786, 0.1720312237739563, -0.21747180819511414, -0.1851581633090973, -0.009324498474597931, -0.045325856655836105], [0.03913034126162529, -0.08337879180908203, -0.05502239987254143, 0.13477422297000885, 0.27277758717536926, 0.013581644743680954], [-0.05659486725926399, 0.004292743280529976, -0.1329520344734192, 0.18998442590236664, 0.07428310811519623, -0.10667654871940613], [-0.1961728036403656, 0.1768280565738678, -0.14768089354038239, -0.22282786667346954, 0.21457576751708984, -0.11705778539180756], [-0.009319217875599861, -0.008432233706116676, 0.06412734091281891, -0.12977315485477448, -0.16347356140613556, -0.04201943054795265], [0.031233271583914757, 0.11507900059223175, 0.1094469279050827, 0.11248856782913208, -0.12993817031383514, 0.011674225330352783], [0.20729035139083862, 0.18253828585147858, -0.22882230579853058, 0.0528973750770092, 0.22339172661304474, -0.16867399215698242], [-0.110450878739357, -0.007422424387186766, -0.08760077506303787, 0.1572035551071167, 0.057346589863300323, 0.21806655824184418], [-0.1228632852435112, -0.021675053983926773, -0.11266657710075378, 0.040721744298934937, 0.11741013079881668, 0.08744847029447556], [-0.43669384717941284, 0.33853796124458313, 0.027641786262392998, -0.22050286829471588, -0.19751204550266266, -0.09985049068927765], [0.03543108329176903, 0.11952163279056549, 0.030616696923971176, 0.15346834063529968, 0.16855156421661377, -0.08744649589061737], [0.20759539306163788, -0.04233947768807411, -0.11628589779138565, -0.20138920843601227, 0.023505672812461853, -0.03147996962070465], [0.10781285911798477, -0.18290366232395172, -0.1696026474237442, -0.14563573896884918, 0.17223656177520752, 0.18705813586711884], [0.12612752616405487, -0.25002986192703247, -0.1382274478673935, 0.0022276199888437986, 0.059421032667160034, 0.0920802503824234], [0.09450598806142807, 0.04033110290765762, 0.2368227243423462, 0.021351944655179977, 0.19371898472309113, 0.059257589280605316], [0.052448123693466187, -0.2259749174118042, 0.029114877805113792, -0.08816394209861755, 0.1915944367647171, -0.1922057420015335], [0.4449934661388397, -0.2011629194021225, 0.21948829293251038, 0.21187268197536469, 0.27207356691360474, -0.148048534989357], [0.1145642101764679, -0.0691978707909584, -0.06879779696464539, 0.17760516703128815, 0.22974573075771332, 0.18635305762290955], [-0.3099001348018646, 0.14274202287197113, 0.17116397619247437, -0.3051298260688782, -0.2758329510688782, 0.09150469303131104], [0.03791961073875427, 0.017778916284441948, -0.03934275731444359, -0.15171971917152405, 0.13783042132854462, -0.024345314130187035], [-0.1443803310394287, -0.04876531660556793, -0.12287789583206177, -0.16928401589393616, 0.0166549701243639, 0.19344961643218994], [-0.12691935896873474, -0.12415941059589386, 0.09494191408157349, 0.13985863327980042, 0.11457561701536179, 0.18397626280784607], [-0.015438909642398357, 0.13608157634735107, 0.12672652304172516, 0.1168019250035286, 0.10370704531669617, -0.10984459519386292], [-0.07552782446146011, 0.018256772309541702, 0.18167416751384735, 0.04498704522848129, -0.00750970421358943, -0.22132040560245514], [-0.08494698256254196, -0.023054007440805435, -0.0130565594881773, 0.20067454874515533, -0.18391771614551544, -0.002112025860697031], [-0.06387311220169067, -0.09328118711709976, -0.011437125504016876, -0.08616509288549423, 0.09747802466154099, 0.2198837250471115], [0.0982895940542221, -0.19834817945957184, 0.03573765978217125, -0.054911620914936066, -0.06951095163822174, 0.15800966322422028], [-0.07359761744737625, 0.21283380687236786, 0.1594613492488861, -0.19812379777431488, -0.11539860814809799, -0.054809197783470154], [-0.004573967773467302, 0.07304183393716812, 0.0487203374505043, -0.005267777480185032, 0.03911742568016052, 0.1496977061033249], [-0.23541893064975739, 0.010112742893397808, 0.04427449032664299, 0.16248922049999237, 0.1913084238767624, -0.014475589618086815], [0.037824906408786774, -0.12472440302371979, -0.16304349899291992, -0.12173707783222198, 0.12755396962165833, 0.06752599030733109], [0.1009935811161995, -0.1363958865404129, 0.14103606343269348, -0.20117254555225372, -0.1259692907333374, 0.1864698976278305], [0.23380672931671143, -0.19876432418823242, -0.08434101939201355, 0.11517507582902908, 0.22019316256046295, -0.17013727128505707], [-0.18872369825839996, -0.207987979054451, -0.09165773540735245, -0.13989153504371643, -0.22958673536777496, -0.15362749993801117], [0.23305180668830872, 0.18208755552768707, -0.10918109118938446, -0.12337898463010788, 0.15652570128440857, -0.1410369575023651], [-0.4087428152561188, -0.12271647155284882, -0.0058624232187867165, 0.17439332604408264, -0.31219109892845154, -0.2154606431722641], [-0.186862051486969, 0.19817624986171722, -0.08079394698143005, -0.0938694104552269, -0.19748343527317047, 0.19799861311912537], [-0.036279644817113876, 0.17460361123085022, 0.19036033749580383, 0.15691961348056793, 0.19323639571666718, -0.19874414801597595], [0.09694094210863113, 0.18591654300689697, 0.13657641410827637, -0.12208177894353867, 0.21468085050582886, -0.20140419900417328], [0.12762223184108734, -0.007362619042396545, 0.04030485823750496, -0.10539408773183823, 0.09895029664039612, -0.07045174390077591], [0.1102646067738533, 0.1517409086227417, -0.2060510665178299, 0.06321568042039871, -0.018548695370554924, -0.12158939242362976], [0.09675248712301254, 0.06506601721048355, -0.10860908031463623, 0.13782159984111786, -0.04386350139975548, 0.14648129045963287], [0.018001744523644447, -0.151844322681427, 0.22430266439914703, 0.09221874177455902, -0.1576320230960846, -0.1431976854801178], [-0.008993780240416527, 0.20725099742412567, 0.16255535185337067, 0.026200005784630775, -0.20606830716133118, -0.0349946953356266], [-0.15958526730537415, 0.044582124799489975, -0.13567934930324554, -0.13455292582511902, -0.08362553268671036, -0.008752296678721905], [-0.21106931567192078, 0.18314367532730103, 0.17330145835876465, 0.1801370084285736, 0.0369877964258194, -0.04326774179935455]], "b0": [-0.13590538501739502, -0.41561809182167053, -0.09119682759046555, -0.06481795758008957, -0.1480967104434967, -0.03664758428931236, -0.24350856244564056, 0.03520701825618744, -0.09525042772293091, -0.0854773297905922, 0.018629010766744614, -0.08443430066108704, -0.08871841430664062, -0.34684842824935913, -0.01965978555381298, -0.1568329632282257, -0.3400338292121887, -0.16777969896793365, -0.0750226378440857, -0.009094188921153545, 0.026931196451187134, -0.023387165740132332, -0.34109845757484436, -0.01853499747812748, -0.18824473023414612, -0.1825810968875885, -0.10614461451768875, -0.0952136218547821, 0.07129057496786118, -0.17004622519016266, -0.10205218195915222, -0.024121612310409546, -0.3715367317199707, -0.268668532371521, -0.014881476759910583, -0.03722406178712845, -0.23771825432777405, -0.042595960199832916, -0.3430171310901642, -0.17736834287643433, -0.04217007756233215, -0.08680204302072525, 0.06423547863960266, -0.39313626289367676, -0.23598513007164001, -0.07799139618873596, -0.09683530032634735, -0.07314207404851913, -0.036501992493867874, 0.01632613316178322, 0.013147477060556412, -0.12085555493831635, -0.021151667460799217, -0.07342393696308136, -0.07008489221334457, -0.1929231733083725, -0.10456626862287521, -0.11680857092142105, -0.007109278813004494, -0.1507144272327423, -0.09713825583457947, -0.14744357764720917, -0.13395170867443085, -0.35782837867736816, -0.1563502699136734, -0.12097687274217606, 0.006475895177572966, -0.37458768486976624, -0.36945274472236633, -0.21170389652252197, -0.09320317953824997, -0.3930955231189728, -0.10351058095693588, 0.024842416867613792, -0.17908494174480438, 0.029519597068428993, -0.03841586783528328, -0.3892163634300232, -0.37162503600120544, -0.07314605265855789, -0.1833881437778473, 0.010332062840461731, -0.29245033860206604, -0.08056686818599701, -0.14448992908000946, -0.030666649341583252, -0.06471231579780579, -0.28883418440818787, -0.056807659566402435, -0.1395769864320755, -0.11453063040971756, -0.06871478259563446, 0.010556889697909355, -0.15498991310596466, -0.0857267677783966, -0.22189952433109283, -0.26587533950805664, -0.11024139821529388, -0.34997695684432983, -0.07028381526470184, -0.14247474074363708, -0.12985023856163025, -0.11068297922611237], "w1": [[-0.034683894366025925, -0.1987932324409485, -0.12363702803850174, -0.14456656575202942, -0.07054940611124039, -0.07879045605659485, -0.18344911932945251, 0.06643057614564896, -0.16060622036457062, -0.13438758254051208, -0.3027617037296295, -0.08079396188259125, -0.10949009656906128, -0.14664538204669952, -0.025479817762970924, -0.19631502032279968, -0.17233552038669586, -0.2106982320547104, -0.13626107573509216, -0.25544264912605286, -0.3581092059612274, -0.010294974781572819, -0.10699177533388138, -0.16979560256004333, -0.08926630020141602, -0.21981459856033325, -0.015424632467329502, -0.06536714732646942, -0.18890364468097687, -0.0464298315346241, -0.1813289374113083, -0.05985385924577713, -0.1596241593360901, -0.2084432989358902, -0.09856874495744705, -0.020959937945008278, -0.09365829080343246, -0.00840074010193348, -0.18240949511528015, 0.05152754858136177, 0.25297489762306213, -0.04514806345105171, -0.09337690472602844, -0.2079363912343979, -0.07586858421564102, -0.17423254251480103, -0.00681264279410243, -0.14775893092155457, -0.008593247272074223, 0.5371252298355103, 0.10716007649898529, -0.063212551176548, -0.1400766372680664, -0.1846897006034851, -0.10059750825166702, -0.07246038317680359, -0.12022145092487335, -0.12137208878993988, -0.0415925607085228, -0.05316269397735596, -0.049157656729221344, -0.18004417419433594, -0.03901062533259392, -0.1402340531349182, -0.034878943115472794, -0.02632935903966427, -0.2909983694553375, -0.1777970790863037, -0.15895883738994598, -0.05295741930603981, -0.1843055933713913, -0.1975943148136139, -0.03936103731393814, 0.29657572507858276, -0.0389423705637455, -0.2365996539592743, 0.02833297848701477, -0.18033167719841003, -0.2023891657590866, -0.01427250076085329, -0.10585077106952667, -0.07962284237146378, -0.12016922980546951, -0.07482118904590607, -0.13711512088775635, -0.05659965053200722, 0.0034390464425086975, -0.10363735258579254, -0.0343673899769783, -0.12870576977729797, -0.13417349755764008, 0.15484818816184998, -0.2633090615272522, -0.07775101810693741, -0.03285742551088333, -0.0841982364654541, -0.1052946001291275, -0.11744936555624008, -0.14007799327373505, -0.030613770708441734, -0.21420185267925262, -0.1592651903629303, -0.16645660996437073]], "b1": [0.5749518275260925]}, "mlp_config": {"0": {"w0": [[0.04151963070034981, 0.047345250844955444, -0.029257504269480705, -0.17881864309310913, -0.15523894131183624, -0.14391332864761353, -0.1802969127893448, -0.06417526304721832], [0.1143595427274704, -0.028887905180454254, 0.17697274684906006, 0.17403890192508698, -0.029977979138493538, 0.10075200349092484, -0.09016185253858566, -0.12234916538000107], [-0.02028808929026127, 0.10758910328149796, 0.04683647304773331, -0.14131633937358856, 0.22832399606704712, -0.16015218198299408, 0.04080848768353462, -0.030333181843161583], [0.08981803804636002, 0.16477911174297333, -0.13913561403751373, 0.055556874722242355, 0.09421713650226593, -0.09962787479162216, 0.1259782910346985, -0.07515808194875717], [-0.07841643691062927, -0.03078780137002468, 0.046057477593421936, -0.0663081482052803, 0.08647748082876205, -0.06369403749704361, -0.19065313041210175, 0.12177065014839172], [-0.09021531790494919, -0.12479351460933685, -0.2046385109424591, -0.009100249968469143, 0.12502557039260864, 0.020730193704366684, -0.04975036904215813, -0.17036688327789307], [0.03461572900414467, 0.15814831852912903, -0.04207177087664604, 0.01747111603617668, -0.1650644838809967, 0.18546195328235626, 0.10503697395324707, 0.09450938552618027], [-0.151769757270813, 0.12783965468406677, -0.14447055757045746, 0.1801532804965973, 0.10191620886325836, 0.17400912940502167, -0.0917556881904602, 0.0707293376326561], [0.0101444898173213, 0.11358888447284698, 0.04698096588253975, -0.19844569265842438, -0.17891930043697357, -0.08729282766580582, 0.13798238337039948, -0.18075677752494812], [-0.13425575196743011, -0.12209956347942352, 0.11261112242937088, 0.07875779271125793, -0.14593730866909027, 0.16296817362308502, -0.12420572340488434, 0.18415158987045288], [0.11206027120351791, -0.13148406147956848, 0.008815760724246502, 0.131878063082695, -0.16444650292396545, 0.172308087348938, 0.200690358877182, 0.12968462705612183], [-0.094265416264534, -0.08149690926074982, 0.025499572977423668, -0.17716965079307556, -0.13314346969127655, -0.18148960173130035, -0.04910775274038315, 0.2517676055431366], [-0.08675320446491241, -0.019286055117845535, -0.3068942725658417, 0.13158494234085083, 0.11140115559101105, 0.0020333470311015844, 0.0035007293336093426, -0.022526394575834274], [0.1659017950296402, -0.1831352263689041, 0.01109852734953165, -0.03810178115963936, -0.016183601692318916, 0.052400458604097366, -0.068919338285923, -0.1311231106519699], [0.11115413159132004, -0.04501175507903099, 0.06812793016433716, 0.09473931044340134, -0.07085169851779938, -0.03543304651975632, 0.01085477415472269, 0.040563058108091354], [0.10289131104946136, -0.13866525888442993, -0.10427354276180267, 0.06780415773391724, 0.1356743723154068, -0.11052338778972626, 0.1864757090806961, 0.17281222343444824], [0.054064664989709854, 0.1822550892829895, 0.09163922071456909, 0.09099442511796951, -0.19222941994667053, -0.14886176586151123, -0.07587157189846039, 0.1271996647119522], [-0.045837439596652985, 0.08853814750909805, -0.18462850153446198, -0.15368594229221344, 0.06040378287434578, -0.12592394649982452, -0.11438807100057602, -0.14172102510929108], [0.19442515075206757, 0.04224491864442825, -0.06501356512308121, 0.05598794296383858, -0.06356924772262573, -0.08180555701255798, 0.11689271032810211, -0.12309437990188599], [-0.12719373404979706, -0.1644342541694641, -0.052424781024456024, -0.021292904391884804, -0.12860216200351715, -0.053256165236234665, -0.05099843442440033, 0.08283039927482605], [-0.08927661925554276, -0.16848936676979065, -0.09729202091693878, -0.10475572198629379, -0.14871814846992493, -0.12344382703304291, -0.0735127180814743, 0.13294412195682526], [-0.046469155699014664, 0.09409281611442566, -0.19329486787319183, 0.04953167587518692, -0.14020636677742004, 0.1309167742729187, -0.0545010007917881, -0.1991390436887741], [-0.06377783417701721, -0.022969519719481468, -0.11766813695430756, 0.14108781516551971, -0.07358072698116302, -0.04320840165019035, 0.012185805477201939, 0.12890702486038208], [-0.020201953127980232, 0.1599610596895218, 0.18216663599014282, -0.16046826541423798, -0.035781897604465485, 0.09886075556278229, -0.16123826801776886, -0.12189540266990662], [-0.07427714020013809, 0.12314040213823318, 0.12575040757656097, -0.11889544129371643, -0.14152054488658905, 0.0971403494477272, 0.11466319113969803, -0.06896717846393585], [-0.17000171542167664, -0.028869206085801125, 0.11017204821109772, 0.1167280524969101, 0.12105578184127808, 0.14026470482349396, 0.06245248392224312, -0.16981816291809082], [0.1962497979402542, -0.06544286757707596, -0.11252466589212418, 0.1089322566986084, -0.04581248760223389, -0.1550079584121704, 0.06531043350696564, -0.04086969792842865], [-0.1052740141749382, -0.05442341789603233, 0.1711975783109665, 0.052210576832294464, 0.17590028047561646, -0.1809525191783905, 0.18146321177482605, -0.046724073588848114], [0.23338928818702698, -0.1400449424982071, -0.11266336590051651, -0.07668212056159973, 0.13431058824062347, 0.11333615332841873, 0.05145086348056793, -0.062477294355630875], [0.03337207809090614, 0.012285607866942883, -0.10889334231615067, -0.16866502165794373, -0.18056368827819824, -0.17154346406459808, -0.0010507786646485329, -0.1270294338464737], [0.15877710282802582, 0.18811796605587006, 0.01217054482549429, 0.18496297299861908, 0.11254569888114929, 0.03791802003979683, 0.11086796224117279, 0.1038353368639946], [0.0341290682554245, -0.14603213965892792, 0.19249549508094788, 0.18195250630378723, 0.031147586181759834, 0.06689349561929703, 0.20220553874969482, 0.03519059717655182], [-0.14358563721179962, -0.14020544290542603, -0.09655703604221344, 0.11163309961557388, -0.04285414516925812, 0.09983716160058975, 0.08735957741737366, -0.13189120590686798], [-0.03983895108103752, 0.10289092361927032, 0.11468853801488876, -0.17420141398906708, 0.19546131789684296, -0.14258387684822083, 0.1671711653470993, 0.14567017555236816], [-0.12103627622127533, 0.0842934176325798, 0.09782171994447708, 0.19350793957710266, 0.12783540785312653, 0.22257950901985168, -0.10786391794681549, 0.14820703864097595], [-0.009361200034618378, 0.12854984402656555, -0.05239419266581535, -0.11690331995487213, 0.0050729429349303246, 0.10172604769468307, -0.09611407667398453, 0.1546792984008789], [0.2095051258802414, 0.15805843472480774, -0.11261904984712601, -0.12870807945728302, 0.011311066336929798, 0.14136669039726257, 0.15303413569927216, -0.14699608087539673], [0.16012738645076752, 0.12463170289993286, -0.10628103464841843, -0.07180952280759811, 0.007407825905829668, 0.1678754836320877, 0.17160208523273468, -0.1756446212530136], [-0.0008967603207565844, -0.06339120864868164, 0.2011175900697708, 0.019375445321202278, -0.08657752722501755, -0.007561922073364258, -0.045126330107450485, -0.018836747854948044], [-0.11265859007835388, 0.1982586681842804, 0.15883828699588776, 0.04799940809607506, -0.1859835833311081, -0.1321132779121399, -0.11938992887735367, 0.15179751813411713], [0.03230878710746765, 0.034783657640218735, 0.054029352962970734, 0.10473017394542694, 0.1605106145143509, -0.08853822946548462, 0.20561766624450684, 0.10830668359994888], [0.0729307159781456, 0.00776500441133976, 0.14871032536029816, 0.20669111609458923, -0.09140985459089279, -0.021933626383543015, 0.12201715260744095, -0.12305829674005508], [0.006851424463093281, -0.17850585281848907, -0.1406974196434021, 0.06825169920921326, -0.1531621515750885, -0.17285852134227753, 0.08247891068458557, 0.08964703232049942], [0.09514171630144119, 0.045604877173900604, -0.18158657848834991, 0.19828703999519348, -0.13182345032691956, -0.011174025945365429, -0.06133008003234863, -0.14125382900238037], [0.013432955369353294, -0.09581417590379715, -0.21218815445899963, -0.18396154046058655, 0.027252359315752983, -0.02042611688375473, -0.004474421497434378, 0.007870468311011791], [-0.10944274067878723, -0.1931813806295395, -0.2530052065849304, -0.11775205284357071, 0.031935714185237885, -0.08822426199913025, 0.12145797908306122, -0.208529531955719], [-0.18785180151462555, 0.05851270630955696, 0.1940186619758606, 0.08254211395978928, 0.12744469940662384, -0.15251152217388153, 0.07436101883649826, -0.14159958064556122], [0.18512724339962006, 0.16923509538173676, 0.18231868743896484, 0.10101303458213806, 0.048453282564878464, 0.10779070109128952, 0.021789338439702988, 0.2039692997932434], [-0.0320960134267807, -0.08635358512401581, -0.10700338333845139, 0.011523973196744919, -0.11584275960922241, -0.05469777435064316, 0.2046108990907669, 0.18013711273670197], [-0.057742953300476074, 0.08921345323324203, -0.159108966588974, -0.04845888912677765, 0.007585934828966856, -0.10350391268730164, 0.018423473462462425, 0.14185671508312225], [0.1887279748916626, 0.04917308688163757, 0.1336006373167038, 0.2233801633119583, -0.15256011486053467, 0.1191009134054184, -0.030967798084020615, -0.13235141336917877], [0.02902510017156601, -0.05819946900010109, 0.17674824595451355, 0.03129056096076965, -0.1263374239206314, -0.14806202054023743, 0.033267419785261154, -0.14615456759929657], [0.0854274109005928, 0.139909029006958, -0.15493637323379517, 0.08891262114048004, -0.14768511056900024, -0.191140815615654, 0.22291086614131927, -0.07102764397859573], [0.14858019351959229, 0.10071394592523575, 0.020569633692502975, 0.19289284944534302, 0.02804931439459324, 0.14324414730072021, 0.06615351885557175, 0.16289204359054565], [-0.07806362956762314, -0.16067923605442047, -0.09778445959091187, -0.09748457372188568, 0.03774493560194969, -0.1479410082101822, 0.18181836605072021, -0.14681847393512726], [0.008750075474381447, -0.09931442886590958, 0.0023287537042051554, -0.001704349648207426, 0.21946556866168976, -0.15669132769107819, 0.08602169156074524, 0.14028872549533844], [-0.17906230688095093, 0.023854980245232582, -0.025057507678866386, 0.022496696561574936, 0.03670521453022957, -0.027192501351237297, 0.1458970010280609, 0.046185530722141266], [-0.19014160335063934, -0.1948080062866211, 0.029100732877850533, -0.005408048629760742, -0.1671207845211029, -0.08942573517560959, 0.1974242776632309, 0.14313095808029175], [-0.07706267386674881, -0.013032380491495132, 0.07725298404693604, 0.1346530318260193, -0.15608812868595123, -0.0019765226170420647, 0.04808982089161873, 0.045283254235982895], [-0.13154928386211395, -0.07536464929580688, 0.12749195098876953, 0.08676132559776306, 0.017844606190919876, 0.06923773139715195, -0.05554534122347832, 0.03814307600259781], [-0.06195303052663803, -0.0899413675069809, 0.008787217549979687, -0.1718645989894867, -0.08321183174848557, -0.2025119662284851, -0.0684271827340126, -0.12266530841588974], [-0.07376264780759811, 0.011966245248913765, 0.23734410107135773, 0.1318202167749405, 0.1845555454492569, -0.14104515314102173, 0.12328194826841354, 0.1830623894929886], [-0.10243474692106247, 0.07639481872320175, 0.120576873421669, 0.026487085968255997, -0.1277201622724533, 0.1454591155052185, -0.059455227106809616, 0.07926388829946518], [-0.11988303065299988, 0.16467826068401337, 0.11995432525873184, 0.0753491222858429, 0.15722016990184784, -0.055072661489248276, 0.20009452104568481, 0.12462940067052841], [0.041261717677116394, -0.05365939810872078, -0.09340070933103561, -0.19438937306404114, -0.09774516522884369, -0.1047808974981308, 0.15717355906963348, -0.1719345599412918], [0.06326287239789963, -0.09279582649469376, 0.12845152616500854, 0.16415643692016602, 0.171718031167984, -0.18782974779605865, -0.19243867695331573, 0.1333773285150528], [-0.024412771686911583, -0.13346529006958008, -0.04228995740413666, -0.14427456259727478, 0.14363981783390045, -0.11224544048309326, -0.08988995105028152, 0.14587093889713287], [-0.007810069713741541, -0.1641179919242859, -0.04180444777011871, 0.088655486702919, 0.034285545349121094, 0.04783150181174278, -0.1836598664522171, -0.0969088226556778], [-0.21721220016479492, -0.05450443550944328, -0.08202435076236725, 0.1547243744134903, -0.02072511613368988, -0.08658159524202347, -0.09166829288005829, 0.030726471915841103], [0.09276849031448364, 0.15593306720256805, -0.0067762392573058605, 0.034421756863594055, -0.029043955728411674, 0.009277504868805408, 0.16759467124938965, -0.1777001917362213], [0.07546107470989227, -0.10894446820020676, 0.07341334968805313, 0.07205596566200256, 0.16008447110652924, -0.0890619307756424, -0.13079003989696503, -0.11243803799152374], [0.0762033462524414, 0.06553588807582855, 0.14841195940971375, 0.08919540792703629, 0.03911691904067993, -0.031420569866895676, -0.09638181328773499, 0.08857943117618561], [0.05155983567237854, 0.1670549511909485, -0.2265254110097885, 0.11429339647293091, -0.08071648329496384, 0.047283466905355453, 0.014721457846462727, -0.22873416543006897], [0.008780408650636673, -0.1668805181980133, 0.23562556505203247, -0.1107705608010292, 0.0646873489022255, 0.053046710789203644, -0.18788544833660126, 0.11617694795131683], [-0.07772358506917953, -0.1452489197254181, 0.05504171550273895, -0.10083437711000443, -0.13184337317943573, -0.015728149563074112, -0.1925644427537918, -0.19608281552791595], [-0.011207771487534046, -0.13964399695396423, 0.0836452916264534, -0.17501361668109894, 0.14095886051654816, -0.10131257772445679, -0.04514365270733833, -0.1449848711490631], [-0.09171415865421295, 0.0817703977227211, 0.056693967431783676, -0.15003138780593872, 0.05450529232621193, 0.13189059495925903, -0.09138461202383041, -0.1420089304447174], [-0.2118261307477951, -0.04894222319126129, 0.05985625088214874, 0.13780590891838074, -0.08545706421136856, 0.15644580125808716, 0.2114059180021286, -0.2018611878156662], [-0.10230641812086105, 0.15021689236164093, 0.04624142870306969, 0.0358903743326664, 0.1206633448600769, -0.15372133255004883, 0.11829782277345657, 0.13426551222801208], [-0.12167021632194519, -0.13875530660152435, 0.12453364580869675, -0.14373935759067535, -0.16525715589523315, 0.11184065043926239, -0.20420460402965546, -0.03435661643743515], [0.06825383752584457, 0.0857437327504158, -0.132706880569458, 0.04032030701637268, -0.09682448953390121, -0.15533161163330078, 0.16376081109046936, -0.1424863338470459], [-0.13778981566429138, 0.019244838505983353, -0.1964137852191925, -0.07919315248727798, -0.017052162438631058, 0.12678469717502594, -0.016320055350661278, 0.16855420172214508], [-0.11743037402629852, -0.01017009001225233, 0.1281149834394455, -0.026150714606046677, -0.11316521465778351, 0.1482212245464325, 0.03318743035197258, 0.1255691647529602], [-0.008950762450695038, 0.09897533059120178, -0.035232819616794586, 0.07770393788814545, 0.006564755458384752, 0.13470959663391113, 0.21269242465496063, 0.1606651246547699], [-0.09971217811107635, 0.07454584538936615, 0.13453204929828644, -0.06842944025993347, 0.02731076441705227, -0.2658592164516449, -0.03785266727209091, 0.05414242669939995], [0.13604417443275452, -0.05260901525616646, 0.21255621314048767, 0.040593791753053665, -0.10610450059175491, 0.10376205295324326, -0.08818632364273071, 0.10370712727308273], [0.02379257045686245, -0.09415857493877411, 0.21663117408752441, 0.182792067527771, 0.08630984276533127, 0.031770266592502594, -0.17800520360469818, -0.1331392079591751], [-0.1929350346326828, 0.1497655063867569, 0.02926924265921116, -0.23771746456623077, -0.12798383831977844, -0.10594499111175537, -0.023090945556759834, 0.04994456097483635], [-0.041643962264060974, 0.11959585547447205, -0.16905009746551514, 0.11595331132411957, -0.013116155751049519, 0.1802840530872345, -0.010377639904618263, -0.18472272157669067], [-0.13017767667770386, 0.05098314210772514, -0.166810542345047, 0.16078634560108185, -0.16343723237514496, 0.01291876845061779, -0.19368073344230652, 0.004524651914834976], [0.06425339728593826, -0.09597131609916687, -0.22104951739311218, -0.07625845074653625, 0.06034919247031212, 0.02896740473806858, -0.005240423139184713, 0.14167095720767975], [0.015213686041533947, 0.026140186935663223, 0.04540807008743286, -0.08427311480045319, 0.12702997028827667, -0.03308653458952904, 0.07957010716199875, 0.003462169785052538], [0.023383570834994316, 0.013798619620501995, -0.17454808950424194, -0.03201206400990486, 0.11000858247280121, 0.02300693653523922, 0.12334907799959183, 0.011521069332957268], [-0.06839980185031891, 0.059728074818849564, -0.12705446779727936, -0.06411056220531464, 0.046715594828128815, -0.05061666667461395, -0.17355933785438538, 0.07806189358234406], [0.1428382843732834, 0.12308542430400848, -0.10878683626651764, 0.08544444292783737, 0.07139550894498825, 0.12702396512031555, -0.05338190868496895, -0.22003886103630066], [-0.15494155883789062, -0.13437935709953308, -0.11557444930076599, 0.13453418016433716, -0.13717341423034668, 0.0799720510840416, -0.0478011891245842, 0.22080713510513306], [0.09338240325450897, 0.09760595858097076, -0.10491083562374115, 0.043185219168663025, -0.00575262401252985, -0.10091646015644073, -0.05431843921542168, -0.025931963697075844], [0.09025204181671143, 0.014723038300871849, -0.15757763385772705, 0.20023275911808014, 0.01954718865454197, 0.14104025065898895, -0.03123372793197632, 0.03576863929629326], [0.0529729388654232, -0.05388137698173523, 0.19609789550304413, -0.0398796945810318, 0.08160892874002457, -0.07593092322349548, -0.10712257027626038, 0.043092746287584305], [-0.1641453057527542, 0.03856142237782478, -0.18761208653450012, 0.1882779449224472, 0.011499263346195221, -0.1378607451915741, -0.05589311197400093, -0.0987018272280693], [0.18189062178134918, -0.12826800346374512, -0.16372227668762207, 0.11740843206644058, -0.17908231914043427, -0.002876617945730686, -0.10950727760791779, 0.07591378688812256], [0.0025702205020934343, 0.17403383553028107, -0.16820679605007172, 0.03010246343910694, -0.08687205612659454, 0.11508020758628845, 0.07430105656385422, 0.12163481116294861], [-0.06777959316968918, 0.02243897132575512, -0.0335254967212677, -0.17095685005187988, 0.037505947053432465, 0.08558012545108795, -0.11158427596092224, -0.10956913977861404], [0.1833193153142929, 0.10911749303340912, -0.02093123272061348, 0.12007082253694534, 0.13819022476673126, 0.06335379928350449, 0.19413705170154572, -0.00296344724483788], [-0.14273174107074738, 0.09475585073232651, 0.011426464654505253, 0.06805194914340973, 0.12599298357963562, 0.035376451909542084, -0.1954108029603958, 0.07606495171785355], [-0.10306260734796524, -0.10337898135185242, -0.0331839956343174, -0.05727854743599892, 0.11195091158151627, 0.14133520424365997, 0.024271083995699883, 0.11966688930988312], [0.1673702746629715, 0.10139570385217667, -0.008418054319918156, 0.21228857338428497, -0.08992215245962143, 0.015326653607189655, -0.12663446366786957, 0.15759426355361938], [-0.051511000841856, -0.22106312215328217, -0.030914844945073128, -0.08637851476669312, -0.11650841683149338, 0.15828925371170044, 0.19647382199764252, -0.008358282037079334], [0.13529284298419952, -0.23260945081710815, 0.033092327415943146, 0.1067478358745575, -0.14933419227600098, -0.029265178367495537, -0.07844247668981552, 0.1353665292263031], [0.0013085404643788934, 0.001281075063161552, 0.09149158000946045, 0.006008872762322426, -0.12771186232566833, -0.07311972975730896, 0.043527282774448395, -0.11047738790512085], [0.09821956604719162, 0.08519145101308823, -0.0006584041402675211, 0.16801342368125916, -0.05951063334941864, -0.04722808673977852, -0.026721039786934853, 0.17854872345924377], [0.046954717487096786, 0.1766989678144455, 0.0842084288597107, -0.06015894189476967, 0.1482800394296646, -0.05613140016794205, -0.007528503425419331, 0.14101125299930573], [-0.06702069193124771, -0.04592246934771538, 0.08499300479888916, -0.1077561229467392, 0.17267899215221405, 0.058810390532016754, 0.1989053338766098, 0.058758992701768875], [0.13011664152145386, -0.1815362572669983, 0.03726595267653465, 0.053890638053417206, 0.14359644055366516, -0.15087901055812836, 0.21308095753192902, 0.19394847750663757], [0.023618387058377266, -0.041131895035505295, -0.05334700271487236, -0.05110375955700874, 0.09414859861135483, 0.15904340147972107, -0.20964978635311127, 0.13568930327892303]], "b0": [-0.009023294784128666, 0.03802034631371498, -0.00014966145681682974, 0.008155706338584423, 0.026828806847333908, -0.013111492618918419, 0.02665712498128414, -0.03314006328582764, -0.008543437346816063, -0.029690643772482872, 0.012361589819192886, 0.048667632043361664, 0.02643631212413311, -0.019367696717381477, 0.03497198969125748, -0.028404152020812035, 0.028286734595894814, -0.017637012526392937, -0.027205420657992363, 0.0388219878077507, 0.030327757820487022, 0.0463046096265316, -0.008327926509082317, 0.005855867639183998, 0.0175772812217474, 0.020651908591389656, 0.025707077234983444, -0.0066803935915231705, 0.045648615807294846, 0.010605189949274063, 0.02067302167415619, 0.024330297484993935, -0.012646019458770752, 0.026763806119561195, 0.016704127192497253, 0.03332749009132385, -0.01630527898669243, 0.04039262980222702, -0.005215809214860201, -0.03533844277262688, 0.01722876913845539, 0.007988668978214264, -0.012841891497373581, 0.020635198801755905, 0.01327650435268879, 0.010178100317716599, -0.025055095553398132, 0.025040948763489723, 0.004818575456738472, -0.017545750364661217, 0.03837979584932327, -2.3643715394428e-05, 0.011370163410902023, -0.008607550524175167, 0.0023138299584388733, -0.003930010367184877, 0.0003680793452076614, 0.004292975179851055, 0.014547416009008884, 0.0037352386862039566, 0.030400285497307777, -0.01050728838890791, 0.0030519908759742975, -0.0007566614076495171, -0.006916314363479614, 0.011235826648771763, -0.009493127465248108, 0.004223976284265518, 0.01414914894849062, -0.027791226282715797, 0.013896895572543144, 0.10690996795892715, 0.016975780948996544, 0.004948724526911974, -0.0170593298971653, 0.01943938247859478, 0.04625346511602402, -0.003220166312530637, -0.029510444030165672, -0.03465769439935684, -0.014088409952819347, 0.010336837731301785, -0.026915159076452255, 0.025126894935965538, 0.13087649643421173, -0.01084257010370493, -0.016735350713133812, 0.004395090509206057, 0.009956863708794117, -0.030427835881710052, 0.04436042904853821, -0.027264470234513283, -0.023457931354641914, -0.0005255700089037418, -0.021176015958189964, -0.05605649575591087, -0.015748096629977226, 0.02962721884250641, 0.07114577293395996, -0.023834766820073128, -0.019933151081204414, 0.014633960090577602, 0.04352743178606033, -0.033628784120082855, 0.10301115363836288, 0.000992169021628797, 0.009110367856919765, -0.007182056084275246, 0.03424069285392761, -0.013855653814971447, 0.008129843510687351, -0.009350284934043884, 0.015368531458079815, -0.000717982416972518, -0.005166871007531881], "w1": [[0.04787573218345642, 0.030562128871679306, 0.1890738308429718, 0.11657772958278656, -0.16660583019256592, -0.12575283646583557, 0.1374746561050415, 0.12625354528427124, 0.043235909193754196, -0.020288364961743355, -0.05111772194504738, 0.07255479693412781, 0.16929322481155396, -0.06987163424491882, -0.19658628106117249, 0.16781070828437805, 0.18950307369232178, 0.05808163061738014, 0.22007586061954498, -0.04151718318462372, -0.16264910995960236, -0.159644216299057, 0.031884051859378815, -0.008195838890969753, -0.03262739256024361, -0.17580151557922363, -0.11315598338842392, -0.08051508665084839, 0.013228652998805046, -0.07275166362524033, -0.05971403419971466, 0.03965975344181061, -0.19002993404865265, -0.041445065289735794, -0.22089272737503052, -0.1078784242272377, -0.16438718140125275, 0.03125520050525665, -0.05096282809972763, 0.03482593223452568, -0.16625313460826874, 0.08860720694065094, 0.19421786069869995, 0.027669629082083702, 0.11613509804010391, 0.1588900238275528, 0.06902588158845901, 0.10316276550292969, 0.02077687345445156, 0.08476800471544266, -0.06325547397136688, -0.029058368876576424, -0.14006252586841583, -0.07312553375959396, 0.0275234654545784, -0.14881286025047302, 0.188992440700531, -0.10205073654651642, -0.19357042014598846, 0.2058003693819046, -0.1325763761997223, 0.21193327009677887, -0.02993512526154518, -0.1099533811211586, 0.13169758021831512, -0.048911627382040024, -0.10735868662595749, 0.09914734214544296, -0.11952821165323257, 0.02626131847500801, -0.08358267694711685, -0.17223171889781952, 0.04261132702231407, 0.23213131725788116, 0.14745379984378815, -0.1520766019821167, -0.1406988799571991, 0.1080184206366539, 0.033266011625528336, 0.08852709829807281, -0.18445910513401031, 0.13283824920654297, 0.17586851119995117, -0.20276398956775665, 0.10528293251991272, -0.20381101965904236, 0.12471553683280945, -0.061148468405008316, 0.18357250094413757, -0.03819050267338753, -0.14971673488616943, 0.12055618315935135, 0.07144935429096222, -0.023294923827052116, 0.11746638268232346, -0.03257626295089722, -0.04392572492361069, 0.10749166458845139, 0.1001678854227066, 0.13853470981121063, 0.15263521671295166, 0.18253129720687866, -0.05660411715507507, 0.010686851106584072, -0.11950279772281647, 0.13572178781032562, -0.0027374092023819685, 0.07107361406087875, 0.0024426961317658424, 0.04544168338179588, -0.030876733362674713, 0.09193636476993561, -0.16204407811164856, 0.04207927733659744, 0.14243462681770325], [-0.03320122882723808, 0.20972253382205963, 0.07446526736021042, 0.04316790774464607, 0.1550515741109848, -0.04418362304568291, 0.10303058475255966, 0.13378825783729553, -0.021196769550442696, -0.1206757202744484, -0.1466752141714096, 0.026431437581777573, -0.19683603942394257, 0.14342734217643738, -0.06816091388463974, 0.16068561375141144, -0.08627451211214066, -0.20435041189193726, -0.13432402908802032, 0.1545201539993286, -0.14260172843933105, 0.01329020131379366, 0.0709800124168396, -0.035940371453762054, 0.05211583152413368, 0.162481427192688, -0.020802564918994904, -0.04337168112397194, -0.15348871052265167, 0.13183468580245972, -0.11329609900712967, -0.026643576100468636, -0.12125264108181, -0.018376482650637627, -0.10913728922605515, 0.15138180553913116, 0.18429705500602722, -0.19187329709529877, -0.007328815758228302, 0.0942431166768074, 0.015608454123139381, 0.08850259333848953, 0.003195843892171979, -0.055867791175842285, -0.15043163299560547, -0.07449208945035934, -0.09460173547267914, -0.11646806448698044, 0.035234484821558, -0.22363625466823578, 0.09150470048189163, -0.14872154593467712, -0.05705785006284714, 0.08201491087675095, 0.10203374922275543, 0.10970797389745712, 0.025365732610225677, -0.10914508253335953, 0.023321127519011497, 0.14816462993621826, -0.0997038334608078, -0.10164981335401535, -0.17892411351203918, 0.01023072749376297, -0.04635019227862358, -0.0627560019493103, -0.016234172508120537, -0.08805663138628006, -0.14749592542648315, -0.0004102048696950078, -0.07780494540929794, 0.17996320128440857, -0.09704749286174774, -0.05993674322962761, 0.11369773745536804, 0.18148517608642578, -0.18360544741153717, 0.029871240258216858, 0.07818976789712906, -0.04359641671180725, 0.12171152234077454, -0.1379707157611847, 0.148633673787117, 0.15811188519001007, 0.20000514388084412, -0.10965100675821304, -0.1258435845375061, 0.033109329640865326, -0.20504532754421234, 0.07079324126243591, -0.1552380621433258, 0.007039989344775677, -0.08748989552259445, -0.1820296347141266, 0.14571475982666016, 0.12096947431564331, -0.09461985528469086, -0.1161019504070282, 0.02760089375078678, 0.16327059268951416, -0.026395825669169426, -0.11935365200042725, 0.17950095236301422, 0.024279966950416565, 0.005128274671733379, 0.14576442539691925, 0.19009611010551453, 0.14180588722229004, 0.1483803242444992, 0.04909523203969002, -0.2061351239681244, 0.03468016907572746, -0.13439805805683136, 0.012474234215915203, 0.06934507191181183], [0.043041862547397614, -0.09552261978387833, -0.11132709681987762, -0.04704977944493294, 0.0778210461139679, 0.10012167692184448, -0.16883085668087006, 0.1332482546567917, 0.024037450551986694, 0.050198886543512344, -0.14995110034942627, -0.019986307248473167, 0.014603443443775177, -0.1673424392938614, 0.14232824742794037, -0.13667179644107819, -0.14520125091075897, 0.07393055409193039, -0.038185980170965195, -0.15286804735660553, 0.06240294128656387, -0.04058517888188362, -0.08959858864545822, 0.06752364337444305, 0.054025810211896896, 0.14978225529193878, 0.0885877013206482, -0.06452668458223343, 0.16253450512886047, -0.012081830762326717, -0.1683765947818756, -0.04032279923558235, -0.00883596669882536, 0.04307806119322777, -0.12290781736373901, 0.09293609112501144, -0.02359512448310852, 0.12329480797052383, 0.0479641929268837, -0.041100285947322845, 0.07156331837177277, 0.19698470830917358, -0.12133339047431946, 0.13143527507781982, 0.06791505217552185, 0.13786040246486664, -0.1118142381310463, -0.08792578428983688, 0.12853556871414185, 0.15597237646579742, 0.1002391055226326, -0.07563606649637222, -0.020135559141635895, 0.051684096455574036, 0.060769569128751755, 0.11259293556213379, -0.21335986256599426, 0.08551455289125443, 0.018671082332730293, 0.12976953387260437, -0.04933943599462509, 0.015823986381292343, -0.02780747413635254, 0.19338716566562653, -0.029849935322999954, 0.2385813444852829, -0.21536748111248016, -0.18453092873096466, 0.03191368281841278, -0.054118406027555466, -0.1799927055835724, -0.11490251868963242, 0.1422557830810547, 0.1679636389017105, 0.18987451493740082, -0.10150925815105438, -0.04769322648644447, -0.08212000876665115, 0.15271295607089996, -0.050558097660541534, -0.06722183525562286, -0.047614119946956635, -0.13186262547969818, -0.0025614688638597727, -0.07328453660011292, 0.10249195247888565, -0.03273533284664154, -0.03145935386419296, -0.184794083237648, 0.2068377286195755, 0.1725642830133438, 0.1478700488805771, -0.16503800451755524, -0.10710824280977249, 0.05146361514925957, 0.14764530956745148, -0.14733335375785828, 0.14438395202159882, 0.13813839852809906, -0.06201455742120743, 0.0027409058529883623, 0.1721431016921997, 0.11616380512714386, 0.031682927161455154, -0.21804992854595184, -0.04618818312883377, -0.0954347625374794, 0.010907634161412716, -0.11996014416217804, -0.04793426766991615, 0.11048125475645065, 0.13634398579597473, -0.07930295169353485, -0.10372306406497955, -0.14859040081501007], [0.0026888689026236534, 0.06779812276363373, 0.1312977820634842, -0.1677687019109726, 0.003564436687156558, -0.12846766412258148, -0.07793040573596954, -0.06639759987592697, 0.042669400572776794, 0.13896241784095764, 0.13745704293251038, 0.050968170166015625, 0.18427610397338867, 0.18384915590286255, -0.016190219670534134, -0.09044237434864044, 0.05835619196295738, -0.014420639723539352, -0.08615332841873169, 0.11309926956892014, 0.005725683178752661, 0.12832120060920715, 0.07343093305826187, -0.02019002102315426, 0.08058778196573257, -0.06292865425348282, -0.14119738340377808, 0.006164262071251869, -0.1451563835144043, -0.03019930049777031, -0.06173368915915489, 0.1269216686487198, 0.05035129189491272, 0.03935849294066429, -0.03399458900094032, -0.09927822649478912, -0.11970529705286026, 0.15699510276317596, 0.13052962720394135, 0.1295560896396637, 0.08778593689203262, -0.11464919149875641, 0.1887865960597992, 0.1650361865758896, 0.14689436554908752, 0.10674763470888138, -0.009689344093203545, -0.0428776852786541, -0.07475753873586655, -0.04903293773531914, -0.18557734787464142, -0.0037979185581207275, 0.10869990289211273, 0.1215912401676178, -0.13228590786457062, 0.14977502822875977, 0.010277092456817627, -0.039887867867946625, -0.15722763538360596, 0.04727376624941826, -0.015988552942872047, -0.12339112162590027, 0.14890027046203613, -0.08794137835502625, 0.17474910616874695, -0.11551620066165924, -0.041013140231370926, 0.10486436635255814, -0.06574805080890656, 0.15682417154312134, -0.06755455583333969, -0.0763140395283699, -0.034219641238451004, -0.06905043870210648, -0.023089369758963585, -0.025422248989343643, -0.06402230262756348, -0.08869580179452896, 0.1540999412536621, -0.14937980473041534, -0.1897452473640442, 0.1912459135055542, 0.14503273367881775, -0.1636720597743988, -0.19629588723182678, 0.05732479318976402, 0.03415556624531746, -0.15012434124946594, 0.03469490632414818, -0.18273179233074188, -0.054656267166137695, 0.08489524573087692, -0.04072030633687973, 0.06597261875867844, 0.06224459409713745, -0.15708938241004944, 0.14221681654453278, -0.026219215244054794, 0.1881304234266281, 0.16868554055690765, 0.08953722566366196, -0.002221766859292984, 0.08522570878267288, 0.12435279786586761, -0.03366212174296379, -0.014721953310072422, -0.062193259596824646, -0.15330588817596436, -0.1845199316740036, 0.1641487032175064, 0.20204807817935944, -0.002767894882708788, 0.014655020087957382, 0.041053421795368195, 0.04717777296900749], [-0.09125648438930511, 0.1056952103972435, 0.1588963121175766, -0.07603839039802551, -0.09290064126253128, -0.14044710993766785, -0.0612967386841774, -0.052931878715753555, 0.19029241800308228, 0.048023805022239685, -0.15669657289981842, -0.14902757108211517, 0.16041764616966248, 0.1658032089471817, -0.1913919448852539, -0.04648621007800102, 0.06301059573888779, -0.18741342425346375, 0.15101712942123413, 0.02906309999525547, 0.12049829214811325, 0.093237966299057, 0.10332805663347244, 0.07694236934185028, -0.047615762799978256, 0.009943189099431038, -0.12845298647880554, -0.189766064286232, -0.04089431092143059, 0.008676091209053993, -0.2277357280254364, -0.016895316541194916, 0.040981899946928024, 0.1523372381925583, 0.11126095056533813, -0.10748687386512756, 0.03377864137291908, 0.1372525840997696, -0.03196407109498978, -0.0631803348660469, 0.15124213695526123, 0.12360919266939163, -0.007993475534021854, 0.09391027688980103, 0.013418078422546387, 0.04752187058329582, -0.2009374052286148, -0.10984961688518524, 0.03177480772137642, 0.08425082266330719, 0.06088975816965103, 0.07995066046714783, -0.126105397939682, 0.12100528925657272, 0.160709947347641, 0.10922034829854965, -0.039608292281627655, -0.06882748752832413, 0.15005971491336823, 0.1502743512392044, -0.13435831665992737, -0.017851559445261955, -0.09972713887691498, 0.03596775233745575, -0.08616644889116287, 0.0546475313603878, -0.014278803020715714, 0.06089106202125549, -0.19719839096069336, -0.025503654032945633, -0.16037197411060333, -0.039680901914834976, 0.13485050201416016, 0.17139628529548645, 0.1447059065103531, 0.15312625467777252, -0.05168570205569267, -0.05583704262971878, 0.16381627321243286, -0.003866202663630247, -0.17748473584651947, -0.019709495827555656, 0.16814714670181274, 0.07384613901376724, 0.13767239451408386, -0.026391591876745224, -0.2392919808626175, -0.020729947835206985, -0.15383075177669525, 0.007343855686485767, -0.1746053248643875, -0.17333191633224487, -0.13296698033809662, 0.1713087260723114, 0.14081422984600067, 0.1332564502954483, -0.08394314348697662, -0.18983213603496552, -0.1754199117422104, 0.07531367987394333, 0.1559409201145172, -0.04487522318959236, -0.08336357027292252, -0.03631510213017464, -0.18127857148647308, -0.2123766988515854, -0.06123998761177063, 0.013357686810195446, -0.042285192757844925, -0.10268037021160126, 0.1564163714647293, 0.1586787849664688, 0.03788900375366211, -0.021450262516736984, 0.03810544312000275], [0.14914758503437042, -0.08586760610342026, -0.17695201933383942, -0.1241317018866539, 0.18461526930332184, 0.06981458514928818, 0.13754479587078094, -0.03848211094737053, 0.06772071123123169, -0.011623392812907696, -0.058112941682338715, -0.1854606717824936, 0.010015999898314476, 0.18295012414455414, 0.04366760328412056, 0.11820448935031891, -0.13091613352298737, -0.005839350167661905, -0.1750732660293579, 0.014111164957284927, -0.09519632160663605, -0.17733293771743774, -0.07900016754865646, -0.16778582334518433, 0.04992266371846199, 0.042608678340911865, -0.14152151346206665, -0.09922229498624802, -0.0675131306052208, 0.14947478473186493, -0.014857426285743713, 0.011465487070381641, -0.2017512023448944, 0.15073180198669434, -0.12096679210662842, 0.12560540437698364, -0.17481015622615814, -0.11563131958246231, 0.16895237565040588, -0.09922464936971664, -0.17812587320804596, 0.1632245033979416, 0.0931304395198822, -0.03210645914077759, 0.1653328835964203, -0.13161763548851013, -0.10923793166875839, 0.036003559827804565, 0.19324170053005219, -0.20397549867630005, -0.007956850342452526, -0.09566858410835266, -0.15052048861980438, -0.0259445421397686, 0.057609476149082184, 0.154584601521492, -0.07775597274303436, -0.02303542196750641, 0.16138947010040283, -0.0281332079321146, -0.06218886002898216, 0.04437560215592384, 0.14851512014865875, 0.18065908551216125, 0.09309495240449905, 0.03748307377099991, -0.061353739351034164, 0.10045482963323593, 0.15031597018241882, -0.07249904423952103, -0.09447766095399857, 0.13776542246341705, 0.13359011709690094, -0.204657644033432, -0.18419648706912994, 0.12136812508106232, 0.13624471426010132, 0.08259883522987366, -0.227884903550148, 0.13876162469387054, 0.21899357438087463, -0.089401476085186, -0.19628044962882996, 0.042788099497556686, 0.09252844005823135, 0.07901690900325775, -0.12795038521289825, -0.09048914909362793, -0.10197699069976807, -0.016285542398691177, -0.21966570615768433, 0.054361045360565186, -0.16509202122688293, 0.16993498802185059, 0.15661677718162537, 0.09500905126333237, -0.16778478026390076, -0.059041477739810944, -0.06661606580018997, -0.08712787926197052, -0.057591814547777176, -0.05462741479277611, -0.04917382821440697, 0.14925728738307953, 0.10379708558320999, 0.05547502264380455, 0.08345241099596024, -0.05802338570356369, 0.05217171087861061, 0.06988532096147537, 0.059432171285152435, 0.11032626777887344, 0.11856436729431152, -0.031676288694143295, -0.08677989989519119]], "b1": [-0.09085305035114288, 0.0020509595051407814, -0.05979989841580391, -0.07221958041191101, -0.009357504546642303, -0.005855258088558912]}, "1": {"w0": [[-0.19128665328025818, 0.14093329012393951, 0.05492899566888809, -0.0977449119091034, -0.07750492542982101, 0.06347258388996124, 0.21579551696777344, 0.03310176730155945], [0.1497703492641449, -0.05431533604860306, 0.03837279602885246, -0.20519840717315674, 0.16667954623699188, 0.2237294316291809, 0.012564622797071934, -0.15633197128772736], [-0.10046736896038055, -0.15401238203048706, 0.18266615271568298, -0.03132014721632004, -0.1469973474740982, -0.10050993412733078, -0.038421183824539185, 0.1660279482603073], [-0.029971150681376457, 0.01689285598695278, 0.07051721960306168, -0.061865709722042084, -0.012889562174677849, -0.09096451103687286, -0.17347639799118042, -0.07917066663503647], [0.05294621363282204, -0.012789870612323284, -0.21106044948101044, 0.038798440247774124, 0.02968554012477398, -0.029861951246857643, 0.16264939308166504, 0.11992990225553513], [-0.17974205315113068, -0.055632565170526505, -0.21085822582244873, 0.08682285249233246, 0.1044107973575592, -0.08878052979707718, 0.14756786823272705, 0.21394531428813934], [-0.1169736459851265, 0.023113509640097618, -0.2140994518995285, 0.04082139953970909, 0.10754311829805374, 0.1341017484664917, 0.19035807251930237, -0.12351638078689575], [0.1539561152458191, -0.09209325164556503, -0.10770004987716675, -0.0034726473968476057, 0.16459524631500244, 0.1369258612394333, 0.20991359651088715, 0.21482576429843903], [-0.14466305077075958, -0.12048829346895218, -0.1494099199771881, -0.019540905952453613, 0.024891547858715057, 0.016704995185136795, -0.03733344003558159, -0.016519201919436455], [-0.001593920518644154, -0.08821690827608109, 0.057379938662052155, -0.1112927570939064, 0.17365583777427673, 0.1505543291568756, -0.0239022858440876, -0.10234611481428146], [0.005249896552413702, 0.0692014992237091, 0.15087291598320007, 0.024979200214147568, -0.1046900823712349, -0.0028306252788752317, 0.20783871412277222, -0.024531522765755653], [0.01940191723406315, 0.020171213895082474, 0.1940196454524994, -0.04923113062977791, -0.1813850998878479, -0.1779031902551651, -0.04643702134490013, 0.22308029234409332], [-0.18133941292762756, 0.009522201493382454, -0.25622159242630005, -0.05167996883392334, 0.03677816689014435, 0.1065182089805603, -0.15760260820388794, 0.07373040169477463], [0.14790558815002441, 0.03841731324791908, -0.21501055359840393, -0.10768736153841019, 0.13373777270317078, -0.06370410323143005, -0.09704013168811798, 0.1984851360321045], [0.14105142652988434, -0.1306886076927185, -0.07757358998060226, -0.11716074496507645, 0.09276729822158813, 0.05230618640780449, 0.021670736372470856, -0.14414654672145844], [-0.17888236045837402, 0.09731190651655197, 0.03276233747601509, -0.09110099077224731, -0.17394258081912994, 0.14154507219791412, 0.11009476333856583, 0.04042248800396919], [0.06205251067876816, 0.1175156831741333, 0.14369265735149384, 0.1739429384469986, -0.02448129653930664, -0.047610342502593994, -0.031049638986587524, 0.21259312331676483], [-0.051411744207143784, -0.045797139406204224, -0.07249940931797028, -0.23427028954029083, -0.0003367809986229986, -0.09812255948781967, -0.13370013236999512, -0.003800050588324666], [0.12790770828723907, -0.03803250193595886, 0.04909045621752739, 0.08939847350120544, 0.13412556052207947, -0.21440184116363525, 0.04060247540473938, -0.033548105508089066], [0.17778266966342926, 0.16223128139972687, -0.026052851229906082, -0.03518064692616463, 0.0606868676841259, -0.1629447638988495, 0.13039708137512207, -0.11608856916427612], [0.08494598418474197, -0.09558114409446716, 0.14433607459068298, -0.10753023624420166, -0.16670112311840057, -0.0911705270409584, -0.2098095715045929, -0.14738155901432037], [-0.2230154424905777, -0.008650992065668106, 0.054550353437662125, -0.012506403960287571, -0.029316116124391556, 0.1360134780406952, -0.07337735593318939, -0.09134464710950851], [-0.03856028616428375, 0.08135911822319031, 0.20612609386444092, 0.15361662209033966, 0.015761010348796844, 0.085243359208107, 0.07035514712333679, -0.08090007305145264], [-0.030878879129886627, 0.14643126726150513, -0.35684114694595337, 0.016684722155332565, -0.09073691815137863, -0.2845814526081085, -0.08742018789052963, 0.17032858729362488], [-0.17228446900844574, -0.009735126979649067, 0.286796897649765, -0.17400532960891724, 0.10296899080276489, -0.09016814082860947, -0.07931167632341385, -0.12572607398033142], [-0.19081047177314758, -0.05553186684846878, 0.15504097938537598, 0.06503532081842422, -0.03263853117823601, 0.1205686554312706, -0.06362731754779816, 0.06610070914030075], [0.09201604872941971, 0.041561949998140335, -0.06613440811634064, 0.008969910442829132, 0.13816019892692566, 0.25515511631965637, 0.1051872968673706, -0.08863098919391632], [0.15668374300003052, 0.18844765424728394, -0.021500330418348312, 0.11166169494390488, 0.16821284592151642, 0.028437959030270576, 0.17026357352733612, -0.20264655351638794], [0.16715657711029053, 0.05616191402077675, -0.11881057918071747, 0.18976838886737823, -0.12305840104818344, 0.09989407658576965, -0.11384972929954529, 0.03869976848363876], [-0.16062533855438232, -0.011179700493812561, 0.047754041850566864, -0.04511058330535889, 0.03837176412343979, 0.008756245486438274, 0.12051033973693848, 0.032253481447696686], [0.06616272777318954, -0.1601816713809967, -0.08485085517168045, 0.18269751965999603, -0.040402039885520935, -0.11570831388235092, -0.0439177043735981, 0.014000318013131618], [-0.12829716503620148, 0.05185549333691597, 0.017900411039590836, -0.0390029177069664, -0.08309110999107361, -0.06347309798002243, -0.02866755984723568, -0.0834694653749466], [-0.1305219680070877, -0.08770131319761276, 0.03154381737112999, -0.12579011917114258, 0.11725635081529617, 0.2488194853067398, 0.009273586794734001, 0.18179242312908173], [0.06064922362565994, -0.17230740189552307, -0.2359176129102707, -0.19115862250328064, 0.01922886073589325, -0.13178350031375885, 0.11147313565015793, -0.28047025203704834], [0.1755218654870987, -0.01698409952223301, -0.16981962323188782, -0.11140431463718414, -0.026367763057351112, 0.08222861588001251, -0.08105533570051193, 0.18493914604187012], [-0.1370055377483368, 0.03157707676291466, 0.2533341646194458, 0.11368750035762787, 0.0650908574461937, -0.17230504751205444, 0.16736134886741638, 0.2151031196117401], [-0.08290842175483704, -0.027744926512241364, -0.07560622692108154, 0.18887755274772644, 0.09599032998085022, -0.19682149589061737, -0.18595580756664276, 0.13449861109256744], [-0.135752871632576, 0.13040538132190704, -0.01767682284116745, 0.18970559537410736, 0.14555028080940247, 0.02416815795004368, 0.08901198208332062, 0.06749100983142853], [0.10840579122304916, 0.15626558661460876, -0.3988465666770935, 0.05538984388113022, 0.11880721896886826, 0.06747549772262573, 0.14641982316970825, -0.08024400472640991], [0.09298478811979294, 0.09779517352581024, 0.059737082570791245, 0.0849708840250969, 0.21624109148979187, -0.05667990818619728, -0.04353241249918938, 0.21455952525138855], [0.11192414164543152, 0.07266795635223389, -0.015144924633204937, -0.12469147890806198, -0.03786352649331093, 0.11994711309671402, 0.06505027413368225, -0.07360945641994476], [0.024201488122344017, 0.10233993083238602, 0.19976335763931274, 0.2049761265516281, 0.035913173109292984, -0.18211093544960022, 0.001289129490032792, -0.10176431387662888], [0.12368283420801163, -0.04601513221859932, -0.02235669456422329, 0.044759225100278854, 0.05714605748653412, 0.20245346426963806, 0.10392926633358002, -0.2946053445339203], [0.1359151005744934, 0.2305692732334137, 0.21542057394981384, -0.020207254216074944, -0.10251110047101974, -0.1516045480966568, 0.12861256301403046, -0.08128194510936737], [0.1652345061302185, 0.014193232171237469, -0.1477980613708496, 0.008817006833851337, 0.01904958486557007, 0.09879431873559952, -0.12643122673034668, 0.016975291073322296], [0.13112711906433105, -0.029670350253582, -0.2728659510612488, -0.17712458968162537, -0.1054927408695221, 0.15360352396965027, 0.09567034244537354, 0.12916454672813416], [-0.1090388298034668, 0.008704951032996178, -0.3206527531147003, -0.10749766230583191, 0.14241419732570648, -0.08026859164237976, 0.0042110527865588665, -0.08239917457103729], [-0.19250355660915375, -0.1263197660446167, -0.07471023499965668, 0.1906304806470871, -0.17481978237628937, 0.01654023304581642, -0.11093517392873764, -0.01313746441155672], [0.12530282139778137, -0.06486165523529053, -0.0893421545624733, 0.10253220051527023, 0.04000097140669823, -0.03256741166114807, -0.09822271019220352, -0.05904407054185867], [0.008660346269607544, 0.14320078492164612, -0.2613930106163025, 0.14231976866722107, -0.05200142785906792, 0.14084188640117645, 0.09497872740030289, -0.23109470307826996], [-0.04400014132261276, -0.04739436134696007, -0.25185316801071167, 0.1405007392168045, -0.16587340831756592, 0.030209479853510857, 0.16569001972675323, 0.11340828239917755], [-0.19688470661640167, -0.01447743084281683, 0.06462091207504272, 0.11843280494213104, 0.06943291425704956, 0.016935693100094795, -0.1629638522863388, -0.028153041377663612], [-0.13998831808567047, -0.17602457106113434, 0.13051345944404602, -0.034969545900821686, 0.1944856196641922, -0.10806246846914291, 0.005486690904945135, -0.13325588405132294], [0.09719908237457275, 0.18427535891532898, -0.03796018660068512, -0.014001823030412197, 0.1253485083580017, 0.16766679286956787, 0.18186970055103302, 0.013445471413433552], [-0.13541202247142792, 0.17131632566452026, 0.07693272829055786, 0.21881066262722015, 0.11697819083929062, 0.007636385038495064, -0.16677021980285645, -0.051080454140901566], [-0.22946088016033173, -0.19516903162002563, 0.09174482524394989, 0.13578298687934875, -0.02805408090353012, 0.20645436644554138, 0.054633282124996185, -0.055185992270708084], [-0.147233247756958, 0.2699693739414215, 0.017303194850683212, 0.02518715336918831, 0.053372520953416824, -0.06479685008525848, 0.19087934494018555, -0.03768401965498924], [-0.0014752112329006195, 0.18897126615047455, -0.2349693477153778, -0.19851598143577576, -0.1954163908958435, 0.08018281310796738, -0.037923965603113174, 0.1424734741449356], [-0.051605500280857086, -0.1145225316286087, 0.04595081880688667, 0.18725740909576416, 0.14945879578590393, -0.07506567984819412, 0.18017612397670746, 0.15264301002025604], [-0.15457023680210114, 0.044479139149188995, 0.10490471124649048, 0.101456418633461, 0.055916231125593185, 0.10555581003427505, 0.06395982205867767, -0.10109394788742065], [-0.0884212926030159, 0.09326612949371338, 0.05523188039660454, -0.21562254428863525, 0.08330845832824707, -0.08297251164913177, -0.18342813849449158, -0.21599507331848145], [0.14936335384845734, -0.17711657285690308, -0.14038337767124176, 0.04378462955355644, -0.16158249974250793, -0.10912039875984192, 0.21289095282554626, 0.0028513125143945217], [-0.14604797959327698, -0.07209040969610214, -0.07828866690397263, 0.0545409694314003, 0.19739262759685516, 0.0037843254394829273, 0.22377029061317444, -0.1377592384815216], [-0.018705256283283234, 0.07283461838960648, -0.26999029517173767, 0.13632266223430634, 0.07014878839254379, 0.020990625023841858, 0.01885250024497509, 0.003308315761387348], [0.18018479645252228, 0.07825915515422821, 0.10494747757911682, 0.1621154397726059, 0.17806506156921387, 0.14659595489501953, 0.026836620643734932, -0.07760977745056152], [0.06776519119739532, 0.1285829395055771, 0.2244889736175537, -0.021194443106651306, -0.037397779524326324, -0.028606513515114784, -0.16303043067455292, -0.18348023295402527], [-0.10043574124574661, -0.002434215974062681, -0.1391068398952484, 0.1922527402639389, -0.04485911503434181, -0.10615023970603943, 0.053943801671266556, -0.028931880369782448], [0.12241776287555695, -0.02346058189868927, -0.35560041666030884, -0.0016765657346695662, 0.04655243456363678, -0.031350381672382355, 0.1310560405254364, 0.0620071105659008], [0.04009823128581047, -0.01836547441780567, -0.0750637874007225, -0.12547539174556732, 0.07509595900774002, -0.18496239185333252, -0.08324042707681656, -0.2113858014345169], [0.1327129453420639, -0.09068027138710022, -0.04377497732639313, -0.1781436651945114, 0.17351749539375305, -0.07348640263080597, 0.09221377968788147, -0.008304557763040066], [-0.0033653255086392164, 0.018668143078684807, -0.10549571365118027, -0.04055367037653923, 0.0876622274518013, -0.0844990611076355, 0.14647197723388672, -0.05455736443400383], [0.2280890792608261, -0.11053280532360077, 0.04038924723863602, 0.0020456237252801657, 0.12714269757270813, 0.07773864269256592, -0.011065755039453506, -0.17150376737117767], [0.13227683305740356, 0.1828201413154602, -0.22342123091220856, 0.06653252243995667, 0.05515860393643379, -0.07825303077697754, 0.12011794745922089, -0.08860594779253006], [0.13530083000659943, -0.17372654378414154, 0.030308300629258156, 0.09753265231847763, -0.1647428423166275, 0.2584480941295624, 0.11068642884492874, 0.1986101120710373], [0.0928184762597084, 0.13831967115402222, -0.013483521528542042, -0.2010997086763382, 0.08903268724679947, -0.05151250958442688, 0.1688772737979889, -0.057352498173713684], [0.136831596493721, 0.0989198088645935, 0.15295244753360748, -0.05099625140428543, 0.04943717271089554, -0.06454097479581833, -0.07201685011386871, 0.011335553601384163], [0.03740029036998749, -0.18833261728286743, 0.08141928911209106, -0.1506677120923996, 0.1593492031097412, 0.16908447444438934, 0.20329469442367554, 0.030822956934571266], [0.19297003746032715, -0.18351194262504578, 0.06498099118471146, 0.2064221203327179, 0.008442201651632786, -0.16806653141975403, -0.012617459520697594, -0.005611354485154152], [-0.11870462447404861, -0.015553793869912624, -0.20180298388004303, 0.0162501260638237, -0.043840259313583374, 0.033439476042985916, -0.03507048264145851, 0.07108588516712189], [-0.026104692369699478, -0.05758102238178253, -0.5089491009712219, -0.05847027897834778, -0.15856081247329712, -0.039462484419345856, -0.040924374014139175, -0.0411396399140358], [0.11062141507863998, 0.0074226767756044865, 0.11793219298124313, -0.13748687505722046, -0.07530228048563004, 0.17151851952075958, -0.18047679960727692, -0.1830843836069107], [0.05612970516085625, -0.1728149652481079, -0.13091611862182617, -0.10234397649765015, 0.1275043785572052, -0.13218086957931519, -0.13171541690826416, -0.10802056640386581], [-0.0533536858856678, -0.014319186098873615, -0.6399806141853333, 0.11014721542596817, 0.10490170121192932, -0.022415798157453537, 0.006306838244199753, -0.053494878113269806], [-0.1111951470375061, -0.19898325204849243, -0.14540418982505798, -0.0916610136628151, -0.11434324830770493, 0.1797327697277069, -0.07349594682455063, -0.17310486733913422], [-0.029412725940346718, 0.0770002231001854, 0.12704282999038696, 0.008035789243876934, 0.13115324079990387, -0.2870796024799347, 0.13819755613803864, -0.15769337117671967], [0.13343092799186707, -0.03974982351064682, -0.2455654740333557, 0.17630881071090698, -0.12866954505443573, 0.12584145367145538, 0.09052175283432007, 0.17555685341358185], [-0.19887317717075348, -0.08415573090314865, -0.14505261182785034, -0.030089788138866425, -0.07514400035142899, -0.11222316324710846, 0.010596271604299545, 0.027191855013370514], [0.08476321399211884, -0.05850685387849808, 0.1760484278202057, -0.09875611215829849, -0.21069131791591644, 0.180079847574234, 0.1178591251373291, -0.045952994376420975], [-0.1294657588005066, -0.09783833473920822, 0.12997977435588837, 0.1605275273323059, -0.21836166083812714, -0.0745675340294838, -0.1446284055709839, -0.044483352452516556], [-0.029126357287168503, -0.09902521967887878, -0.15568168461322784, 0.1815280318260193, 0.06750655174255371, -0.0524909682571888, 0.20466077327728271, -0.1026640310883522], [0.04136186093091965, -0.13961617648601532, 0.005582408048212528, -0.18257735669612885, 0.08888091146945953, -0.12104742974042892, -0.016363421455025673, -0.06237535551190376], [0.07153608649969101, -0.04036197438836098, 0.21631956100463867, -0.12449267506599426, -0.14912809431552887, 0.20531192421913147, -0.14389735460281372, -0.13002784550189972], [-0.20573480427265167, -0.0778006762266159, 0.18999481201171875, 0.09141264855861664, 0.1247645691037178, 0.11223709583282471, -0.15185227990150452, -0.09499483555555344], [-0.1213829293847084, -0.004189215134829283, -0.05177615210413933, 0.14011865854263306, -0.17417201399803162, -0.04926091060042381, 0.09522788226604462, -0.18558652698993683], [-0.01297046523541212, -0.019699949771165848, 0.2079269289970398, 0.05672347918152809, -0.22414036095142365, 0.08694526553153992, -0.1859969198703766, 0.14078257977962494], [0.02364196442067623, 0.027715716511011124, 0.1593656837940216, 0.08666393905878067, 0.1615372747182846, 0.11226735264062881, 0.17718203365802765, 0.18912066519260406], [0.14941784739494324, -0.18292616307735443, 0.06627029180526733, 0.13298632204532623, 0.23174834251403809, -0.13930724561214447, 0.0890185534954071, -0.2158454805612564], [0.14788255095481873, -0.10488852858543396, 0.21026316285133362, -0.1348104029893875, -0.11750465631484985, 0.035990603268146515, -0.19524183869361877, 0.07888250797986984], [-0.060180794447660446, 0.03867778927087784, -0.16253508627414703, 0.14125585556030273, -0.019439702853560448, -0.07058487087488174, 0.02093341201543808, 0.13286113739013672], [-0.12854668498039246, -0.18304169178009033, 0.229891836643219, 0.19753804802894592, -0.02071249671280384, -0.24140429496765137, 0.14768488705158234, -0.03004336543381214], [0.13385823369026184, 0.12606193125247955, -0.04682869836688042, -0.2407086044549942, -0.058942761272192, 0.19613243639469147, -0.18741275370121002, -0.17751261591911316], [0.07678443193435669, 0.08679064363241196, 0.23580202460289001, -0.15712761878967285, 0.1869451105594635, -0.22810176014900208, -0.13377292454242706, 0.22329190373420715], [-0.01365230605006218, 0.13338057696819305, -0.22048231959342957, 0.19170837104320526, -0.03797297924757004, 0.1426556408405304, 0.14142224192619324, -0.050783682614564896], [-0.007483282126486301, -0.028433600440621376, -0.5319654941558838, -0.004483457189053297, 0.000913545023649931, -0.0975463017821312, -0.023722123354673386, 0.17128142714500427], [-0.05716262757778168, -0.054298099130392075, 0.2340305745601654, -0.035316046327352524, -0.15172749757766724, 0.04445672407746315, -0.05059028044342995, -0.055903173983097076], [0.07283402234315872, -0.03864565119147301, 0.02101988159120083, 0.24877887964248657, 0.011957230046391487, -0.10947141796350479, 0.01075182855129242, -0.14812396466732025], [-0.19105961918830872, -0.07395030558109283, -0.09095347672700882, -0.1921236664056778, 0.09442964941263199, 0.26734936237335205, -0.11352016031742096, -0.0983283668756485], [-0.19106747210025787, -0.11589733511209488, -0.0932142585515976, -0.12770651280879974, 0.20686180889606476, 0.19391632080078125, -0.16544082760810852, -0.09760656952857971], [-0.06259386986494064, -0.13180513679981232, 0.06608408689498901, -0.07247630506753922, -0.09104899317026138, -0.01609584130346775, 0.1744566112756729, 0.26689088344573975], [-0.10258855670690536, -0.11347172409296036, -0.2772987484931946, 0.05862392485141754, -0.11323828250169754, -0.15967491269111633, 0.17891350388526917, 0.16548499464988708], [-0.16334497928619385, 0.17493975162506104, -0.1937819868326187, -0.1355905383825302, -0.16654068231582642, -0.05850059166550636, 0.1328437775373459, 0.05911088362336159], [-0.07914679497480392, -0.11465980112552643, -0.03802022710442543, -0.011476443149149418, 0.1997520476579666, 0.02942751720547676, 0.13112793862819672, 0.17940251529216766], [-0.0016462943749502301, 0.1179138571023941, -0.17482097446918488, -0.022146696224808693, 0.06885268539190292, 0.12777015566825867, -0.08425804227590561, 0.09460561722517014], [0.1514793336391449, -0.04326318949460983, 0.1223665252327919, -0.02624933235347271, -0.2240137755870819, 0.1256955862045288, -0.05258651822805405, -0.02350934036076069], [-0.0187348872423172, -0.09868165105581284, -0.24290218949317932, 0.0615200400352478, -0.11625417321920395, 0.04415968805551529, -0.090798519551754, 0.015596249140799046]], "b0": [0.01516452245414257, -0.016811929643154144, 0.025990333408117294, -0.0285080187022686, -0.027804339304566383, -0.059280551970005035, -0.004411010071635246, 0.01138999592512846, -0.008108623325824738, -0.028071850538253784, 0.07787908613681793, 0.18795061111450195, -0.08182549476623535, -0.05783877894282341, 0.010783664882183075, -0.01758250780403614, -0.04662002623081207, 0.06719319522380829, 0.04330786317586899, 0.007154528517276049, -0.0038758637383580208, -0.023062532767653465, 0.22966091334819794, -0.037171561270952225, 0.09224534779787064, -0.0018574997084215283, -0.021719662472605705, -0.052438218146562576, 0.016758134588599205, 0.042753249406814575, -0.03518481180071831, -0.04707140848040581, 0.04576990380883217, -0.036556169390678406, 0.0020356413442641497, 0.16911984980106354, 0.04780031368136406, 0.051106225699186325, 0.021335598081350327, -0.026400387287139893, -0.01833738386631012, -0.00570847699418664, -0.047104500234127045, 0.004836320877075195, -0.03293551504611969, 0.004395796451717615, -0.0007641766569577157, -0.0037368021439760923, -0.012092696502804756, 0.02633962221443653, -0.10889425873756409, 0.004884797148406506, -0.018034102395176888, 0.0551493838429451, -0.0031584803946316242, 0.00819583609700203, 0.0004933620803058147, -0.010970182716846466, 0.0897194966673851, 0.005795144475996494, 0.015565980225801468, 0.005536520387977362, 0.03518085554242134, -0.003914811182767153, 0.023294076323509216, 0.0197166595607996, -0.026767171919345856, -0.034483738243579865, -0.010515676811337471, 0.008592057041823864, 0.05547019839286804, 0.022620562463998795, 0.024557538330554962, 0.025952309370040894, 0.04787713661789894, -0.011951650492846966, 0.02369212731719017, 0.04363459348678589, -0.06277436763048172, -0.13531708717346191, 0.014002992771565914, -0.04066598787903786, -0.080942802131176, -0.009511608630418777, -0.028001874685287476, 0.007894247770309448, -0.021001586690545082, -0.0006013653473928571, 0.05953950434923172, 0.004438825882971287, 0.00861491821706295, -0.022992156445980072, 0.03249559924006462, 0.0022911401465535164, 0.08240683376789093, 0.0043385084718465805, 0.021325785666704178, 0.055967215448617935, -0.14184240996837616, 0.06018775701522827, -0.024773940443992615, -0.01600191555917263, -0.013738062232732773, -0.13406109809875488, 0.14412620663642883, -0.0023547110613435507, 0.04335934296250343, -0.030990714207291603, 0.05072702094912529, -0.008632117882370949, 0.008558053523302078, -0.019110407680273056, 0.014348607510328293, 0.06646937131881714, -0.05486040934920311], "w1": [[0.12634730339050293, -0.11309483647346497, -0.00027660871273837984, -0.06332632899284363, 0.175116166472435, 0.19049100577831268, 0.08860354870557785, 0.10603286325931549, -0.19163456559181213, -0.08684249967336655, -0.12161027640104294, -0.15974567830562592, -0.07300294935703278, 0.08016305416822433, -0.051593463867902756, -0.09016025066375732, 0.13243848085403442, 0.15052486956119537, -0.039763081818819046, -0.22751349210739136, -0.09042368829250336, -0.047844111919403076, -0.2259446382522583, 0.2178257405757904, -0.12339399009943008, 0.17923510074615479, -0.11726680397987366, 0.03797570616006851, 0.11648721247911453, 0.012029722332954407, -0.08730856329202652, -0.004129692446440458, -0.10829074680805206, -0.1630566418170929, 0.09577643871307373, -0.13507938385009766, -0.021203212440013885, -0.09883051365613937, 0.20577138662338257, 0.02364376187324524, 0.18921415507793427, 0.0170722808688879, -0.16337227821350098, -0.17721526324748993, -0.12217477709054947, -0.13638362288475037, -0.033480074256658554, -0.04175290837883949, 0.10767997056245804, 0.19943352043628693, -0.11512118577957153, 0.01035397034138441, -0.1319262981414795, -0.08315340429544449, -0.12443702667951584, 0.1699153035879135, -0.006753737106919289, -0.12977468967437744, -0.17863211035728455, -0.13188113272190094, 0.07417717576026917, 0.12795522809028625, 0.164481058716774, -0.14275917410850525, 0.01384475827217102, -0.0993599072098732, -0.13813519477844238, 0.19492408633232117, 0.10068507492542267, 0.07658799737691879, 0.13317637145519257, 0.15217295289039612, -0.1557401418685913, -0.11558477580547333, -0.15893496572971344, -0.13041625916957855, -0.12748989462852478, -0.15093043446540833, 0.011234855279326439, 0.1865932196378708, 0.11617429554462433, 0.007924669422209263, 0.2738865911960602, -0.061250876635313034, 0.15919876098632812, 0.10749468952417374, -0.07132307440042496, 0.07016976922750473, 0.10842360556125641, 0.05751482769846916, -0.18068531155586243, -0.07644298672676086, 0.25611016154289246, -0.1191617101430893, -0.0955527201294899, -0.1651509553194046, 0.10366913676261902, 0.020260103046894073, 0.1495341956615448, -0.09344613552093506, 0.040564749389886856, -0.2312428504228592, -0.0637698844075203, 0.06913520395755768, 0.03387237340211868, -0.12250267714262009, -0.10008741170167923, 0.1980753242969513, -0.03837912902235985, 0.14049533009529114, 0.20607170462608337, 0.014084414578974247, 0.2223956286907196, 0.027158087119460106, 0.14172838628292084], [0.1680358201265335, 0.16309566795825958, -0.08581434190273285, 0.15364015102386475, 0.1742313653230667, -0.15833723545074463, 0.010971137322485447, -0.00040450727101415396, -0.16398538649082184, -0.12862853705883026, -0.037699904292821884, 0.16781313717365265, -0.18233169615268707, -0.1470561921596527, -0.17188593745231628, 0.009302156046032906, -0.007618329022079706, 0.13801254332065582, -0.11219710111618042, 0.039032403379678726, 0.09983475506305695, 0.12033067643642426, 0.11909664422273636, 0.059147462248802185, -0.016225062310695648, 0.11249364912509918, -0.07971666753292084, 0.08565790206193924, 0.008302344009280205, -0.11654669046401978, 0.14708811044692993, 0.058668848127126694, 0.11706073582172394, -0.04705873504281044, -0.1363832801580429, 0.17216017842292786, -0.005677319597452879, 0.14652064442634583, -0.1379081755876541, 0.07928772270679474, -0.1603493094444275, -0.0465785451233387, -0.1498948037624359, -0.06684737652540207, 0.0603555366396904, -0.03863968327641487, -0.13778887689113617, -0.11380481719970703, -0.16489887237548828, -0.07555289566516876, -0.2201060801744461, -0.10663831979036331, 0.09231611341238022, 0.1869761049747467, 0.1516072303056717, 0.08370023220777512, -0.1314322054386139, -0.10667359828948975, 0.1296040415763855, 0.012105829082429409, -0.0734008252620697, 0.03349313512444496, -0.08396650105714798, -0.019895851612091064, 0.04810580238699913, 0.08432020992040634, 0.03359929099678993, -0.014517688192427158, -0.17164671421051025, -0.15140359103679657, 0.060734886676073074, -0.1098548173904419, -0.022159434854984283, 0.167433962225914, -0.16503183543682098, 0.10917425900697708, -0.03850774094462395, -0.09279444068670273, 0.03077550046145916, -0.21018235385417938, 0.035098135471343994, 0.09318544715642929, -0.31362855434417725, -0.12390617281198502, 0.008420661091804504, 0.07483256608247757, 0.1078934371471405, 0.028409678488969803, 0.029320573434233665, -0.03789977729320526, 0.20901934802532196, 0.02124578133225441, 0.08415544033050537, -0.021330973133444786, 0.033397823572158813, -0.20857612788677216, 0.25166067481040955, 0.0506005622446537, -0.2133856564760208, 0.17005868256092072, -0.12883351743221283, 0.1514698714017868, -0.16151835024356842, -0.3674231171607971, -0.0644415020942688, -0.17807146906852722, 0.005169893614947796, 0.062275417149066925, -0.07700646668672562, -0.08298908919095993, 0.08799664676189423, 0.10375525057315826, -0.14686612784862518, -0.07245004922151566, 0.019625362008810043], [0.19668948650360107, 0.21515673398971558, -0.18293516337871552, 0.185596764087677, 0.08241600543260574, -0.14915111660957336, 0.2518332004547119, -0.12427424639463425, 0.21585972607135773, -0.15104229748249054, -0.07460092008113861, -0.00798248965293169, -0.1709490418434143, -0.1260511875152588, -0.0660824254155159, -0.1972762942314148, 0.20573803782463074, 0.01922611892223358, -0.14121964573860168, 0.05707041546702385, -0.14911118149757385, -0.04478321596980095, -0.06557051092386246, -0.044237639755010605, -0.08427666872739792, -0.15356256067752838, 0.07742704451084137, 0.1353701651096344, -0.013672803528606892, 0.10270609706640244, -0.11705492436885834, -0.1410977691411972, -0.1147380918264389, 0.24455960094928741, -0.09966219216585159, -0.1881251335144043, 0.058776941150426865, 0.06827276200056076, -0.17037709057331085, 0.01270921528339386, 0.16311535239219666, -0.06161333993077278, 0.14640924334526062, 0.17386239767074585, 0.030503669753670692, 0.1678333878517151, -0.07014329731464386, -0.08500057458877563, 0.011318519711494446, 0.17588599026203156, -0.13199560344219208, -0.02621638774871826, -0.06633198261260986, -0.11987606436014175, -0.05936470255255699, 0.005445328075438738, 0.1874772161245346, -0.03199634328484535, -0.19387498497962952, -0.04652825742959976, 0.13703490793704987, 0.16246464848518372, -0.1026308536529541, 0.19105888903141022, -0.194925919175148, -0.07640266418457031, 0.1653064489364624, 0.1760057508945465, -0.1687982678413391, 0.13801142573356628, -0.1739623248577118, -0.09666935354471207, 0.051526326686143875, -0.02588416449725628, 0.12534207105636597, 0.10892841964960098, -0.20123514533042908, -0.07463911920785904, 0.19830939173698425, 0.15670736134052277, 0.022162795066833496, -0.03027261607348919, 0.24286530911922455, 0.04455048590898514, -0.023821000009775162, 0.03021041676402092, 0.012643278576433659, 0.14610452950000763, -0.018528178334236145, 0.01695439964532852, -0.01120014674961567, -0.16866029798984528, -0.11050223559141159, -0.11370871961116791, -0.051019925624132156, 0.16494058072566986, 0.17615355551242828, -0.15598300099372864, -0.009449190460145473, -0.0513804629445076, 0.23798218369483948, 0.13402055203914642, 0.21198846399784088, 0.18940789997577667, -0.12203734368085861, 0.17329812049865723, 0.1604691445827484, 0.10497503727674484, 0.049635276198387146, 0.0933881476521492, -0.18298684060573578, 0.17281949520111084, -0.043421294540166855, 0.015264074318110943, 0.05513875558972359], [0.10281511396169662, -0.001984457951039076, 0.07803697139024734, 0.05832267180085182, -0.24351578950881958, -0.10825087130069733, -0.07789122313261032, 0.045686837285757065, -0.0656341165304184, 0.11053784936666489, 0.165802463889122, 0.22374077141284943, -0.24347864091396332, -0.14866939187049866, 0.1055523157119751, -0.06766190379858017, 0.19932299852371216, 0.13173949718475342, 0.24278606474399567, -0.07865862548351288, -0.18581363558769226, 0.07948371022939682, 0.2104487270116806, -0.3258873522281647, 0.20328253507614136, -0.02635154314339161, 0.12094735354185104, -0.10244516283273697, 0.07348938286304474, 0.13472308218479156, -0.19288983941078186, -0.1476481407880783, 0.0015008898917585611, -0.11195311695337296, 0.10915450751781464, 0.27410468459129333, 0.09521996229887009, 0.041781872510910034, -0.27962061762809753, 0.13503731787204742, 0.07247167080640793, 0.028640102595090866, 0.1608998030424118, 0.2786006033420563, -0.10657867789268494, -0.11821432411670685, -0.2948493957519531, 0.10669301450252533, -0.16011756658554077, -0.061283886432647705, -0.1776609867811203, 0.07731687277555466, -0.06679846346378326, -0.030760569497942924, 0.0538921020925045, -0.0495452806353569, 0.024235514923930168, -0.07488584518432617, 0.20613041520118713, -0.08480686694383621, 0.11102858930826187, 0.015898093581199646, 0.10767088830471039, -0.14317624270915985, 0.04788433387875557, -0.04017375782132149, -0.17535187304019928, -0.22390961647033691, 0.07752897590398788, 0.13475991785526276, -0.18920789659023285, 0.13150328397750854, -0.10864508152008057, -0.11295632272958755, -0.012651736848056316, -0.12406234443187714, -0.033729203045368195, 0.1314464658498764, -0.20935775339603424, -0.3096066415309906, -0.1076706051826477, -0.23808473348617554, -0.3752952218055725, -0.03647686168551445, 0.17238996922969818, -0.16513261198997498, -0.058516498655080795, -0.09020388126373291, 0.15405142307281494, -0.10961403697729111, -0.020513763651251793, -0.2076455056667328, 0.009580140002071857, 0.1051175519824028, 0.10104940831661224, 0.2007385939359665, -0.011948061175644398, 0.08490099012851715, -0.19115516543388367, 0.051418207585811615, 0.00956613477319479, 0.04362170398235321, -0.0020312003325670958, -0.22994865477085114, 0.2104097306728363, 0.048578713089227676, 0.15929639339447021, -0.10558765381574631, 0.23262152075767517, 0.013404491357505322, -0.05135481432080269, -0.1881846934556961, -0.02732870727777481, 0.1840665638446808, -0.21539312601089478], [-0.06734899431467056, 0.11254578083753586, 0.23685996234416962, -0.11972953379154205, -0.1238759234547615, -0.18120020627975464, -0.15660519897937775, 0.027973083779215813, -0.16399599611759186, 0.08075052499771118, 0.07509405165910721, 0.08557634800672531, -0.12804903090000153, -0.09457127749919891, -0.06200330704450607, -0.18872645497322083, -0.01717309094965458, 0.051349107176065445, -0.06581505388021469, 0.106722891330719, -0.13100282847881317, 0.13648486137390137, -0.025344133377075195, -0.09791544079780579, 0.06187925115227699, -0.09529813379049301, 0.12290298938751221, -0.0936281606554985, -0.18308153748512268, 0.17828713357448578, -0.1485062539577484, -0.09754684567451477, -0.06825326383113861, 0.025471128523349762, -0.06077389046549797, -0.11997823417186737, -0.1802665740251541, 0.024080917239189148, 0.13119670748710632, 0.06363542377948761, 0.18531611561775208, 0.14997974038124084, 0.11412142962217331, -0.1569337397813797, -0.16436752676963806, 0.17374664545059204, -0.11976438760757446, 0.12718985974788666, 0.005548984277993441, 0.11199528723955154, 