{"ft": {"w0": [[0.09108743816614151, -0.24710480868816376, 0.6755115985870361, -0.35003554821014404, -0.13769041001796722, -0.23811404407024384, -0.6656522154808044], [0.22441917657852173, -0.5517596006393433, 0.11436870694160461, -0.5578187108039856, -0.24086567759513855, 0.28354504704475403, -0.2534750699996948], [0.5388079881668091, 0.5069096088409424, -0.14847491681575775, -0.37439993023872375, 0.575016438961029, -0.45550185441970825, -0.08257712423801422], [-0.36611872911453247, 0.22360506653785706, -0.31156405806541443, -0.23067428171634674, -0.031166957691311836, -0.5620558857917786, 0.008765666745603085], [-0.45291534066200256, -0.3557707369327545, 0.4285685420036316, -0.08237247169017792, -0.6504451036453247, 0.2703059911727905, 0.626568615436554], [0.2646962106227875, -0.17906394600868225, -0.34592345356941223, 0.597822368144989, -0.5075118541717529, 0.031816624104976654, 0.4529290795326233]], "b0": [-0.9607030749320984, 0.07433243840932846, -0.08058411628007889, -0.0406222939491272, -0.3790736794471741, -0.34964555501937866], "w1": [[0.13512063026428223, -0.09740447998046875, -0.08380133658647537, 0.22284986078739166, 0.44304972887039185, 0.4411727786064148, -0.002816096879541874, 0.38245436549186707, 0.4977369010448456, -0.24846281111240387, 0.40806442499160767, -0.4451790153980255], [0.3600981831550598, -0.520440936088562, 0.36782437562942505, 0.3105872869491577, -0.2186492383480072, -0.25851067900657654, -0.4123218059539795, 0.08020522445440292, -0.14526499807834625, -0.32948940992355347, 0.5214781165122986, 0.5238794088363647], [-0.622722864151001, -0.4632144868373871, -0.22257483005523682, -0.4263051450252533, 0.15571336448192596, 0.5873070955276489, -0.3587312400341034, 0.04389888048171997, -0.05611230060458183, -0.2525556981563568, -0.31722328066825867, 0.5633162260055542], [0.21293632686138153, 0.4374611973762512, -0.4213535785675049, 0.35572850704193115, 0.28707191348075867, -0.036664415150880814, 0.4237246811389923, -0.012525780126452446, -0.5676254034042358, -0.03278810530900955, 0.14696939289569855, -0.08073785156011581], [0.01980026625096798, 0.3258783221244812, 0.08932674676179886, -0.464700311422348, 0.33903419971466064, -0.5183650255203247, -0.20004057884216309, 0.01834196038544178, -0.4864639341831207, -0.28535231947898865, -0.40168341994285583, -0.07357783615589142], [0.22277721762657166, 0.4890185594558716, 0.5570624470710754, 0.3751409947872162, 0.36882948875427246, 0.449544221162796, -0.25839006900787354, -0.4086841940879822, -0.2948567569255829, -0.4019019305706024, -0.4551033079624176, -0.21425393223762512]], "b1": [-1.2465518712997437, -0.34982219338417053, 0.04485394433140755, -0.07098322361707687, -0.85712069272995, 0.047741375863552094]}, "it": {"w0": [[0.42691710591316223, 0.43164870142936707, -0.6188009977340698, 0.5722231864929199, 0.24024970829486847, 0.1618558168411255, -0.7721638083457947], [-0.30286523699760437, 0.058555860072374344, -0.45860812067985535, -0.6757678389549255, 0.5012773871421814, -0.2709568738937378, 0.08930384367704391], [0.8816473484039307, 0.4394173324108124, -0.33626416325569153, -0.0060402266681194305, 0.17552900314331055, -0.5219753384590149, 0.47370684146881104], [-0.4079877436161041, -0.17082113027572632, 0.41378238797187805, 0.27705118060112, -0.1467636376619339, 0.6714216470718384, 0.5344775319099426], [0.5589383244514465, -0.48354461789131165, 0.47668009996414185, -0.20468929409980774, 0.35741642117500305, -0.1875036060810089, 0.5787140727043152], [0.20888511836528778, -0.42598670721054077, 0.4678856134414673, -0.30735236406326294, -0.1641877144575119, -0.3373751640319824, 0.09802936017513275]], "b0": [0.7214415669441223, 0.18189984560012817, 0.3106951117515564, -0.05841458961367607, 1.021695852279663, 0.8157901763916016], "w1": [[0.2001800686120987, -0.33290883898735046, 0.3190813958644867, 0.4099508821964264, 0.1386193335056305, 0.1505758911371231, -0.3509804308414459, -0.15935853123664856, 0.46035879850387573, -0.5517069697380066, -0.07762046158313751, 0.30211764574050903], [-0.6069666743278503, -0.11245201528072357, -0.1702013462781906, -0.2929821014404297, -0.3234820067882538, 0.41705307364463806, -0.11102744936943054, -0.06447527557611465, 0.1811748743057251, 0.14097343385219574, -0.4396633505821228, -0.05951761454343796], [-0.41297948360443115, 0.13729897141456604, 0.4921145439147949, 0.4227314293384552, -0.3429091274738312, 0.25221145153045654, -0.2757933437824249, -0.3907213807106018, 0.19822660088539124, -0.2915705740451813, 0.08575183898210526, 0.49569353461265564], [0.5251021981239319, -0.4961405396461487, 0.5504226088523865, -0.1889619380235672, 0.5601544380187988, 0.5671793818473816, -0.5731407403945923, -0.24787428975105286, -0.30316415429115295, 0.15755914151668549, 0.325133740901947, -0.47139620780944824], [-0.3817445635795593, 0.30082303285598755, -0.29704755544662476, 0.605642557144165, -0.5995198488235474, 0.08381493389606476, -0.07553781569004059, -0.47561880946159363, 0.53664231300354, -0.3244692087173462, 0.46614572405815125, -0.04085523635149002], [0.5209765434265137, -0.5161820650100708, 0.5345956683158875, -0.051134273409843445, 0.26994118094444275, -0.4132044017314911, -0.2414177805185318, -0.27816006541252136, 0.3201190233230591, 0.04270240291953087, 0.014268937520682812, 0.1464681774377823]], "b1": [0.31646814942359924, 0.06708738207817078, 0.26074543595314026, 0.0003827981709036976, -0.0260908380150795, -0.00226019648835063]}, "Ctild_t": {"w0": [[-1.518888235092163, -0.19711674749851227, 0.5586850643157959, -0.5587443709373474, 0.16354051232337952, 1.0760383605957031, 1.0322692394256592], [0.8833833932876587, -0.5535605549812317, 0.14460456371307373, -0.16684038937091827, 0.45196443796157837, -0.37212073802948, 0.2617741525173187], [-1.1332279443740845, -0.7606751322746277, 0.3549935221672058, -0.14519482851028442, -0.41606226563453674, 0.7667381167411804, 0.6948617100715637], [-0.08849386125802994, 0.31511029601097107, -0.51823490858078, -0.14988072216510773, -0.627815306186676, -0.1186891719698906, -0.389922559261322], [2.142956495285034, 0.6962624788284302, -0.10163947939872742, -0.3549313545227051, -0.08621367812156677, -0.17585694789886475, -0.7015998363494873], [1.7241584062576294, 0.1449027955532074, -0.3392482399940491, 0.01216371450573206, 0.054490040987730026, -1.1169281005859375, -0.4134023189544678]], "b0": [0.719106137752533, -0.5860558748245239, 0.5587503910064697, 0.1397070437669754, -0.6385664939880371, -0.8759458661079407], "w1": [[1.024245023727417, -0.3230232298374176, 0.9534681439399719, -0.085978664457798, -1.2454296350479126, -0.6292847990989685, 0.15171605348587036, 0.16636314988136292, -0.22152969241142273, -0.05036104843020439, 0.09650353342294693, -0.14287565648555756], [-0.7228833436965942, 0.5119127035140991, -0.10819964110851288, -0.5609445571899414, 0.4358600080013275, 0.6177771091461182, 0.0687859058380127, -0.40207791328430176, -0.03301266208291054, -0.5164802670478821, 0.11394724994897842, -0.35272279381752014], [0.9061890244483948, -0.18935327231884003, 0.9941965341567993, 0.32621100544929504, -0.38454875349998474, -0.8063409328460693, -0.047310326248407364, 0.005580238066613674, 0.019363846629858017, -0.07012812793254852, 0.6590622067451477, -0.3715442717075348], [-0.773091733455658, -0.5249379277229309, 0.04306114837527275, 0.4784970283508301, -0.3262946903705597, 0.15061430633068085, -0.17480242252349854, -0.45441070199012756, 0.3088930547237396, -0.5430009365081787, -0.3988169729709625, 0.12332776188850403], [-0.7536064982414246, 0.295475572347641, -0.6709815263748169, 0.08866773545742035, 0.324672132730484, 0.5331336259841919, 0.2066546231508255, 0.3618803918361664, -0.03351348638534546, -0.050951261073350906, 0.34775251150131226, -0.42755651473999023], [-0.6214087009429932, -0.16554705798625946, 0.38813212513923645, -0.3989849388599396, 0.010695147328078747, -0.09722402691841125, 0.5798488855361938, 0.44294679164886475, -0.34554657340049744, -0.2691430151462555, 0.01638294756412506, -0.32474714517593384]], "b1": [0.2009112685918808, -0.06042046844959259, 0.050540804862976074, 0.08893827348947525, -0.013274301774799824, 0.07657872140407562]}, "ot": {"w0": [[0.9151079058647156, 0.5920542478561401, -0.26596903800964355, -0.7541183233261108, -0.16285911202430725, -0.44658002257347107, 0.3963879644870758], [-0.05610557273030281, -0.11091355979442596, 0.5063170194625854, -0.33561164140701294, 0.10857699066400528, 0.4360155165195465, -0.12204961478710175], [0.387373149394989, -0.38238492608070374, -0.3264191448688507, 0.4686763882637024, 0.08504979312419891, -0.5243640542030334, 0.2829272747039795], [-0.1550246924161911, -0.4618320167064667, -0.46817171573638916, -0.30059510469436646, -0.26377543807029724, 0.024706536903977394, -0.5967406630516052], [0.47126543521881104, 0.037765372544527054, 0.0945247933268547, -0.7207323908805847, 0.374728798866272, 0.13580754399299622, -0.20116284489631653], [0.665576696395874, 0.16294008493423462, 0.6122070550918579, -0.4197275936603546, 0.7316125631332397, 0.3392353653907776, -0.3208666145801544]], "b0": [0.7519519329071045, 0.22621966898441315, 0.4085158109664917, -0.03453819081187248, 0.9499925971031189, 0.9267202019691467], "w1": [[0.28433191776275635, 0.6627534031867981, 0.29746243357658386, -0.18168561160564423, 0.11398421972990036, -0.46671292185783386, -0.1386789232492447, -0.4955344796180725, -0.07443580776453018, -0.03824148699641228, -0.3024185299873352, 0.2824545204639435], [-0.1514788419008255, -0.5242821574211121, -0.29341578483581543, 0.18735450506210327, -0.33728522062301636, 0.1963960975408554, -0.2728178799152374, -0.5870787501335144, 0.4037840962409973, -0.27524513006210327, -0.15439869463443756, -0.4981842339038849], [-0.10149270296096802, 0.5432687997817993, 0.31457147002220154, -0.059078317135572433, -0.32969701290130615, -0.3903034031391144, 0.5055482387542725, 0.21177202463150024, -0.35922807455062866, 0.497572660446167, 0.09435344487428665, 0.2480505108833313], [-0.585203230381012, -0.1730421781539917, -0.44716352224349976, 0.3301614820957184, 0.05448855087161064, 0.09029493480920792, -0.24034304916858673, 0.2672792971134186, -0.446338027715683, 0.28279605507850647, -0.054430630058050156, -0.2673281729221344], [0.6842013597488403, -0.23921824991703033, 0.21373873949050903, 0.3428957164287567, -0.5728094577789307, -0.06095774844288826, -0.18998245894908905, 0.215040922164917, -0.05327785387635231, 0.27607402205467224, -0.49909552931785583, -0.10342943668365479], [0.44122231006622314, -0.3954736292362213, -0.4868217706680298, -0.4645061790943146, 0.2433968037366867, -0.34608104825019836, -0.13390935957431793, 0.052804701030254364, -0.3630867898464203, 0.012212078087031841, -0.5634326338768005, 0.43049323558807373]], "b1": [0.38594162464141846, 0.042117778211832047, 0.1655074954032898, 0.0469411164522171, -0.09286065399646759, 0.011752944439649582]}, "mlp": {"w0": [[-0.32475391030311584, 0.17576000094413757, -0.0028524163644760847, 0.04182712361216545, 0.17960157990455627, 0.05355696380138397], [-0.2062387615442276, 0.1405172497034073, 0.06969629973173141, -0.13129882514476776, -0.09006252139806747, -0.20166032016277313], [0.1986619383096695, 0.2113703042268753, -0.11882858723402023, -0.12256418913602829, -0.03700566664338112, -0.05178507789969444], [0.07192335277795792, 0.1749768704175949, -0.18894706666469574, -0.04171593114733696, -0.07038214057683945, 0.0483068972826004], [-0.07861942797899246, -0.0019468996906653047, -0.04153050482273102, 0.2522086501121521, 0.27390268445014954, -0.2578693926334381], [0.027730191126465797, 0.15870553255081177, -0.14050379395484924, -0.054941531270742416, 0.1772073358297348, 0.10296321660280228], [-0.15558744966983795, 0.182534858584404, -0.1224820464849472, -0.07447433471679688, -0.09824948012828827, 0.08710962533950806], [-0.033762190490961075, -0.165970116853714, 0.17749492824077606, -0.07193860411643982, -0.07891643047332764, -0.09378612786531448], [0.08210250735282898, 0.12236694246530533, 0.031065022572875023, -0.15280945599079132, -0.1010679304599762, 0.09261895716190338], [0.014577957801520824, 0.15840914845466614, -0.18203718960285187, -0.16076460480690002, -0.03528425097465515, -0.01863064430654049], [-0.12728412449359894, -0.06008708477020264, -0.13052302598953247, -0.14216947555541992, 0.08620601147413254, -0.08192725479602814], [0.17623275518417358, -0.21046634018421173, -0.06519192457199097, -0.21252861618995667, -0.05029620602726936, -0.19418075680732727], [-0.19471688568592072, -0.20841944217681885, -0.15923593938350677, -0.07203198969364166, -0.18149474263191223, -0.14531369507312775], [-0.01796804554760456, 0.1492963284254074, -0.16011424362659454, 0.22143401205539703, 0.13951809704303741, -0.13976167142391205], [-0.2713748812675476, 0.1056835725903511, 0.03637733310461044, -0.24735942482948303, 0.18650612235069275, -0.24171094596385956], [-0.03035007417201996, -0.17706015706062317, 0.25908082723617554, -0.06869765371084213, 0.20259793102741241, -0.2158295065164566], [0.3046087622642517, -0.12371594458818436, -0.19457443058490753, -0.14381453394889832, -0.3028782606124878, -0.23124754428863525], [-0.2677614092826843, 0.11064271628856659, 0.1872066855430603, 0.06829933822154999, -0.148574560880661, 0.1746433973312378], [-0.1962123066186905, -0.10114383697509766, -0.10104068368673325, 0.0031387009657919407, -0.06883396953344345, 0.22279919683933258], [-0.06334907561540604, -0.11540669202804565, -0.1325141042470932, -0.02581668831408024, 0.13716919720172882, -0.16154639422893524], [0.17353439331054688, 0.01029807049781084, 0.03263728320598602, 0.2267669290304184, 0.0810512900352478, -0.226677805185318], [-0.11844000965356827, -0.22875206172466278, 0.01995072141289711, 0.21136818826198578, 0.1957610547542572, 0.0006455889670178294], [-0.0404352992773056, 0.16055737435817719, 0.16541923582553864, 0.0625632032752037, -0.02928168885409832, -0.04331953078508377], [0.0321018286049366, 0.12440785765647888, -0.030319254845380783, 0.10312332212924957, -0.19339457154273987, 0.15324357151985168], [0.27904805541038513, -0.27132830023765564, 0.04467339441180229, 0.2387229949235916, -0.424929678440094, 0.13764193654060364], [0.08197248727083206, -0.13630452752113342, -0.18356472253799438, -0.16058680415153503, 0.01765136420726776, 0.03679502010345459], [-0.185343399643898, 0.20039485394954681, -0.12231983244419098, 0.04154030606150627, 0.20699045062065125, 0.10178503394126892], [0.22316762804985046, -0.21415911614894867, -0.24839821457862854, 0.0031060550827533007, -0.12004831433296204, -0.018275050446391106], [-0.12962163984775543, -0.21820490062236786, 0.012557276524603367, -0.012356902472674847, -0.08522295951843262, 0.2031017243862152], [-0.03276323899626732, 0.1509668231010437, -0.17379623651504517, 0.11769510060548782, 0.13805006444454193, 0.042761947959661484], [-0.1975247859954834, 0.1297224760055542, -0.20550532639026642, -0.10755892843008041, -0.22692784667015076, 0.19736717641353607], [-0.3457680940628052, 0.15312877297401428, -0.35549288988113403, 0.065756656229496, 0.14222043752670288, -0.05181628838181496], [-0.08542053401470184, 0.1442868560552597, -0.07953628897666931, -0.10984568297863007, 0.1302945464849472, -0.13750410079956055], [-0.2525634765625, 0.2100234478712082, -0.3021529018878937, -0.04285378381609917, 0.44526389241218567, 0.009144488722085953], [-0.09896816313266754, -0.14624859392642975, -0.10722177475690842, -0.01748693361878395, 0.2691366970539093, 0.26603326201438904], [-0.10772577673196793, 0.1618356555700302, 0.1926726996898651, 0.04359380528330803, -0.19784967601299286, -0.08703723549842834], [0.10467088222503662, -0.04769229516386986, -0.0644562840461731, 0.18691928684711456, -0.20709100365638733, 0.05278731510043144], [0.15500883758068085, 0.06468155980110168, -0.08377639204263687, 0.21698513627052307, 0.012694073840975761, 0.1501956731081009], [0.015315230004489422, -0.17519834637641907, 0.3333500027656555, -0.18005971610546112, -0.24026386439800262, -0.18177565932273865], [-0.24944022297859192, 0.10035929828882217, -0.13312532007694244, -0.014029220677912235, -0.013258902356028557, -0.24099116027355194], [-0.036754947155714035, -0.0021830382756888866, 0.058695703744888306, 0.10149480402469635, -0.006453881040215492, -0.18584857881069183], [-0.42558640241622925, 0.23967351019382477, -0.23084981739521027, -0.33076155185699463, 0.13559353351593018, 0.15367324650287628], [-0.19130809605121613, -0.01130768470466137, -0.2402639389038086, 0.01491268165409565, 0.2674083113670349, 0.03786333277821541], [-0.04774567112326622, -0.0432601198554039, 0.008832629770040512, -0.21447797119617462, -0.11547709256410599, 0.018986046314239502], [0.17945730686187744, 0.11905183643102646, 0.03930957242846489, 0.06443127244710922, 0.1715635359287262, 0.20981819927692413], [0.05745727941393852, 0.10753149539232254, -0.2338409721851349, -0.03819439560174942, -0.02989049255847931, -0.005038224160671234], [0.1733008772134781, 0.19562871754169464, -0.09978176653385162, 0.19846376776695251, -0.12198996543884277, 0.12731024622917175], [0.10955429822206497, -0.19724737107753754, 0.2191935032606125, 0.07694010436534882, -0.16556742787361145, -0.11549050360918045], [-0.14350636303424835, -0.17877623438835144, 0.22592313587665558, 0.10554055124521255, -0.19830116629600525, 0.1690724492073059], [-0.1276664137840271, -0.20405475795269012, -0.16301649808883667, -0.10522425174713135, -0.10101766884326935, 0.11644589900970459], [0.08592400699853897, -0.13269521296024323, -0.2051299661397934, 0.2024184912443161, 0.021660981699824333, -0.19511696696281433], [-0.18669191002845764, 0.01347854733467102, -0.09993508458137512, -0.2438729852437973, 0.051081106066703796, 0.15336059033870697], [-0.11379262059926987, 0.23046496510505676, -0.1730060875415802, 0.213358536362648, -0.00360893364995718, -0.2273431420326233], [-0.22208693623542786, 0.16265864670276642, 0.20020093023777008, 0.05984057858586311, 0.20379403233528137, -0.2331511527299881], [-0.25396502017974854, -0.208857461810112, 0.12459824979305267, -0.033397216349840164, -0.030728671699762344, -0.12981346249580383], [-0.046628911048173904, -0.02374986745417118, -0.14488109946250916, 0.04587293043732643, 0.14899851381778717, 0.034636128693819046], [-0.25103965401649475, 0.07780957967042923, -0.1345309615135193, -0.08254943042993546, 0.14173686504364014, 0.14095348119735718], [0.2840462327003479, -0.13216182589530945, -0.2941591739654541, -0.1906796544790268, -0.29954564571380615, 0.03921453282237053], [-0.3355032503604889, 0.3038898706436157, 0.04881870374083519, -0.06954137980937958, -0.10854332894086838, 0.09152001142501831], [0.0606437548995018, -0.1970253884792328, 0.05296455696225166, 0.10325028747320175, 0.04056229069828987, 0.1806403547525406], [0.007048668339848518, -0.0602864995598793, 0.23449480533599854, 0.004459722898900509, 0.21057860553264618, -0.17116594314575195], [-0.10224340856075287, -0.22493796050548553, 0.20636704564094543, -0.07807512581348419, 0.20285508036613464, -0.12737968564033508], [-0.023639442399144173, 0.19162173569202423, 0.0027516749687492847, 0.018926579505205154, 0.10236364603042603, -0.26964396238327026], [0.2472458779811859, -0.1346660703420639, 0.2791813910007477, 0.06544965505599976, 0.1906069666147232, 0.034228984266519547], [-0.20301444828510284, -0.10791890323162079, -0.09506180137395859, -0.09558919817209244, -0.19915041327476501, -0.14631538093090057], [-0.1565527617931366, 0.16902102530002594, -0.24566707015037537, -0.04113730788230896, 0.12148266285657883, 0.18309880793094635], [0.08911996334791183, -0.1048436313867569, -0.2267417460680008, 0.1206175684928894, 0.04459161311388016, 0.09871874749660492], [-0.14335761964321136, -0.16431386768817902, -0.13018541038036346, 0.1622420698404312, -0.10023625940084457, -0.20331038534641266], [0.06986863166093826, -0.004841813817620277, 0.11000385880470276, -0.028864488005638123, -0.2238420844078064, -0.096982441842556], [-0.1691063642501831, -0.09026820212602615, 0.06727131456136703, 0.05342543497681618, -0.20118166506290436, -0.12881699204444885], [0.12321334332227707, 0.061636101454496384, 0.08322730660438538, -0.2054828703403473, 0.1310584396123886, -0.23193860054016113], [0.557508647441864, -0.34549012780189514, 0.5275083780288696, 0.0517474040389061, -0.27559030055999756, 0.2968757152557373], [0.07646938413381577, -0.13647475838661194, -0.008951177820563316, 0.040632907301187515, -0.1696045994758606, -0.20449680089950562], [0.11183515936136246, -0.0711548924446106, 0.08002343773841858, -0.06770101934671402, 0.10045184940099716, 0.1349700689315796], [-0.3254249691963196, -0.001351082231849432, 0.08804406225681305, 0.2539137005805969, -0.04886993020772934, -0.047467801719903946], [-0.18485037982463837, 0.23656708002090454, -0.0509415864944458, 0.1785038858652115, -0.11684491485357285, 0.02164585329592228], [-0.00768482219427824, 0.1083899512887001, -0.1311986744403839, -0.06960390508174896, -0.06624818593263626, 0.08319607377052307], [-0.2193075716495514, -0.101775161921978, -0.28110742568969727, -0.3024759888648987, 0.3521433472633362, -0.1032867506146431], [0.19691097736358643, -0.12318786233663559, -0.020238326862454414, 0.1160096749663353, 0.21381482481956482, -0.08618410676717758], [0.20133736729621887, 0.08288395404815674, 0.24102824926376343, -0.06992261856794357, -0.33283156156539917, 0.19546456634998322], [-0.16735194623470306, 0.32693246006965637, -0.17050029337406158, -0.001771603710949421, -0.05307091772556305, 0.23567911982536316], [0.17204730212688446, 0.0782766193151474, -0.13985349237918854, -0.0892556682229042, -0.22536128759384155, 0.2235535979270935], [0.27678826451301575, -0.20068562030792236, 0.3895580470561981, -0.47364842891693115, -0.3340510129928589, 0.22342832386493683], [-0.2505284547805786, 0.005812108051031828, -0.2531466782093048, 0.07989750802516937, 0.2633216977119446, 0.06982381641864777], [0.9233819246292114, -0.30633875727653503, -0.1451895534992218, -0.18877050280570984, -0.7055462002754211, -0.1264103204011917], [0.04132148250937462, -0.061751555651426315, 0.04989558830857277, 0.16879227757453918, -0.01690278947353363, 0.18732739984989166], [0.23397459089756012, -0.13875459134578705, -0.11124300211668015, 0.23196883499622345, 0.13027863204479218, 0.12558422982692719], [0.08885715901851654, -0.15466903150081635, 0.2211998552083969, -0.03372504189610481, -0.05585861951112747, 0.22257006168365479], [0.21842043101787567, -0.07828220725059509, 0.04258845001459122, 0.07681536674499512, 0.1249731034040451, -0.14246045053005219], [-0.2040124386548996, -0.14953120052814484, -0.18854673206806183, -0.07891874015331268, 0.14784908294677734, -0.06921351701021194], [-0.08682828396558762, -0.19281136989593506, -0.05866676941514015, -0.021528419107198715, 0.18397733569145203, -0.07503917813301086], [-0.21887223422527313, 0.11112848669290543, -0.046374887228012085, -0.07080884277820587, 0.025397202000021935, 0.10986597836017609], [0.04845714196562767, -0.2203979194164276, 0.23028242588043213, -0.044800084084272385, 0.21962948143482208, 0.052618082612752914], [-0.1756531149148941, 0.15844586491584778, 0.04581936076283455, -0.02558583766222, 0.10191711038351059, 0.018404677510261536], [0.06266636401414871, 0.13241523504257202, -0.10877007991075516, -0.08485643565654755, -0.1287529617547989, 0.018625039607286453], [-0.09545475989580154, -0.20860235393047333, 0.18620054423809052, -0.2349436730146408, -0.03680763393640518, -0.20452407002449036], [0.4749111831188202, 0.00910954549908638, -0.35524997115135193, -0.15773163735866547, -0.47509005665779114, -0.039264630526304245], [-0.21056030690670013, 0.34414952993392944, 0.004800031427294016, -0.4189060926437378, 0.200605109333992, -0.0683179497718811], [0.048625778406858444, -0.0038052969612181187, -0.23750251531600952, 0.08639954030513763, -0.29957085847854614, 0.04411952570080757], [0.09179049730300903, 0.19143308699131012, 0.15201658010482788, -0.07754606753587723, -0.08511372655630112, 0.17123089730739594], [0.10010825842618942, 0.024751121178269386, -0.1508682370185852, 0.27241483330726624, 0.25360107421875, 0.18143939971923828], [0.18110601603984833, -0.13338086009025574, -0.13962513208389282, -0.20222978293895721, -0.16080692410469055, -0.05657901242375374], [-0.06989262253046036, -0.022076785564422607, -0.16984239220619202, 0.19662024080753326, -0.044243503361940384, -0.22105702757835388]], "b0": [0.1244351863861084, -0.36083436012268066, -0.23288938403129578, -0.1726658046245575, -0.02890259400010109, -0.1125953420996666, -0.29130756855010986, -0.5966082215309143, -0.37418991327285767, -0.05254115164279938, -0.37944987416267395, -0.23105745017528534, -0.22703397274017334, -0.18429768085479736, 0.0408068522810936, -0.09106839448213577, -0.10092557221651077, -0.04001358151435852, -0.007083126809448004, -0.2596319019794464, -0.20978650450706482, -0.30088791251182556, -0.3602219820022583, -0.1304319202899933, -0.08002980053424835, -0.3997834622859955, -0.5486406683921814, -0.07533954083919525, -0.11852796375751495, 0.03040829487144947, -0.12484267354011536, 0.0446028858423233, -0.33271050453186035, 0.17060387134552002, 0.03033248893916607, -0.10870743542909622, -0.08769303560256958, -0.2546294033527374, 0.00494344113394618, -0.32114261388778687, -0.30484503507614136, -0.07887139916419983, 0.08629918098449707, -0.058720510452985764, -0.060921598225831985, -0.08646158128976822, -0.4718611538410187, -0.5815457105636597, -0.18924970924854279, -0.04402553290128708, -0.3572983741760254, 0.09408842772245407, -0.0927492156624794, -0.44740378856658936, -0.43464943766593933, 0.03247867897152901, 0.12078925967216492, -0.047875549644231796, -0.0019734224770218134, -0.13908573985099792, -0.43316182494163513, -0.06610893458127975, -0.3889913260936737, -0.06881315261125565, -0.3065597712993622, 0.0009897573618218303, -0.16699370741844177, -0.25840842723846436, -0.10884591937065125, -0.4239003360271454, -0.16860702633857727, 0.28298261761665344, -0.5171130895614624, -0.34019288420677185, -0.07577936351299286, -0.015457451343536377, -0.12393735349178314, 0.12688980996608734, -0.48412585258483887, -0.0035622227005660534, -0.07908102124929428, -0.11417599022388458, 0.08701779693365097, 0.09182893484830856, -0.22424201667308807, -0.2481876164674759, -0.3817083239555359, -0.18896085023880005, -0.09872016310691833, -0.38847923278808594, -0.4870052635669708, 0.09065655618906021, 0.00665912264958024, 0.0804150328040123, -0.12022034078836441, -0.10154407471418381, -0.09649494290351868, -0.09817353636026382, 0.01322376262396574, -0.21967674791812897, -0.06252399832010269, -0.7020531296730042, -0.21159471571445465], "w1": [[0.18711353838443756, 0.0014638100983574986, -0.15969258546829224, -0.05619772896170616, -0.25664305686950684, 0.0419083870947361, -0.04326554387807846, 0.04106539487838745, -0.16261397302150726, 0.04170139133930206, -0.10392621159553528, -0.1992187649011612, -0.109531469643116, -0.017122255638241768, 0.1484704613685608, -0.14488938450813293, -0.38525182008743286, -0.03160994499921799, 0.07483814656734467, -0.06256777793169022, -0.11801332235336304, -0.05353694409132004, -0.17801252007484436, -0.08686478435993195, -0.31337687373161316, -0.14980624616146088, -0.1064242571592331, -0.2138158082962036, -0.00519005861133337, 0.04495276138186455, 0.013716756366193295, 0.1549351066350937, -0.09816090762615204, 0.246938094496727, 0.11535521596670151, -0.08559847623109818, -0.048948824405670166, -0.03183720260858536, -0.1482994258403778, -0.022798242047429085, -0.19672144949436188, 0.22387227416038513, 0.13695870339870453, -0.04196692630648613, -0.0006297652143985033, -0.02427871897816658, -0.1642545908689499, 0.12441032379865646, -0.0840761661529541, -0.1537313163280487, -0.16232289373874664, 0.15410539507865906, -0.11235976219177246, 0.027165599167346954, -0.02200770378112793, 0.04468049481511116, 0.17027229070663452, -0.3244362473487854, 0.13913019001483917, -0.1832696795463562, -0.029432781040668488, -0.08517254143953323, -0.031460102647542953, -0.14883553981781006, -0.20771756768226624, 0.11180993169546127, 0.0013605576241388917, -0.12406742572784424, -0.17045742273330688, 0.020963527262210846, -0.20318181812763214, -0.3357429802417755, 0.10399235785007477, -0.10484983772039413, -0.31770578026771545, 0.041012056171894073, -0.02029937505722046, 0.2146727591753006, -0.18989084661006927, -0.12865348160266876, 0.12060324847698212, -0.11314486712217331, -0.25662586092948914, 0.14554379880428314, -0.5180692672729492, -0.04146076738834381, -0.09586271643638611, -0.1044357419013977, -0.03921781852841377, -0.077144093811512, -0.16484373807907104, 0.13256224989891052, -0.0850222185254097, 0.11345022916793823, -0.17941707372665405, -0.16186103224754333, -0.5370112061500549, 0.28602421283721924, -0.0888509750366211, -0.08199555426836014, 0.22032810747623444, -0.03348938375711441, -0.0830620676279068]], "b1": [0.5024846196174622]}, "mlp_config": {"0": {"w0": [[-0.03911704942584038, -0.03925240412354469, 0.1026308685541153, -0.22722987830638885, -0.00454874848946929, -0.07965657114982605, 0.1263422816991806, 0.08282295614480972], [0.10887238383293152, -0.002140219323337078, 0.13479425013065338, 0.03418538719415665, 0.040322933346033096, 0.01937362365424633, -0.1414315402507782, -0.054296672344207764], [0.018233483657240868, -0.08397484570741653, -0.11584904044866562, 0.13037794828414917, 0.023059125989675522, 0.06688523292541504, 0.138108029961586, -0.21693600714206696], [-0.19592341780662537, 0.07842332124710083, 0.1242418959736824, 0.031840551644563675, 0.05603371560573578, 0.0712539553642273, -0.16510117053985596, -0.09431928396224976], [0.11325575411319733, -0.08338779211044312, 0.020722556859254837, -0.21366152167320251, 0.02255481481552124, 0.03460214287042618, 0.07771164178848267, 0.05662402883172035], [-0.06805886328220367, -0.09064362198114395, 0.11553242057561874, -0.11642630398273468, -0.038281261920928955, -0.1575552076101303, -0.03768143057823181, -0.06037573143839836], [0.18711842596530914, 0.12114226818084717, 0.03901751711964607, -0.08667932450771332, 0.07477825880050659, -0.21141038835048676, 0.10791930556297302, -0.1965179592370987], [-0.0690300464630127, -0.005689656361937523, -0.11180604249238968, 0.016119610518217087, -0.03101147525012493, -0.03667791187763214, -0.23372507095336914, -0.033549562096595764], [-0.030026162043213844, 0.05310988798737526, 0.17045317590236664, 0.016831498593091965, -0.0022180413361638784, 0.06438537687063217, -0.007916406728327274, 0.05117131024599075], [-0.10809202492237091, -0.12447746098041534, 0.018651042133569717, 0.05534527823328972, 0.07692010700702667, 0.09795863181352615, -0.10867191106081009, 0.01982901617884636], [0.033307239413261414, -0.13995635509490967, 0.1480792909860611, -0.06495415419340134, -0.09794173389673233, -0.10850632935762405, -0.05038413032889366, -0.17469719052314758], [-0.12509964406490326, 0.05638371407985687, 0.13143287599086761, 0.14736193418502808, -0.10380100458860397, -0.020037749782204628, 0.02887224592268467, 0.10974329710006714], [0.03790632635354996, -0.18506360054016113, 0.012073725461959839, 0.013394881971180439, -0.12208443135023117, 0.0688188225030899, 0.1176895946264267, -0.10759346187114716], [0.03525407612323761, -0.02276548184454441, 0.0842379480600357, -0.2004026472568512, -0.0805605873465538, -0.1397256702184677, -0.0702325776219368, -0.07619256526231766], [-0.031029237434267998, -0.0763029232621193, 0.14389768242835999, 0.09932763874530792, 0.05737542733550072, 0.0811479464173317, 0.10979178547859192, 0.1350751370191574], [-0.1290929913520813, -0.1830778270959854, -0.10690116882324219, -0.1559741050004959, -0.01660921424627304, -0.06429453939199448, 0.18894469738006592, 0.09007447212934494], [-0.0951022356748581, -0.02788447216153145, 0.020690128207206726, 0.10691391676664352, -0.010413098149001598, -0.08341576159000397, 0.06835689395666122, 0.23247681558132172], [-0.1460297852754593, 0.046322379261255264, -0.06010342389345169, -0.16586185991764069, 0.11135546118021011, -0.1934865266084671, 0.05644595995545387, 0.11628644913434982], [-0.09181876480579376, 0.07794645428657532, -0.0472654290497303, 0.09689367562532425, -0.19619086384773254, 0.11451162397861481, 0.07133843004703522, -0.10126008838415146], [0.08348267525434494, 0.04148082807660103, -0.11289992928504944, 0.09571138769388199, -0.12842951714992523, -0.13994497060775757, -0.05485318601131439, 0.12559723854064941], [-0.01679224707186222, -0.013080394826829433, -0.09042691439390182, 0.09212592989206314, -0.17942577600479126, 0.12627466022968292, 0.002954009687528014, -0.08895314484834671], [-0.0053132567554712296, 0.07401368767023087, 0.048498548567295074, -0.14282368123531342, -0.22084040939807892, -0.039619702845811844, 0.07284575700759888, -0.14629167318344116], [-0.11512986570596695, -0.006907802075147629, -0.17408651113510132, -0.015778444707393646, -0.005175283178687096, -0.04506419226527214, 0.15483133494853973, -0.09313968569040298], [-0.028325989842414856, 0.19116716086864471, -0.03336085379123688, 0.18054775893688202, 0.08967185765504837, 0.15156425535678864, 0.06482933461666107, 0.14409007132053375], [-0.045707277953624725, 0.10945843160152435, -0.012851233594119549, -0.022379424422979355, 0.16615070402622223, -0.07560332119464874, -0.11137990653514862, 0.0813690647482872], [-0.11109833419322968, 0.13278302550315857, -0.16706673800945282, -0.06707151234149933, 0.1439858078956604, 0.1124376431107521, 0.05484647676348686, -0.23261892795562744], [0.02046922966837883, -0.0011302391067147255, -0.2813984453678131, -0.0742371454834938, 0.10730338096618652, -0.1259431093931198, 0.07454293221235275, 0.060828618705272675], [0.08942549675703049, -0.015960831195116043, 0.13246862590312958, -0.01171863079071045, 0.06209525093436241, -0.049413084983825684, 0.06124608591198921, -0.05997084081172943], [0.0801914632320404, -0.08158299326896667, 0.13531702756881714, -0.027588270604610443, 0.06118471920490265, 0.12670177221298218, 0.1020393893122673, 0.023691434413194656], [-0.10949162393808365, -0.12192992120981216, -0.1411791443824768, -0.14006681740283966, 0.039315640926361084, -0.04476277157664299, -0.14939284324645996, 0.08815938979387283], [0.05473518744111061, 0.11777947843074799, -0.13009054958820343, 0.08237674832344055, 0.050934817641973495, 0.008568454533815384, -0.1381234973669052, -0.031684648245573044], [0.16837720572948456, -0.067914217710495, 0.17702513933181763, 0.06721922755241394, 0.012327923439443111, -0.006555453408509493, 0.07999023795127869, -0.16251006722450256], [0.15565791726112366, 0.1348188817501068, 0.1709490716457367, -0.1344332993030548, 0.13225537538528442, -0.09094678610563278, 0.03208960220217705, -0.09842761605978012], [-0.03191220760345459, -0.105903759598732, -0.29692313075065613, -0.02207138016819954, -0.012356778606772423, -0.16005393862724304, -0.01493592094630003, 0.07704673707485199], [0.13434220850467682, -0.09889146685600281, -0.06287432461977005, -0.24430786073207855, 0.07605458050966263, -0.09845297038555145, 0.04987596347928047, -0.06782905012369156], [-0.05981047824025154, -0.08675164729356766, -0.1296214461326599, 0.042303167283535004, -0.149985209107399, -0.16466084122657776, 0.12833543121814728, 0.03348495811223984], [0.15427547693252563, -0.03215417265892029, 0.019643377512693405, 0.15539677441120148, -0.0836762860417366, 0.08238540589809418, -0.1763215810060501, 0.1137789636850357], [-0.018340514972805977, 0.04109976068139076, -0.15553174912929535, 0.19209304451942444, 0.03364233300089836, 0.05017868056893349, -0.1346263736486435, 0.02464384399354458], [-0.06387007981538773, 0.04351545870304108, -0.06066939979791641, -0.14418669044971466, -0.14627580344676971, -0.12953780591487885, 0.05754127725958824, -0.1776619255542755], [0.14349626004695892, -0.0035926687996834517, 0.185679093003273, 0.1262792944908142, 0.13829809427261353, 0.03808341547846794, -0.07203968614339828, -0.17185121774673462], [0.10464061051607132, 0.06610120832920074, 0.03247373551130295, 0.13366514444351196, -0.10378804802894592, 0.03516720235347748, 0.13687336444854736, -0.05472517013549805], [-0.005019021686166525, 0.09792553633451462, -0.04035057872533798, 0.18387195467948914, 0.07730812579393387, -0.0529157780110836, -0.0034368750639259815, -0.06279224157333374], [-0.07120180875062943, -0.16378329694271088, -0.12989680469036102, -0.009560358710587025, 0.034372054040431976, 0.0413314625620842, -0.15886394679546356, 0.020469294860959053], [-0.022901246324181557, -0.03885648772120476, 0.10168102383613586, -0.003594607813283801, -0.039439164102077484, 0.10781146585941315, -0.2084892839193344, 0.11710600554943085], [0.032738734036684036, 0.1213056668639183, -0.0021881565917283297, -0.12535488605499268, 0.006468856241554022, 0.1592862606048584, 0.04632233455777168, -0.10099375993013382], [0.053044576197862625, -0.1263972520828247, 0.12813863158226013, 0.07475859671831131, -0.1593945026397705, -0.061842162162065506, -0.10958395898342133, 0.15545734763145447], [-0.16082464158535004, -0.031774479895830154, -0.11717414110898972, -0.026442984119057655, -0.11438170820474625, -0.08942665159702301, -0.16989578306674957, 0.030050858855247498], [0.004928396549075842, 0.03729389235377312, -0.35034212470054626, 0.012431672774255276, -0.08353116363286972, 0.01885811984539032, 0.08909930288791656, 0.033856410533189774], [-0.06008879840373993, 0.013776174746453762, -0.25873103737831116, 0.006714812479913235, 0.09581408649682999, -0.03026110678911209, 0.07556171715259552, 0.18560513854026794], [0.11914458125829697, 0.135455921292305, -0.09369195997714996, -0.04978848621249199, 0.10004014521837234, 0.10022731870412827, -0.02828231081366539, 0.00754315173253417], [0.07030361145734787, 0.04081732779741287, -0.13376593589782715, -0.07027234137058258, 0.16605785489082336, 0.027288805693387985, 0.14479409158229828, 0.0628066211938858], [-0.03772267699241638, -0.08816878497600555, 0.18783551454544067, -0.054674405604600906, -0.09243451058864594, 0.09766946732997894, -0.13352204859256744, -0.10215368121862411], [-0.12026418745517731, -0.1495501548051834, -0.13588681817054749, -0.020935028791427612, -0.01810896210372448, 0.02231038548052311, 0.11958247423171997, 0.05661480501294136], [0.013821412809193134, -0.024493036791682243, -0.19157768785953522, 0.07288344204425812, 0.19805948436260223, -0.016739340499043465, 0.005534506402909756, 0.11961501091718674], [-0.1365407258272171, -0.05081745237112045, 0.00986085832118988, 0.06625249236822128, -0.02170594036579132, -0.04283258691430092, 0.011437907814979553, -0.11650417745113373], [-0.10183549672365189, 0.0366576611995697, 0.017206436023116112, 0.07249434292316437, 0.14439719915390015, -0.026133371517062187, -0.0652097761631012, 0.09834275394678116], [-0.15278476476669312, 0.02527252584695816, 0.13963793218135834, 0.07798801362514496, 0.07814207673072815, 0.022386370226740837, -0.09241246432065964, 0.03019341453909874], [-0.12301681190729141, 0.06183982267975807, -0.026548733934760094, 0.01995321735739708, 0.08893775194883347, 0.039690468460321426, -0.18305031955242157, 0.14998167753219604], [-0.024753287434577942, 0.04416128247976303, 0.15525884926319122, 0.13285943865776062, 0.09621576219797134, -0.048167407512664795, -0.12533140182495117, 0.10083362460136414], [-0.037809308618307114, 0.10890079289674759, 0.010179111734032631, 0.08210494369268417, -0.011098586022853851, 0.07296323776245117, -0.062499940395355225, -0.02897641994059086], [0.005745317786931992, 0.0051567587070167065, 0.03591886907815933, 0.054685529321432114, -0.10306507349014282, 0.0168552715331316, 0.18170730769634247, 0.13156411051750183], [-0.031140781939029694, -0.0662219226360321, 0.0480504184961319, 0.15249864757061005, 0.1495412290096283, -0.02641393058001995, 0.11640363186597824, 0.06193571165204048], [-0.13832423090934753, 0.0006008667405694723, 0.015823468565940857, 0.08697982877492905, -0.09785602986812592, -0.14316882193088531, 0.09350140392780304, 0.006079433485865593], [0.08348825573921204, -0.11062703281641006, 0.1477082371711731, -0.09038909524679184, 0.015728561207652092, 0.08736195415258408, 0.12596748769283295, -0.0500333346426487], [-0.025688840076327324, 0.011240767315030098, -0.12041186541318893, -0.14441971480846405, -0.17468750476837158, 0.055795010179281235, -0.06062491610646248, -0.09797046333551407], [-0.16704125702381134, -0.002062418730929494, 0.12767955660820007, -0.1953989863395691, 0.04943034052848816, 0.06776723265647888, -0.12775519490242004, 0.2175155133008957], [-0.06884648650884628, 0.07040420919656754, 0.12800905108451843, 0.14286568760871887, -0.09155028313398361, -0.1629994958639145, -0.22223533689975739, -0.013264542445540428], [-0.0430169552564621, 0.0926932692527771, -0.37379634380340576, -0.044358812272548676, 0.020659834146499634, -0.11420881748199463, -0.012782269157469273, 0.054999884217977524], [-0.0046640364453196526, -0.11144578456878662, 0.16455285251140594, -0.04311353713274002, -0.059216078370809555, -0.18975432217121124, -0.07036356627941132, -0.017404358834028244], [0.04375683143734932, 0.0894281417131424, 0.036869898438453674, 0.08794770389795303, -0.20768626034259796, -0.0683801993727684, 0.02004024013876915, -0.10105861723423004], [0.012560268864035606, -0.17224285006523132, 0.11685054004192352, -0.07951221615076065, -0.1229473352432251, -0.05219115689396858, -0.027714967727661133, 0.08868686109781265], [0.04113823175430298, -0.18610945343971252, -0.03126966208219528, 0.019166836515069008, 0.011194318532943726, -0.12651747465133667, 0.16228483617305756, 0.1435837596654892], [-0.0471821129322052, -0.026740508154034615, -0.10918380320072174, 0.19410359859466553, 0.059256065636873245, 0.08673494309186935, 0.07256639003753662, 0.0012125225039198995], [-0.060650043189525604, 0.03214940428733826, 0.02878616563975811, -0.12618319690227509, 0.05967538058757782, 0.015307211317121983, 0.11045634746551514, 0.025881869718432426], [-0.06826969981193542, 0.12219084054231644, -0.01585102640092373, -0.025391200557351112, 0.11745885759592056, 0.08375346660614014, 0.18549513816833496, 0.032658547163009644], [-0.08132582902908325, 0.13042289018630981, -0.06352011114358902, -0.1757838875055313, 0.05993819609284401, -0.031927961856126785, -0.12660229206085205, -0.006544456351548433], [0.013793868944048882, 0.07302355021238327, 0.04823669046163559, 0.2146059274673462, 0.12688928842544556, 0.1011635884642601, -0.02210320718586445, 0.06942812353372574], [-0.13963402807712555, 0.0352284237742424, -0.015735073015093803, 0.09401057660579681, 0.03068641386926174, 0.07152295112609863, -0.05993230640888214, 0.19065099954605103], [0.11859337985515594, -0.18519146740436554, 0.08317376673221588, 0.09728110581636429, -0.1359628438949585, -0.04425504431128502, -0.13397343456745148, -0.07158326357603073], [0.016259146854281425, 0.049228884279727936, 0.15816669166088104, -0.05335807427763939, -0.1405605524778366, -0.1390877068042755, 0.06703045219182968, -0.04716764762997627], [0.13223502039909363, -0.0994269847869873, 0.08344448357820511, -0.08186205476522446, 0.03135320171713829, -0.014535808935761452, 0.0570066012442112, 0.016666730865836143], [-0.03189347684383392, -0.03329756483435631, -0.20974425971508026, -0.03658968210220337, 0.014363688416779041, -0.015220416709780693, -0.014465582557022572, -0.192207932472229], [-0.0223094392567873, 0.10748814791440964, -0.11265191435813904, -0.09404761344194412, -0.03413661569356918, -0.10684571415185928, -0.0015728597063571215, -0.026044046506285667], [-0.023484690114855766, -0.0817381888628006, 0.1288232058286667, -0.026972131803631783, 0.08199972659349442, 0.030616426840424538, -0.14679929614067078, -0.07580780237913132], [0.09475627541542053, 0.14079366624355316, -0.14392752945423126, 0.21682247519493103, 0.015642087906599045, 0.009041434153914452, 0.006001444533467293, 0.010973064228892326], [0.013170378282666206, -0.040292710065841675, 0.17698535323143005, -0.10457530617713928, 0.0024859763216227293, -0.13558273017406464, 0.11289062350988388, 0.10989059507846832], [0.19732631742954254, 0.012573345564305782, -0.07853001356124878, -0.01845446228981018, 0.10050836950540543, 0.06708082556724548, 0.017690055072307587, -0.04575715586543083], [0.10282542556524277, 0.08681410551071167, 0.05923404544591904, 0.019248658791184425, 0.001895159250125289, 0.054090265184640884, -0.25579380989074707, 0.10641329735517502], [0.04736071825027466, -0.08873967826366425, -0.0010692001087591052, 0.10329096019268036, 0.11039989441633224, 0.06495818495750427, -0.04843974485993385, 0.07336320728063583], [-0.08836513012647629, 0.06456007808446884, 0.1542234569787979, 0.021014519035816193, -0.06430019438266754, -0.13578327000141144, 0.017659485340118408, -0.024877572432160378], [0.02130352519452572, 0.042861226946115494, -0.14465941488742828, -0.1269988715648651, -0.10565833002328873, -0.005924704950302839, -0.13809294998645782, -0.044609203934669495], [0.1215353012084961, 0.054941583424806595, -0.01882200501859188, 0.14684337377548218, -0.13990266621112823, 0.021037135273218155, -0.12517692148685455, 0.17949873208999634], [-0.07695523649454117, -0.15789492428302765, 0.07666309922933578, 0.015290062874555588, 0.07079027593135834, -0.12551122903823853, 0.12359387427568436, 0.07819867134094238], [-0.052193570882081985, -0.010339135304093361, 0.07520018517971039, -0.1910310983657837, -0.008622626774013042, -0.05489568039774895, -0.18217821419239044, -0.13231509923934937], [-0.01709042675793171, -0.06799314171075821, 0.04550471156835556, 0.19084373116493225, -0.05004773661494255, -0.0901038870215416, 0.10800068825483322, 0.18563099205493927], [0.05947386473417282, -0.06643132120370865, -0.040441252291202545, -0.03315763175487518, 0.0009263555402867496, 0.20135417580604553, -0.05720905214548111, 0.02235257253050804], [0.06560191512107849, -0.1356569230556488, 0.20337265729904175, -0.07848214358091354, 0.01706644892692566, -0.19729861617088318, -0.11583494395017624, 0.033043406903743744], [0.03611639142036438, 0.05357491225004196, 0.10747959464788437, -0.16101810336112976, 0.03820035979151726, 0.05289861559867859, 0.08727225661277771, 0.14284171164035797], [-0.00478846812620759, 0.038663920015096664, 0.048738133162260056, 0.07486850023269653, -0.061613090336322784, 0.05345373973250389, -0.0452660471200943, -0.33085930347442627], [-0.07676476985216141, 0.17208926379680634, -0.17073161900043488, -0.041918203234672546, 0.05019676685333252, 0.11285703629255295, 0.04894290864467621, 0.05510210990905762], [0.1587403118610382, 0.11256653815507889, 0.021910859271883965, 0.10935956984758377, -0.002354288939386606, -0.05887540057301521, 0.014008226804435253, 0.0186168123036623], [-0.015125041827559471, 0.028776414692401886, -0.1512763947248459, 0.09411494433879852, 0.05863574519753456, -0.02423262782394886, -0.07797934114933014, 0.04591592773795128], [-0.11062084138393402, 0.012012560851871967, 0.030606022104620934, -0.1500788778066635, -0.02756110019981861, 0.12922707200050354, -0.15249662101268768, -0.07084497809410095], [0.060765016824007034, -0.05612707883119583, -0.20784427225589752, 0.13348791003227234, 0.0011572932126000524, -0.1123993918299675, 0.0026233000680804253, 0.0680077001452446], [0.04377536103129387, -0.029590541496872902, -0.13417701423168182, -0.043062858283519745, -0.07288049161434174, 0.042129259556531906, 0.04666044935584068, 0.0755353793501854], [0.02301754802465439, 0.08003932982683182, -0.31220030784606934, -0.06720569729804993, -0.05662618204951286, 0.13062582910060883, 0.024434780701994896, -0.10577292740345001], [-0.09915672987699509, -0.17107254266738892, -0.03598574548959732, 0.0938887968659401, -0.10982318967580795, 0.025199169293045998, -0.006944181863218546, 0.08933920413255692], [-0.0696902722120285, -0.10743142664432526, 0.06604685634374619, -0.023716429248452187, -0.07658722251653671, 0.13114774227142334, -0.13732455670833588, -0.025728225708007812], [0.09426803886890411, 0.12178891897201538, 0.1394275277853012, -0.041477054357528687, 0.008202500641345978, -0.21367663145065308, 0.0955362543463707, -0.14928984642028809], [0.0411495678126812, 0.0359468013048172, 0.05028563737869263, -0.01501405332237482, 0.10720821470022202, 0.021325575187802315, 0.016943953931331635, -0.028000934049487114], [0.04556833952665329, -0.017426395788788795, -0.029109101742506027, 0.013202626258134842, 0.04859599843621254, 0.11357411742210388, 0.13705500960350037, 0.06342967599630356], [-0.061905961483716965, -0.03933986648917198, 0.023667111992836, -0.14253750443458557, 0.008879224769771099, -0.07427507638931274, -0.0984417274594307, 0.13749761879444122], [-0.008886797353625298, -0.09310565143823624, 0.024817444384098053, 0.12668487429618835, 0.11205324530601501, -0.1373409628868103, -0.009123352356255054, -0.17457593977451324], [0.13444119691848755, -0.018646609038114548, 0.1743566244840622, -0.024149900302290916, 0.024027608335018158, 0.01671387068927288, 0.017026269808411598, -0.20789717137813568], [0.0366036519408226, -0.14439283311367035, 0.12828536331653595, -0.1509198546409607, 0.07252255827188492, 0.08190003782510757, 0.08331743627786636, -0.02902422845363617]], "b0": [-0.11182383447885513, 0.012049001641571522, -0.05891958624124527, -0.03789442405104637, 0.01506948471069336, 0.02820604294538498, -0.0053503732196986675, -0.176417738199234, 0.04194267839193344, 0.007839580997824669, -0.060107700526714325, -0.042641911655664444, 0.09511483460664749, -0.04203376919031143, -0.023471875116229057, -0.08807601034641266, -0.00914440955966711, -0.03668680787086487, -0.004250209778547287, 0.009987406432628632, 0.00499472301453352, -0.0498695895075798, -0.07216887921094894, -0.0875592827796936, -0.009620165452361107, -0.026984816417098045, -0.09638593345880508, -0.10469623655080795, -0.010107054375112057, 0.026378192007541656, 0.027500566095113754, -0.00674418592825532, 0.0022380147129297256, -0.004196356516331434, -0.013794627040624619, 0.020237889140844345, 0.019033586606383324, -0.020521704107522964, -0.10244211554527283, -0.03638478368520737, -0.06114742159843445, -0.061224836856126785, -0.12427797168493271, 0.0201252494007349, -0.06029725819826126, 0.021331287920475006, -0.0055610416457057, -0.03183678537607193, -0.09567286819219589, -0.045646362006664276, -0.053941890597343445, 0.07532063126564026, -0.013209090568125248, -0.05178149789571762, -0.0828888863325119, -0.030748404562473297, 0.09015052020549774, -0.02638559602200985, 0.022078946232795715, -0.0021683594677597284, 0.07863873988389969, 0.029218951240181923, -0.01501024141907692, 0.007075337693095207, -0.06254679709672928, -0.04682346060872078, 0.03814809024333954, -0.10129521042108536, -0.029957855120301247, 0.016817152500152588, -0.02318182773888111, -0.05135932192206383, -0.1294480711221695, -0.08928658813238144, 0.0044894739985466, -0.042741939425468445, -0.006821647752076387, 0.02470424212515354, -0.04339504614472389, -0.0018673399463295937, -0.06296287477016449, -0.0969882383942604, -0.06930684298276901, 0.0010742251761257648, 0.04421360790729523, 0.05445665866136551, 0.034747812896966934, -0.023866653442382812, -0.023967035114765167, -0.04781465604901314, -0.00026914727641269565, 0.0032829490955919027, -0.0033908365294337273, 0.038890473544597626, -0.020335566252470016, -0.07159116119146347, 0.05452314391732216, -0.07669568806886673, -0.16384746134281158, -0.04600872844457626, 0.09998433291912079, -0.09913719445466995, -0.006786845158785582, 0.017971623688936234, -0.008723924867808819, -0.00024078035494312644, -0.003654896980151534, 0.027065053582191467, 0.050180476158857346, 0.00035988405579701066, -0.018404586240649223, 0.012804561294615269, -0.00321212294511497, -0.024289056658744812, -0.00767732597887516], "w1": [[0.1616702377796173, 0.04194611683487892, 0.013982363045215607, 0.016195103526115417, 0.07182417064905167, 0.10539867728948593, 0.18904633820056915, 0.10208828002214432, 0.03063156269490719, -0.0773799866437912, -0.003267537569627166, -0.15303514897823334, 0.16554377973079681, 0.127934530377388, -0.09357663989067078, 0.03830026090145111, 0.1391618400812149, -0.010630862787365913, 0.12153420597314835, -0.005838481243699789, -0.09610985219478607, -0.12042508274316788, -0.026554420590400696, -0.05484798178076744, 0.024256620556116104, 0.011788424104452133, -0.17206509411334991, -0.2119414061307907, 0.16786903142929077, 0.098580002784729, -0.08391067385673523, -0.0820837914943695, 0.06593218445777893, 0.13932453095912933, 0.048271626234054565, -0.12633192539215088, 0.08688526600599289, 0.07375583797693253, -0.12074586004018784, 0.1895323544740677, -0.005287183914333582, -0.012512690387666225, -0.08969658613204956, -0.07713118195533752, 0.10958876460790634, -0.07630375027656555, -0.0922098159790039, 0.06622474640607834, 0.14688660204410553, -0.04752073436975479, -0.13867832720279694, 0.18005667626857758, -0.10289346426725388, 0.0716390460729599, 0.018675975501537323, -0.028583230450749397, 0.08173182606697083, -0.021233946084976196, 0.10848914831876755, 0.13300272822380066, -0.13864904642105103, -0.0989614874124527, 0.20844018459320068, -0.08247440308332443, -0.170615553855896, -0.03202562779188156, 0.06590476632118225, 0.06996773183345795, -0.07915770262479782, 0.08739973604679108, -0.18627236783504486, -0.1372821033000946, 0.007445807568728924, -0.16555678844451904, -0.012134974822402, -0.15501320362091064, 0.025175612419843674, -0.025931943207979202, -0.035142216831445694, 0.13294969499111176, 0.01464878860861063, 0.0493963249027729, -0.14707407355308533, -0.1684170663356781, -0.1634560227394104, 0.07843094319105148, -0.0638633668422699, -0.012204624712467194, 0.19248443841934204, -0.07917288690805435, 0.12695275247097015, 0.05873113498091698, 0.08334757387638092, 0.1543498933315277, 0.2017161250114441, -0.11288882046937943, -0.08123021572828293, -0.06066448614001274, -0.11760348826646805, 0.20183208584785461, -0.031031528487801552, -0.037631262093782425, -0.12226910144090652, 0.06999056786298752, 0.056649692356586456, -0.0394466333091259, -0.07743892073631287, 0.17736470699310303, 0.00729308370500803, 0.026950282976031303, -6.070364543120377e-05, 0.08629894256591797, 0.08739909529685974, -0.14809823036193848, 0.03144087269902229], [0.009478743188083172, -0.061081137508153915, -0.04403311014175415, -0.08720330148935318, 0.09327429533004761, 0.15936820209026337, 0.1593402475118637, 0.07671207189559937, 0.1305372714996338, -0.10189341753721237, 0.13471895456314087, -0.10575838387012482, -0.18298602104187012, -0.1003820076584816, 0.020786592736840248, -0.19131670892238617, -0.057904213666915894, 0.13367092609405518, 0.018002070486545563, 0.04116082936525345, -0.17691759765148163, 0.01996406354010105, -0.031231075525283813, -0.0795854777097702, 0.08370023965835571, -0.10321763157844543, -0.022612355649471283, 0.11669442802667618, 0.13069844245910645, -0.028518741950392723, -0.17448841035366058, -0.08350947499275208, -0.17690950632095337, 0.006811708677560091, -0.06624485552310944, 0.023004623129963875, 0.03281882777810097, 0.13328641653060913, 0.02529364824295044, 0.07481297850608826, 0.1711268126964569, 0.12063629925251007, 0.12513764202594757, -0.19015473127365112, -0.16216543316841125, 0.1852031946182251, -0.2635911703109741, -0.08352786302566528, -0.010137373581528664, 0.11189737915992737, 0.13788971304893494, 0.15803027153015137, 0.044305723160505295, -0.20116588473320007, 0.15080809593200684, 0.046512749046087265, -0.21983963251113892, 0.08743390440940857, 0.1592298001050949, 0.1870311200618744, 0.016277750954031944, 0.012217381037771702, 0.13948464393615723, -0.02642790973186493, 0.12597939372062683, 0.130456805229187, 0.09249890595674515, -0.18965554237365723, -0.1307751089334488, -0.1964188814163208, -0.17982274293899536, -0.09216665476560593, 0.2132260799407959, -0.12053395807743073, -0.17809179425239563, -0.08642025291919708, -0.23291966319084167, 0.05480797216296196, 0.08853274583816528, -0.1616172194480896, -0.06402181088924408, 0.18951727449893951, 0.042426612228155136, 0.0787353664636612, 0.03771006315946579, 0.17342187464237213, -0.07579664140939713, -0.13983511924743652, 0.14496411383152008, -0.13507907092571259, -0.03709377720952034, -0.06306316703557968, 0.07126762717962265, -0.0038643854204565287, 0.010976302437484264, -0.055877819657325745, -0.11101190745830536, -0.07150598615407944, -0.022144796326756477, 0.17468196153640747, -0.06423680484294891, -0.037556082010269165, 0.07876663655042648, -0.18532852828502655, 0.15290628373622894, 0.005990206263959408, -0.016272258013486862, -0.07142750173807144, 0.024136604741215706, 0.10465896874666214, -0.033516861498355865, -0.2035435140132904, -0.1351165771484375, 0.0649527832865715, -0.046210337430238724], [-0.1270187497138977, -0.00798379722982645, -0.16438598930835724, -0.12729044258594513, -0.12501393258571625, -0.04464060068130493, 0.02294517494738102, 0.061031047254800797, -0.16011327505111694, -0.02507864683866501, 0.145168274641037, -0.061277929693460464, 0.14782527089118958, 0.06853971630334854, -0.11879416555166245, 0.0847242996096611, 0.07565592974424362, -0.06876217573881149, -0.03796888142824173, -0.039372701197862625, -0.2093726545572281, -0.05547057092189789, 0.13239440321922302, 0.1777004897594452, 0.17680096626281738, 0.023518724367022514, 0.044798266142606735, -0.061696138232946396, 0.016299137845635414, 0.0133695462718606, -0.1891695111989975, 0.09459847211837769, -0.02705789916217327, -0.15516284108161926, -0.17505641281604767, -0.12956532835960388, -0.015227077528834343, 0.04175253212451935, -0.02693335711956024, 0.11048304289579391, 0.13332878053188324, -0.1312512457370758, -0.021941009908914566, 0.15528504550457, -0.11210140585899353, -0.04926852881908417, -0.04747345298528671, 0.15499252080917358, 0.040426816791296005, -0.004717085976153612, 0.06146753206849098, 0.06560569256544113, -0.08182043582201004, 0.07155977934598923, 0.10298004001379013, -0.0616518072783947, 0.07919244468212128, -0.13179658353328705, -0.1324387490749359, 0.02917861007153988, -0.052791278809309006, -0.17311547696590424, -0.14355029165744781, -0.08176856487989426, -0.22519662976264954, -0.12405791133642197, 0.05329134315252304, -0.15832044184207916, -0.09775081276893616, -0.02650832012295723, -0.2024652510881424, 0.1369885504245758, -0.1964634656906128, 0.058075375854969025, 0.1645568162202835, -0.07487698644399643, -0.051138367503881454, 0.12207608669996262, -0.1639186590909958, 0.07524841278791428, 0.044288426637649536, -0.09663120657205582, 0.09671436995267868, 0.04554710164666176, -0.026911161839962006, 0.05373646318912506, -0.11157885938882828, 0.06112270429730415, 0.06679850071668625, 0.029131338000297546, 0.056509219110012054, -0.20188112556934357, -0.11831656843423843, 0.02428308315575123, -0.03272797539830208, 0.08174775540828705, -0.06049240380525589, 0.09650745987892151, -0.12174564599990845, -0.13730499148368835, -0.009661237709224224, -0.17152298986911774, -0.03917383775115013, 0.2244850993156433, -0.04027721658349037, 0.10499307513237, -0.03465091437101364, 0.05765445902943611, -0.17668744921684265, -0.09358895570039749, -0.16139456629753113, 0.08849463611841202, 0.044811736792325974, -0.08225206285715103, -0.01662389189004898], [-0.1616056263446808, 0.12511026859283447, -0.1289438009262085, -0.00849933922290802, -0.06423462182283401, 0.16376996040344238, 0.06370056420564651, 0.04159918054938316, -0.1671755611896515, 0.12820804119110107, -0.009225369431078434, -0.14542452991008759, 0.010590209625661373, 0.11340228468179703, 0.16318351030349731, -0.05054138973355293, -0.027347849681973457, -0.05479743331670761, 0.07046380639076233, 0.17139072716236115, 0.09069525450468063, 0.02819117344915867, 0.013936459086835384, -0.1951237916946411, 0.17053772509098053, 0.02218719758093357, 0.12498252093791962, -0.163113072514534, 0.11885347217321396, 0.15901784598827362, 0.17958736419677734, -0.11924456059932709, -0.15159742534160614, 0.10243508219718933, -0.08277957141399384, 0.021951939910650253, 0.04108412563800812, -0.10661735385656357, -0.15332293510437012, -0.02064194343984127, -0.029080161824822426, -0.19687172770500183, -0.16433781385421753, 0.13146907091140747, -0.023854626342654228, -0.12727463245391846, 0.027921194210648537, 0.15912392735481262, -0.06618542969226837, -0.10879580676555634, -0.03400115296244621, 0.1345466524362564, 0.13548247516155243, 0.07431546598672867, -0.2506915330886841, -0.10596399754285812, 0.07283322513103485, 0.19689002633094788, -0.042639799416065216, 0.023592082783579826, 0.15853586792945862, 0.13092771172523499, 0.06125078350305557, -0.026076672598719597, -0.1345870941877365, -0.1469692438840866, 0.18013712763786316, 0.1646774262189865, 0.16219501197338104, 0.10359207540750504, -0.08047107607126236, -0.14903685450553894, -0.04348789528012276, -0.13440847396850586, 0.006230016704648733, -0.0017105670413002372, 0.0453333742916584, -0.0873536467552185, -0.1463059037923813, -0.10708719491958618, 0.11930935829877853, -0.11143151670694351, -0.008198358118534088, 0.05478837713599205, -0.14277997612953186, 0.05840754136443138, 0.16547350585460663, 0.11814042180776596, -0.10077686607837677, -0.09601446986198425, -0.18538916110992432, -0.0814700648188591, 0.14194414019584656, -0.17621026933193207, -0.209520161151886, -0.20199128985404968, 0.020247802138328552, -0.1648470014333725, -0.27465352416038513, 0.22601747512817383, -0.013201320543885231, -0.12330397963523865, 0.10803685337305069, 0.16626593470573425, 0.1658099740743637, -0.008944145403802395, 0.1364985853433609, -0.02550206333398819, -0.02275795489549637, 0.051958825439214706, 0.2674716114997864, -0.10555501282215118, -0.08683471381664276, -0.0323752723634243, -0.18623226881027222], [0.14327934384346008, -0.04921821504831314, -0.08588691800832748, 0.005152685567736626, 0.01992577314376831, -0.09253957867622375, -0.07625420391559601, -0.20376549661159515, -0.023200199007987976, 0.1564674824476242, 0.13412277400493622, -0.004918715916574001, 0.0628867894411087, -0.08928229659795761, -0.01999870128929615, 0.12387827783823013, 0.08405698835849762, 0.0298928115516901, 0.11788899451494217, 0.0028439327143132687, -0.06757684051990509, -0.15836699306964874, 0.1650255024433136, 0.026838630437850952, 0.14796878397464752, 0.0029613038059324026, -0.07982591539621353, -0.21748049557209015, -0.04006694629788399, 0.07754475623369217, 0.0771670788526535, 0.048520177602767944, 0.12689730525016785, -0.03140915185213089, 0.04919920861721039, 0.06170833483338356, 0.001546448445878923, 0.13553763926029205, -0.020063726231455803, -0.024866340681910515, -0.09900905191898346, -0.12899543344974518, -0.1467907726764679, -0.13521462678909302, 0.16337989270687103, -0.08700646460056305, 0.11111040413379669, 0.03000362403690815, -0.18467210233211517, -0.0312972329556942, 0.02225896529853344, 0.0072008767165243626, -0.22231608629226685, 0.056655727326869965, -0.11258851736783981, -0.01044013723731041, -0.10982932150363922, -0.07479972392320633, -0.04214370995759964, 0.14485420286655426, -0.0396709069609642, 0.12409816682338715, 0.028955798596143723, -0.04383835941553116, -0.025735242292284966, 0.03820846229791641, 0.11013027280569077, -0.10338564217090607, -0.06189572438597679, -0.0498892217874527, 0.1038319319486618, -0.05664534866809845, 0.12631665170192719, -0.007860089652240276, 0.0021302669774740934, -0.14333775639533997, -0.013523208908736706, 0.051196593791246414, -0.015533995814621449, 0.05660753697156906, 0.09294195473194122, -0.06015060469508171, 0.08331721276044846, -0.09039445966482162, -0.21691034734249115, 0.021379629150032997, -0.076756052672863, -0.040196385234594345, 0.05555101856589317, -0.07130742818117142, 0.04548194631934166, 0.11456084996461868, -0.07980053126811981, 0.20080511271953583, 0.11743201315402985, 0.1490916758775711, 0.006114286836236715, 0.009417262859642506, 0.18431876599788666, -0.0964711606502533, 0.11392032355070114, 0.21558691561222076, -0.06512489169836044, -0.024099020287394524, -0.015131577849388123, -0.11448507755994797, -0.059921994805336, 0.05639578774571419, 0.15844519436359406, -0.11548960953950882, 0.03808782249689102, 0.12061352282762527, 0.14297883212566376, 0.11851081252098083, -0.07021187245845795], [-0.04915973171591759, -0.051109060645103455, 0.20796144008636475, 0.07089327275753021, 0.06826608628034592, 0.05214262753725052, 0.11116474121809006, 0.03342891111969948, -0.10381637513637543, -0.06967344880104065, -0.006853227503597736, 0.09109219908714294, -0.03336246311664581, 0.022641511633992195, 0.035884179174900055, -0.05550723150372505, 0.12890639901161194, 0.09398428350687027, 0.04070208594202995, 0.01723562367260456, -0.005835577379912138, -0.00610430259257555, 0.06727338582277298, 0.08384394645690918, 0.04030313715338707, -0.09968306869268417, -0.040669430047273636, -0.01218240987509489, -0.03151780366897583, -0.09313579648733139, 0.05147397890686989, -0.23828156292438507, 0.08014597743749619, -0.1766306757926941, -0.14172756671905518, -0.03204554319381714, -0.07947725057601929, 0.016094423830509186, 0.0833485797047615, 0.1297900378704071, 0.11293253302574158, 0.007903465069830418, -0.07707583159208298, 0.03472137823700905, 0.1290418803691864, 0.0844578668475151, 0.033700428903102875, -0.20274044573307037, 0.09371721744537354, -0.03823002427816391, -0.0011531560448929667, -0.0622355192899704, 0.08069664984941483, -0.07341713458299637, -0.07173435389995575, -0.11244800686836243, 0.08149450272321701, -0.03686482086777687, 0.16970199346542358, -0.09375227987766266, -0.14199385046958923, -0.09781383723020554, 0.033494193106889725, 0.07215411216020584, -0.013801154680550098, -0.034762196242809296, -0.1420031636953354, -0.04498406872153282, -0.10741030424833298, 0.0704401358962059, 0.046118322759866714, 0.13842424750328064, -0.054456669837236404, 0.07933246344327927, -0.061764057725667953, 0.007913731038570404, -0.03650351241230965, 0.04826587811112404, 0.05850754678249359, 0.1728348284959793, 0.02338222973048687, -0.16182851791381836, -0.11205142736434937, 0.12003577500581741, -0.12139710038900375, -0.16492347419261932, -0.003085377160459757, -0.06030294671654701, -0.053036224097013474, -0.01868637092411518, -0.03274575248360634, 0.08931677788496017, 0.12149723619222641, 0.04004190117120743, -0.1578129380941391, -0.02184414118528366, 0.14542481303215027, -0.021070078015327454, -0.06404667347669601, -0.015475165098905563, 0.09310468286275864, -0.13963964581489563, 0.04213586449623108, -0.004349306225776672, 0.07603801041841507, -0.10416629165410995, -0.13037779927253723, 0.07932961732149124, -0.15442857146263123, 0.00465962802991271, 0.05200742185115814, -0.023148534819483757, -0.010992255061864853, -0.13291235268115997, 0.022618327289819717]], "b1": [0.40878063440322876, -0.04437224939465523, -0.27851152420043945, 0.292356938123703, 0.1424393355846405, -0.09910398721694946]}, "1": {"w0": [[0.046895649284124374, 0.20069639384746552, -0.03246883675456047, -0.03284367546439171, 0.1319347769021988, 0.23165881633758545, 0.06424588710069656, -0.13760168850421906], [0.0469500869512558, 0.17908914387226105, -0.02711057849228382, -0.18289948999881744, 0.08192512392997742, 0.13622748851776123, 0.025585491210222244, 0.04045245423913002], [-0.038598962128162384, 0.01538536511361599, -0.08581990748643875, -0.05341154709458351, -0.23924294114112854, 0.13507385551929474, -0.07767390459775925, 0.1808142364025116], [-0.03371753171086311, -0.08239803463220596, 0.17009887099266052, 0.08377503603696823, 0.10927491635084152, -0.17393505573272705, -0.19003379344940186, 0.057007115334272385], [0.06952575594186783, 0.08231191337108612, 0.0041505806148052216, 0.29043278098106384, 0.030034586787223816, 0.08210761100053787, -0.1462862342596054, -0.1896519809961319], [-0.172132208943367, -0.09284492582082748, -0.11452028155326843, -0.08537320047616959, -0.047329582273960114, 0.02580517716705799, -0.1798599362373352, 0.04110323265194893], [-0.1093682199716568, 0.08092175424098969, -0.08753599226474762, -0.02979746088385582, -0.1498734951019287, 0.006360218394547701, 0.260714054107666, 0.13036449253559113], [0.17223326861858368, -0.17033016681671143, 0.14368446171283722, -0.09131249040365219, -0.20733124017715454, 0.10619401931762695, -0.08860264718532562, 0.1057063415646553], [0.0215290654450655, -0.18432065844535828, 0.1050872951745987, -0.16882392764091492, 0.23812706768512726, 0.18017397820949554, -0.21757429838180542, -0.11935999989509583], [-0.06774338334798813, -0.1388937532901764, -0.07650911062955856, -0.1441483050584793, -0.13610301911830902, -0.01403745450079441, -0.19890867173671722, 0.13568450510501862], [-0.1650751233100891, 0.11734068393707275, 0.012114835903048515, 0.04707171767950058, 0.07636749744415283, -0.0027312280144542456, -0.23223306238651276, 0.18486058712005615], [0.11605678498744965, -0.07084662467241287, 0.0211660023778677, -0.22143620252609253, 0.08919887989759445, -0.02060769312083721, 0.07937363535165787, -0.17227362096309662], [-0.01862151175737381, -0.06342819333076477, 0.03557179123163223, 0.12513646483421326, 0.05475051328539848, 0.06199508532881737, 0.02509303018450737, 0.26530319452285767], [-0.12806057929992676, 0.009224851615726948, -0.08389397710561752, 0.06566974520683289, 0.20755931735038757, 0.04345770180225372, -0.13562487065792084, -0.02791677787899971], [0.1371050477027893, -0.19010497629642487, -0.21313799917697906, 0.08476929366588593, 0.1576496958732605, -0.0036955769173800945, 0.008358338847756386, -0.08521968871355057], [0.176378533244133, -0.09132589399814606, 0.06588263809680939, 0.06553173810243607, -0.005147888790816069, 0.0253098513931036, 0.08870904892683029, 0.05279969424009323], [0.12454140186309814, 0.12761686742305756, -0.17159916460514069, -0.07298403233289719, 0.04083113372325897, 0.2352455109357834, -0.010158772580325603, 0.05144161731004715], [-0.13083916902542114, 0.2006959170103073, 0.07121089845895767, -0.12314387410879135, 0.17202454805374146, 0.07222190499305725, -0.11405036598443985, 0.08683212101459503], [0.09392010420560837, 0.062307748943567276, -0.05385177209973335, 0.2359841763973236, 0.10136312991380692, 0.18942975997924805, -0.0549410916864872, -0.033206090331077576], [0.18613624572753906, 0.05073433741927147, -0.3997153639793396, -0.012252033688127995, -0.11015074700117111, -0.0824199989438057, -0.06632693111896515, 0.039503391832113266], [0.10514818876981735, -0.10114353150129318, 0.026897260919213295, -0.13828863203525543, -0.10287292301654816, 0.23151391744613647, 0.005716703366488218, 0.02052796632051468], [0.1782660037279129, -0.19394779205322266, -0.012460943311452866, 0.09547185897827148, 0.004521476570516825, 0.07616275548934937, -0.20335309207439423, -0.1043909564614296], [0.0911538377404213, 0.18845249712467194, 0.10676314681768417, -0.1860220730304718, 0.118943952023983, -0.02987421117722988, -0.08594238758087158, 0.04924226924777031], [-0.02065574750304222, -0.02338905818760395, 0.10335449129343033, -0.16102305054664612, 0.14979690313339233, -0.19920286536216736, -0.10458430647850037, 0.24358732998371124], [-0.04847903549671173, 0.018434574827551842, -0.15096205472946167, -0.05402858182787895, -0.16920268535614014, -0.16373877227306366, -0.1550978422164917, 0.14435674250125885], [0.04852082207798958, -0.0020829811692237854, -0.3929196894168854, -0.03461466729640961, -0.0007939987117424607, -0.06601861119270325, 0.16738779842853546, 0.014117072336375713], [0.08427328616380692, -0.03597499057650566, 0.20977091789245605, -0.1648291051387787, 0.14789864420890808, -0.08773884177207947, 0.09482240676879883, 0.006814786698669195], [-0.011394655331969261, 0.16420888900756836, -0.09433788061141968, -0.23438365757465363, -0.0010225726291537285, 0.17090681195259094, -0.1062307059764862, -0.14567720890045166], [0.048752278089523315, 0.11623476445674896, -0.11451374739408493, 0.13744856417179108, 0.04698951169848442, -0.06430024653673172, 0.22524794936180115, 0.12457715719938278], [0.18858478963375092, -0.10277216881513596, -0.18974626064300537, -0.1724311113357544, 0.11477798223495483, 0.013427714817225933, -0.004790300503373146, 0.02121136710047722], [0.07444582879543304, 0.07631688565015793, -0.19762274622917175, -0.04860525205731392, -0.023871276527643204, 0.04997124895453453, -0.2035972625017166, -0.09467113763093948], [0.12446026504039764, -0.1415248066186905, -0.2587701082229614, 0.04050209000706673, 0.14065887033939362, 0.07160167396068573, 0.0936468243598938, 0.08373793959617615], [0.09341400116682053, -0.05109790340065956, 0.17716191709041595, 0.09295980632305145, -0.08928767591714859, 0.1021813452243805, 0.04504633694887161, -0.08695583790540695], [-0.0992523729801178, -0.14123032987117767, -0.39035898447036743, 0.05539731681346893, 0.022089023143053055, 0.09872846305370331, 0.2235078066587448, 0.07384533435106277], [0.016829049214720726, -0.07612836360931396, 0.018035288900136948, 0.09130612760782242, 0.11099687218666077, 0.16359500586986542, -0.06398317962884903, 0.18009065091609955], [0.08712352812290192, 0.252407431602478, 0.05131032317876816, -0.04078446701169014, 0.18740223348140717, 0.15184499323368073, 0.1876499503850937, -0.15449316799640656], [0.19183316826820374, 0.07944721728563309, -0.10209575295448303, 0.06513430178165436, -0.10750897228717804, -0.15066732466220856, -0.00047638441901654005, -0.13238151371479034], [0.06078222021460533, -0.1494053304195404, -0.08648748695850372, -0.09849675744771957, -0.10534930229187012, -0.11768481880426407, -0.03842955455183983, 0.1251934915781021], [-0.07769083976745605, -0.02008364535868168, 0.11880690604448318, -0.08007579296827316, -0.093227319419384, -0.17479418218135834, -0.07272440195083618, -0.163512721657753], [0.1081961840391159, -0.0552014596760273, -0.024026231840252876, -0.10217539966106415, 0.055241141468286514, 0.16242989897727966, 0.06488712131977081, -0.3048225939273834], [0.17324133217334747, -0.15242666006088257, -0.22999687492847443, -0.08440592885017395, 0.053512394428253174, -0.12860634922981262, 0.051861152052879333, -0.1832737922668457], [0.18568305671215057, -0.02319927141070366, -0.1585327684879303, 0.24093341827392578, 0.0674988329410553, 0.17689679563045502, -0.0861799493432045, -0.048331648111343384], [0.2103796750307083, -0.007983580231666565, 0.16128575801849365, 0.21955236792564392, 0.028655841946601868, 0.1883198618888855, -0.04705553129315376, -0.1394529640674591], [0.18337959051132202, -0.0945192500948906, 0.04402490332722664, -0.10595931857824326, -0.14161920547485352, 0.09671013802289963, -0.005820463411509991, 0.15057626366615295], [-0.21338990330696106, 0.029727227985858917, 0.03859759494662285, 0.14263106882572174, 0.024647455662488937, 0.1525515913963318, -0.1194024309515953, -0.11653602868318558], [0.18936720490455627, -0.19460925459861755, -0.010367762297391891, 0.09133195132017136, 0.1659679263830185, -0.0674707293510437, -0.10738826543092728, -0.014136996120214462], [-0.15691030025482178, -0.022086726501584053, 0.10121666640043259, -0.015271338634192944, 0.19398650527000427, 0.007058233488351107, 0.1388694792985916, -0.04031229019165039], [-0.0655432865023613, 0.07932282239198685, 0.041506774723529816, -0.041030317544937134, 0.0023743463680148125, 0.13560976088047028, 0.1818705052137375, -0.05422690138220787], [0.14102283120155334, -0.08828455209732056, -0.1100209429860115, -0.16308912634849548, 0.07781080156564713, -0.21686425805091858, 0.032424334436655045, -0.13005217909812927], [-0.12357134371995926, 0.0130156883969903, 0.11985086649656296, 0.29098960757255554, 0.0673692524433136, 0.011780785396695137, 0.16306409239768982, 0.13105818629264832], [0.22050701081752777, 0.13891296088695526, -0.25867965817451477, 0.12304926663637161, 0.05644568055868149, 0.1019054725766182, 0.09666140377521515, -0.011049196124076843], [0.03282308951020241, -0.08147203177213669, 0.0032337207812815905, -0.00504904193803668, -0.16595667600631714, 0.19919945299625397, 0.23232139647006989, -0.05890066921710968], [0.059656474739313126, 0.13167475163936615, -0.014478669501841068, -0.1899348348379135, 0.03763207420706749, -0.1412656009197235, -0.036011774092912674, 0.08340582996606827], [0.11901494115591049, 0.013700764626264572, -0.16919629275798798, -0.14354360103607178, -0.10816006362438202, 0.038423579186201096, -0.1532115489244461, 0.1258011758327484], [-0.09347016364336014, -0.17152243852615356, -0.010059308260679245, 0.11437519639730453, 0.08923417329788208, 0.020088057965040207, -0.14289401471614838, 0.08966803550720215], [0.08630777895450592, 0.056809134781360626, 0.2031676173210144, 0.10078451037406921, -0.1417560577392578, 0.1398845613002777, 0.09493084996938705, 0.19684024155139923], [-0.1438528150320053, 0.04081973060965538, 0.219192236661911, 0.06465078890323639, -0.07911775261163712, 0.1098436564207077, 0.036460019648075104, 0.2048027515411377], [0.19444194436073303, -0.14338819682598114, 0.05674464628100395, 0.006868842989206314, -0.06648500263690948, 0.1483321487903595, -0.03252528980374336, 0.07134059071540833], [0.15392163395881653, 0.11105022579431534, 0.19673922657966614, -0.07511652261018753, -0.11318451911211014, -0.07460888475179672, 0.04829883575439453, 0.24874408543109894], [0.04040384292602539, -0.09473808109760284, -0.00346970371901989, 0.11351889371871948, 0.18509314954280853, 0.03907863795757294, 0.061872925609350204, 0.005575003568083048], [-0.12778659164905548, -0.0965721607208252, 0.1713186651468277, 0.010985548608005047, -0.1482320874929428, -0.0683751031756401, -0.11970110237598419, 0.07964005321264267], [0.12033555656671524, -0.2295965850353241, -0.09959109872579575, 0.1832839399576187, 0.04741627350449562, 0.04184972867369652, 0.04530029743909836, 0.05568023398518562], [0.08318281918764114, 0.03957598656415939, 0.08038036525249481, 0.0868699699640274, 0.21282236278057098, 0.20815977454185486, 0.17659887671470642, 0.12070795893669128], [-0.12813150882720947, -0.1307813674211502, -0.0011599009158089757, -0.17433710396289825, 0.10332059860229492, 0.19439058005809784, -0.01154171023517847, -0.18886858224868774], [-0.13049185276031494, 0.17344366014003754, 0.0049181142821908, 0.08030010759830475, -0.015699289739131927, -0.0910240039229393, -0.19121281802654266, -0.25126755237579346], [-0.013366472907364368, 0.13596075773239136, -0.18309511244297028, 0.18378303945064545, -0.19211383163928986, 0.20864146947860718, -0.20464298129081726, 0.12685327231884003], [-0.055050477385520935, -0.0008540928247384727, -0.17251335084438324, -0.26935380697250366, 0.07137947529554367, 0.027526693418622017, 0.18052832782268524, 0.10897547751665115], [0.023271910846233368, 0.08075302094221115, -0.4287804961204529, -0.011357470415532589, 0.05626332014799118, -0.18875902891159058, -0.1621566116809845, 0.12131765484809875], [0.1384514570236206, -0.014163392595946789, -0.09585069864988327, -0.04435379058122635, -0.221126526594162, -0.0985165685415268, 0.2237377166748047, 0.1740749478340149], [0.07760266214609146, 0.018352240324020386, 0.0269556175917387, 0.15824581682682037, -0.18461786210536957, 0.1696600615978241, 0.027888154610991478, -0.0014627284836024046], [-0.020796066150069237, 0.027980590239167213, 0.213144451379776, -0.2645935118198395, -0.012396171689033508, -0.030984627082943916, 0.15014605224132538, 0.0005468317540362477], [-0.13675522804260254, -0.055657945573329926, -0.10192172974348068, -0.042581960558891296, 0.18527305126190186, -0.03997020795941353, -0.21922260522842407, -0.055882345885038376], [-0.04132050275802612, 0.1449633091688156, -0.1197052150964737, -0.11829226464033127, -0.13490836322307587, 0.04222609102725983, -0.05287712812423706, -0.1777186244726181], [-0.029534216970205307, 0.08177010715007782, -0.16546693444252014, -0.1544908732175827, -0.006253582891076803, 0.07223512977361679, -0.054686155170202255, 0.04573351517319679], [-0.19340625405311584, 0.22277520596981049, -0.09789808839559555, -0.21826310455799103, -0.044697679579257965, 0.056497056037187576, -0.2608416676521301, -0.013227400369942188], [-0.08844766765832901, 0.18109802901744843, 0.05518755316734314, 0.09778645634651184, -0.16842620074748993, 0.04147794470191002, -0.22011306881904602, 0.13509656488895416], [0.20067952573299408, 0.08184927701950073, 0.13175509870052338, -0.03379298374056816, 0.09201256185770035, 0.10972016304731369, -0.09387887269258499, -0.020485667511820793], [-0.07581950724124908, -0.12932221591472626, 0.15682104229927063, -0.12788565456867218, 0.16350990533828735, -0.08365101367235184, 0.0602470226585865, -0.06209695711731911], [-0.06839540600776672, -0.004670622758567333, -0.2931254506111145, -0.007975054904818535, -0.10037361085414886, 0.011379990726709366, 0.25197193026542664, -0.012024743482470512], [0.04172482714056969, 0.09886303544044495, -0.02976905182003975, 0.19391562044620514, 0.10765611380338669, -0.10379420965909958, 0.15344664454460144, -0.2008870244026184], [-0.03144071251153946, -0.12007077038288116, -0.11817821115255356, -0.11414480209350586, -0.06642216444015503, -0.018813161179423332, 0.14891546964645386, 0.10913851112127304], [0.18111607432365417, 0.18687421083450317, -0.16935813426971436, 0.17356784641742706, 0.03035772405564785, 0.17425642907619476, 0.21197588741779327, -0.07521568238735199], [0.04721863567829132, -0.056682080030441284, -0.16054540872573853, 0.11359730362892151, 0.13713471591472626, 0.08738967776298523, -0.16117490828037262, 0.1843908280134201], [-0.1619679480791092, 0.12841452658176422, 0.17404481768608093, 0.17700019478797913, 0.07685969024896622, 0.0819852277636528, 0.10489198565483093, -0.1587950885295868], [-0.1124439537525177, 0.024443859234452248, -0.08145058900117874, -0.012789716012775898, 0.05771050229668617, 0.19366922974586487, 0.1939511001110077, 0.11191508173942566], [-0.08104817569255829, 0.03612300381064415, 0.1585872322320938, -0.08028392493724823, -0.022801974788308144, 0.0356610007584095, 0.1131218671798706, 0.0878242552280426], [-0.038220882415771484, -0.13689124584197998, -0.23544013500213623, -0.03309575095772743, 0.025342067703604698, 0.08001634478569031, -0.044326022267341614, 0.09101039916276932], [-0.08122488111257553, 0.02387208864092827, 0.025253649801015854, -0.09542352706193924, 0.2152283489704132, 0.09324977546930313, -0.21600942313671112, -0.11868061125278473], [-0.18368813395500183, 0.016056204214692116, 0.1145857498049736, -0.08184389770030975, -0.12233804166316986, 0.19072170555591583, 0.19815631210803986, 0.11769537627696991], [0.05619245022535324, -0.12402275949716568, -0.19340847432613373, -0.09323105961084366, 0.12761621177196503, -0.16287150979042053, -0.018982959911227226, 0.053483746945858], [-0.009269078262150288, -0.14843036234378815, 0.0004664930747821927, 0.14862030744552612, -0.17477941513061523, -0.15525852143764496, 0.17928063869476318, 0.1926678568124771], [-0.1390523463487625, 0.05323800817131996, 0.153935045003891, -0.23738712072372437, -0.17030267417430878, -0.00785449892282486, 0.19938886165618896, 0.08176674693822861], [-0.018678270280361176, 0.11160360276699066, -0.05681683495640755, -0.2109500914812088, -0.07587776333093643, -0.07245215773582458, 0.004194863140583038, -0.3587365746498108], [-0.0009014836978167295, 0.13189636170864105, -0.0155789190903306, 0.1720108538866043, 0.04952981695532799, -0.16798610985279083, -0.05268101394176483, -0.18318739533424377], [-0.06632591784000397, 0.02194949798285961, 0.10725107789039612, 0.1376926153898239, -0.03654365614056587, -0.014702768996357918, 0.07198726385831833, 0.03786639869213104], [-0.03921330347657204, -0.11987221240997314, -0.22437980771064758, 0.07481198757886887, 0.017346780747175217, 0.17241156101226807, -0.20427462458610535, -0.0849861428141594], [0.019333234056830406, 0.19879552721977234, -0.08762765675783157, -0.00852045789361, -0.1679486185312271, 0.1854366809129715, 0.04326940327882767, 0.10025597363710403], [0.05437576770782471, -0.11952714622020721, -0.0659036859869957, -0.15091390907764435, -0.030245305970311165, 0.10727545619010925, 0.005256528500467539, 0.04208676889538765], [0.03937528282403946, 0.09950249642133713, -0.053139809519052505, -0.1516122817993164, -0.07012467831373215, -0.012408965267241001, 0.07002360373735428, -0.03545929118990898], [0.11796867847442627, 0.027815554291009903, 0.006195548921823502, -0.12120815366506577, -0.0752042755484581, 0.11894700676202774, -0.0509047694504261, 0.10391959547996521], [-0.13774330914020538, -0.1451362669467926, 0.2814153730869293, 0.09926535189151764, -0.02180997096002102, -0.021268652752041817, -0.22679869830608368, 0.10250165313482285], [0.06314361095428467, 0.06501707434654236, 0.08211993426084518, -0.20692609250545502, 0.07036151736974716, -0.06474750488996506, 0.09391127526760101, 0.36524155735969543], [-0.05337820202112198, -0.12859420478343964, -0.08240260928869247, 0.10099883377552032, 0.21038606762886047, -0.034374337643384933, 0.10743390768766403, -0.07597418874502182], [0.1349920779466629, -0.1132325604557991, -0.10800647735595703, -0.23557400703430176, -0.01104659028351307, -0.0008513842476531863, -0.042614083737134933, -0.2896400988101959], [-0.0034104736987501383, 0.15493039786815643, -0.24154135584831238, -0.022183295339345932, 0.03481406718492508, 0.09205830842256546, -0.17105472087860107, -0.1739918738603592], [0.19462905824184418, 0.17007054388523102, 0.091641865670681, 0.2023102343082428, -0.19053475558757782, -0.19996832311153412, -0.13534800708293915, 0.17134584486484528], [-0.03360440582036972, -0.0666540116071701, -0.15921799838542938, 0.09407615661621094, -0.03310707211494446, -0.06554265320301056, -0.13055352866649628, -0.16256271302700043], [0.04054071009159088, 0.07282349467277527, -0.2162444144487381, -0.11206957697868347, 0.09765730053186417, -0.07142597436904907, 0.14182034134864807, -0.1432304084300995], [0.13993065059185028, 0.1345568597316742, -0.05688801780343056, 0.12330447137355804, -0.201736718416214, -0.14411570131778717, 0.03683803603053093, 0.09674692153930664], [-0.12564098834991455, 0.007355822250247002, -0.09782688319683075, 0.11365849524736404, -0.06856584548950195, 0.04607681185007095, 0.07498937845230103, 0.30154797434806824], [0.09329596906900406, 0.03982972726225853, -0.16104860603809357, 0.03662615641951561, 0.10414038598537445, -0.11044225096702576, 0.08492967486381531, -0.3051741421222687], [-0.13541649281978607, -0.07828342914581299, -0.12047930806875229, -0.10025016218423843, -0.1533830761909485, -0.0763566792011261, 0.11469043046236038, -0.02890562079846859], [-0.14453458786010742, -0.042317427694797516, -0.21637442708015442, -0.05699259787797928, -0.17582546174526215, -0.019228313118219376, 0.113494873046875, 0.006159694399684668], [-0.11200109869241714, 0.07371232658624649, -0.19368411600589752, -0.25327128171920776, 0.17493975162506104, 0.14910514652729034, -0.09253779798746109, -0.03457002341747284], [-0.09416414052248001, 0.14221680164337158, 0.011917602270841599, -0.09059299528598785, 0.0454154834151268, 0.0530754029750824, -0.15060746669769287, 0.13576816022396088]], "b0": [-0.001361602684482932, -0.016777416691184044, 0.008645854890346527, 0.004287872929126024, 0.053990017622709274, 0.003880625357851386, 0.010335417464375496, 0.05380809307098389, 0.08211759477853775, 0.01190218050032854, -0.010996093973517418, -0.055559851229190826, -0.020437953993678093, -0.007145279087126255, 0.007481891196221113, 0.03571009263396263, 0.009104720316827297, 0.03327522799372673, -0.052482448518276215, 0.020850196480751038, 0.052862733602523804, -0.04587356373667717, -0.023777147755026817, -0.019318878650665283, -0.030676210299134254, -0.03482875972986221, -0.030424626544117928, -0.05744517222046852, -0.012295005843043327, 0.040291160345077515, -0.06057092174887657, 0.06913259625434875, -0.010852068662643433, 0.09322015196084976, -0.01683233492076397, 0.06420266628265381, -0.039892975240945816, 0.023398619145154953, 0.02827904373407364, 0.0062685199081897736, -0.0017542258137837052, -0.04115932062268257, -0.014256248250603676, -0.051597703248262405, -0.019108906388282776, -0.00762504106387496, -0.0367300920188427, -0.043401382863521576, 0.07423057407140732, -0.009463772177696228, 0.01139119453728199, -0.017759572714567184, -0.07503969222307205, -0.005447949282824993, -0.001713799312710762, -0.02225538156926632, 0.004766111262142658, 0.03937793895602226, 0.03685222938656807, 0.027614211663603783, -0.08625122159719467, -0.02681974694132805, 0.07483028620481491, -0.0040000565350055695, 0.06539791077375412, -0.010400976054370403, -0.08848832547664642, 0.1338481605052948, -0.05126924067735672, 0.04707898944616318, 0.0004795793502125889, -0.018545450642704964, 0.012450885027647018, 0.04294596239924431, 0.12587951123714447, 0.025022385641932487, 0.002370523288846016, 0.01401440054178238, -0.038085538893938065, -0.005540492013096809, 0.043184585869312286, -0.02210986614227295, 0.11056730896234512, 0.04053843766450882, 0.05444254353642464, 0.12256305664777756, 0.07753806561231613, -0.0008317054016515613, 0.027212195098400116, -0.047277484089136124, 0.00698449183255434, 0.0198958870023489, -0.04561072215437889, -0.020739508792757988, -0.002009609481319785, -0.01620430499315262, -0.028598565608263016, -0.005681842565536499, -0.04562694951891899, -0.04967586696147919, 0.032523397356271744, -0.09784521162509918, 0.051756665110588074, 0.05944041162729263, -0.0374482236802578, -0.052090153098106384, 0.03937482088804245, -0.0457942932844162, 0.0038159212563186884, -0.004248647950589657, -0.062346234917640686, 0.020968079566955566, -0.0059385825879871845, -0.04771678149700165, -0.009668149054050446], "w1": [[-0.19126515090465546, 0.1292239874601364, 0.04366859421133995, -0.10725633054971695, -0.15795645117759705, -0.10750497132539749, 0.1691303849220276, -0.01203739084303379, 0.018931297585368156, 0.04531854763627052, 0.13245905935764313, 0.08596305549144745, 0.23700499534606934, -0.001150157768279314, 0.18115630745887756, 0.07466138899326324, 0.059225670993328094, -0.019123399630188942, 0.01396157220005989, -0.15246282517910004, -0.07701273262500763, 0.06210708245635033, 0.015987349674105644, 0.15645278990268707, 0.20850728452205658, -0.1892392933368683, -0.02823587693274021, 0.007941963151097298, -0.06738398969173431, -0.10090616345405579, -0.18274439871311188, -0.019716640934348106, -0.06439267098903656, -0.11135568469762802, -0.06848949939012527, 0.10910991579294205, 0.1595553457736969, -0.17770805954933167, 0.07399418205022812, -0.07647870481014252, 0.06949549913406372, 0.17095227539539337, -0.0888185203075409, 0.15982308983802795, 0.10529205203056335, -0.1405283510684967, 0.06568564474582672, -0.004231182858347893, -0.06594976782798767, 0.23911404609680176, 0.0028627710416913033, -0.12573134899139404, -0.0769755020737648, -0.07450801879167557, -0.0948382094502449, -0.04165469482541084, -0.03456474468111992, 0.0783323273062706, 0.1840428113937378, 0.044055234640836716, 0.1253320574760437, 0.14851625263690948, -0.13135893642902374, 0.17709679901599884, -0.014465367421507835, -0.017206264659762383, -0.05102219060063362, -0.2119753360748291, -0.16241352260112762, 0.07055724412202835, 0.1368788331747055, 0.14172513782978058, 0.17179958522319794, -0.13416747748851776, -0.07144343852996826, 0.08556552976369858, -0.21876756846904755, -0.028410429134964943, 0.1545758843421936, 0.08337558805942535, 0.025464240461587906, 0.006497022695839405, -0.09206967800855637, -0.04625215381383896, 0.08289293944835663, -0.09071726351976395, 0.028523175045847893, 0.07274261116981506, -0.09345763176679611, 0.10314598679542542, 0.15486350655555725, 0.0039200494065880775, -0.15423716604709625, 0.15167145431041718, 0.0924895778298378, 0.057852908968925476, 0.041019365191459656, 0.061170920729637146, 0.03624850511550903, 0.16573816537857056, 0.04070846736431122, 0.22141218185424805, -0.1010504737496376, -0.19945786893367767, 0.1695736199617386, -0.055919207632541656, -0.024624351412057877, 0.020909087732434273, 0.018168892711400986, 0.011923514306545258, 0.012578566558659077, 0.13708928227424622, -0.19717936217784882, 0.05533786490559578, -0.11315123736858368], [0.07776342332363129, 0.04516218975186348, 0.06896743923425674, -0.010034204460680485, -0.07223763316869736, -0.18067023158073425, -0.11339055001735687, -0.15168558061122894, -0.2247084528207779, -0.09997924417257309, -0.020344335585832596, -0.1929376721382141, 0.1842939406633377, 0.010472521185874939, -0.006299827713519335, -0.22716154158115387, -0.11465200036764145, 0.033690664917230606, -0.003166627837345004, -0.19882629811763763, 0.10348471999168396, 0.13643620908260345, -0.17820429801940918, -0.1398502141237259, 0.07638345658779144, -0.06731875985860825, 0.1594357043504715, -0.017461279407143593, 0.10028441250324249, -0.15879516303539276, 0.16983741521835327, -0.003995245788246393, 0.1292070746421814, -0.18720878660678864, 0.03048914112150669, -0.2211100161075592, -0.13293756544589996, 0.12545982003211975, -0.19160343706607819, -0.13208816945552826, -0.012560627423226833, 0.06148538738489151, -0.07178282737731934, -0.12570823729038239, 0.13838039338588715, 0.0009082279284484684, -0.18146711587905884, 0.057027142494916916, -0.05014900118112564, 0.17334766685962677, 0.13593927025794983, 0.1875307857990265, 0.05485745146870613, 0.09600275754928589, 0.09177785366773605, -0.11159379780292511, 0.08118479698896408, 0.0464998260140419, -0.03363344818353653, 0.010933981277048588, 0.19412179291248322, -0.0855238139629364, 0.14625437557697296, 0.05386517196893692, -0.14940428733825684, -0.03516806289553642, -0.002215651096776128, -0.08522576093673706, 0.18998074531555176, -0.19347462058067322, -0.00047737170825712383, -0.010195809416472912, 0.07761114090681076, -0.09364329278469086, 0.04895938187837601, -0.17680349946022034, 0.14808158576488495, 0.18180841207504272, 0.17816446721553802, 0.054692260921001434, -0.10624624043703079, 0.006225251592695713, -0.26304367184638977, -0.15880540013313293, -0.07212425768375397, -0.25107118487358093, 0.1792367398738861, 0.05447456240653992, 0.1352093666791916, 0.03258264437317848, 0.09348593652248383, -0.06147146224975586, -0.21532435715198517, 0.053528863936662674, -0.050951361656188965, -0.02032274566590786, 0.05738615617156029, -0.08733774721622467, -0.1702837347984314, 0.07237014174461365, -0.07990682125091553, -0.10778068006038666, 0.007790708914399147, 0.11390949785709381, 0.027708223089575768, 0.09751012921333313, -0.204226553440094, 0.16002151370048523, -0.06640302389860153, -0.2189609259366989, 0.1063050925731659, -0.0013704244047403336, -0.13220463693141937, 0.09376506507396698, 0.1653537154197693], [-0.005401439964771271, 0.1719411462545395, 0.08319141715765, 0.17646603286266327, -0.06097870692610741, -0.1978151500225067, 0.0951700210571289, 0.18952473998069763, 0.22398114204406738, 0.1089412048459053, -0.05599495396018028, -0.12122586369514465, 0.13985970616340637, -0.06743801385164261, -0.03125535696744919, 0.16972386837005615, 0.22203637659549713, -0.1750771403312683, -0.1911301463842392, 0.10378555953502655, 0.04677852243185043, -0.04166398569941521, 0.07411328703165054, -0.14215396344661713, 0.18498805165290833, -0.1625981628894806, -0.2321004718542099, -0.21214275062084198, -0.21681568026542664, -0.07649649679660797, 0.07978854328393936, 0.02599133737385273, 0.03988851234316826, 0.12884677946567535, -0.17790372669696808, 0.18127493560314178, 0.22661513090133667, 0.0711209699511528, 0.0741216242313385, -0.07305921614170074, 0.05476256459951401, 0.042349569499492645, -0.15040041506290436, -0.11651372164487839, -0.023532060906291008, 0.07042540609836578, 0.09030435979366302, -0.16337059438228607, 0.15577608346939087, -0.006098128389567137, 0.07018198817968369, -0.10884758085012436, -0.18084464967250824, -0.13173097372055054, -0.039934948086738586, -0.20136253535747528, -0.13068364560604095, 0.18999727070331573, 0.014059101231396198, 0.16267512738704681, -0.05750062316656113, -0.1338062584400177, 0.08959648758172989, 0.0003704120754264295, 0.11754485219717026, -0.08736130595207214, -0.09573477506637573, 0.11455036699771881, -0.05952848121523857, 0.05473484471440315, 0.0310429148375988, 0.046114515513181686, -0.2472175806760788, -0.07776647061109543, 0.1690104901790619, 0.21735845506191254, -0.030952338129281998, 0.12237706780433655, -0.14172115921974182, -0.20937122404575348, 0.08915386348962784, 0.010172652080655098, -0.1353720873594284, -0.03310053423047066, 0.07739131152629852, 0.16330552101135254, -0.0669582188129425, 0.16516223549842834, 0.03387175872921944, 0.17886102199554443, 0.1375260353088379, -0.08525901287794113, -0.23296959698200226, -0.09663502126932144, 0.026629291474819183, -0.005361360032111406, -0.00799808744341135, -0.19073577225208282, 0.19731062650680542, 0.18866802752017975, 0.024049002677202225, -0.28980326652526855, -0.01930440217256546, -0.22099393606185913, -0.03656831383705139, -0.07909741997718811, -0.08815164119005203, 0.003987698350101709, -0.06426141411066055, -0.1121387705206871, -0.04730606824159622, 0.13408036530017853, 0.19096533954143524, -0.0794297531247139, 0.208811417222023], [0.17191338539123535, -0.0771341547369957, 0.08303315937519073, -0.22807008028030396, 0.019282959401607513, -0.013676055707037449, -0.1869676560163498, -0.0034667178988456726, 0.1772623360157013, -0.07581368088722229, -0.18706345558166504, -0.1817493736743927, 0.1952390968799591, 0.08123618364334106, 0.09213651716709137, 0.09615115076303482, 0.12087857723236084, 0.014407780952751637, 0.007107586599886417, -0.16475242376327515, -0.19982518255710602, 0.19493626058101654, 0.12388303875923157, -0.016008000820875168, 0.07696828991174698, -0.13989368081092834, 0.12505483627319336, 0.044319380074739456, -0.17607221007347107, -0.1543664038181305, -0.13042370975017548, -0.029667912051081657, 0.09830676019191742, -0.15191592276096344, -0.12111002206802368, -0.21377107501029968, -0.12491100281476974, 0.06359351426362991, -0.14409393072128296, 0.09480222314596176, 0.09536200761795044, 0.11756705492734909, 0.054940029978752136, 0.016467798501253128, 0.00391349708661437, -0.1497160643339157, -0.04493165388703346, -0.22860513627529144, -0.0581192672252655, 0.1361617147922516, -0.13577155768871307, 0.08033633232116699, -0.17350463569164276, 0.19038380682468414, 0.1288728266954422, -0.0063443491235375404, 0.17862947285175323, -0.1784229427576065, 0.06275153905153275, -0.20101302862167358, -0.023393284529447556, -0.037308353930711746, -0.08178092539310455, -0.12920807301998138, 0.12136053293943405, -0.020365605130791664, 0.1403246968984604, 0.05755428969860077, 0.11004044860601425, -0.12903624773025513, 0.283892959356308, -0.119536392390728, -0.06868428736925125, 0.06280341744422913, -0.13412372767925262, -0.09085030853748322, -0.1629328429698944, 0.08824548870325089, -0.13696984946727753, -0.025100745260715485, 0.07243798673152924, -0.04387834668159485, 0.13307341933250427, -0.09944488853216171, -0.09939344227313995, -0.0615578256547451, 0.0871642678976059, 6.982417107792571e-05, -0.05202145874500275, -0.14581932127475739, -0.07303129136562347, -0.0918794497847557, 0.19319500029087067, 0.12313403189182281, 0.1713981032371521, 0.05599360540509224, 0.18028566241264343, 0.0462498813867569, 0.20164205133914948, -0.08988523483276367, -0.14292488992214203, 0.2557615041732788, 0.053344737738370895, 0.1880248785018921, 0.1014537662267685, -0.08382353186607361, 0.22576391696929932, 0.20683322846889496, 0.08114488422870636, -0.01083613932132721, 0.29769167304039, -0.08515506982803345, 0.2366650104522705, 0.13646098971366882, -0.13942484557628632], [0.062079764902591705, 0.07836049795150757, 0.13987639546394348, -0.15955714881420135, 0.17721110582351685, -0.09675581008195877, -0.13990528881549835, 0.18826265633106232, -0.08708517998456955, -0.0014684679917991161, 0.026606082916259766, 0.22793753445148468, 0.21425190567970276, -0.07709803432226181, -0.10858529806137085, -0.10591816157102585, -0.12354621291160583, -0.22734220325946808, 0.16086508333683014, -0.23312191665172577, -0.06302779912948608, -0.09754835814237595, 0.11543585360050201, 0.09518036991357803, 0.020063944160938263, -0.2512248158454895, 0.1548304706811905, 0.16316331923007965, 0.03645527735352516, -0.04895789921283722, -0.17911677062511444, -0.12611348927021027, -0.09753835946321487, -0.21150003373622894, -0.006203244905918837, -0.09415973722934723, 0.12792672216892242, 0.17652449011802673, 0.19329029321670532, 0.22880566120147705, -0.04758809879422188, 0.18947097659111023, 0.03799225017428398, -0.058923207223415375, 0.14889416098594666, 0.17886269092559814, -0.2136431187391281, 